<?xml version="1.0"?>
<MethodSetup Method="BDT::BDT">
  <GeneralInfo>
    <Info name="TMVA Release" value="4.1.4 [262404]"/>
    <Info name="ROOT Release" value="5.34/04 [336388]"/>
    <Info name="Creator" value="karavdia"/>
    <Info name="Date" value="Fri Oct 30 17:30:56 2015"/>
    <Info name="Host" value="Linux zitpcx5595 2.6.32-279.22.1.el6.x86_64 #1 SMP Tue Feb 5 14:33:39 CST 2013 x86_64 x86_64 x86_64 GNU/Linux"/>
    <Info name="Dir" value="/afs/desy.de/user/k/karavdia/xxl/af-cms/CMSSW_7_4_9/src/UHH2/ZprimeSemiLeptonic/qcd_rejection/tmva/test"/>
    <Info name="Training events" value="16190"/>
    <Info name="TrainingTime" value="1.23444915e+00"/>
    <Info name="AnalysisType" value="Classification"/>
  </GeneralInfo>
  <Options>
    <Option name="V" modified="Yes">False</Option>
    <Option name="VerbosityLevel" modified="No">Default</Option>
    <Option name="VarTransform" modified="No">None</Option>
    <Option name="H" modified="Yes">False</Option>
    <Option name="CreateMVAPdfs" modified="Yes">True</Option>
    <Option name="IgnoreNegWeightsInTraining" modified="No">False</Option>
    <Option name="NTrees" modified="Yes">100</Option>
    <Option name="RenormByClass" modified="No">False</Option>
    <Option name="BoostType" modified="Yes">AdaBoost</Option>
    <Option name="AdaBoostR2Loss" modified="No">quadratic</Option>
    <Option name="UseBaggedGrad" modified="No">False</Option>
    <Option name="GradBaggingFraction" modified="No">6.000000e-01</Option>
    <Option name="Shrinkage" modified="No">1.000000e+00</Option>
    <Option name="AdaBoostBeta" modified="Yes">5.000000e-02</Option>
    <Option name="UseRandomisedTrees" modified="Yes">True</Option>
    <Option name="UseNvars" modified="No">2</Option>
    <Option name="UsePoissonNvars" modified="No">True</Option>
    <Option name="UseNTrainEvents" modified="No">16190</Option>
    <Option name="UseWeightedTrees" modified="No">True</Option>
    <Option name="UseYesNoLeaf" modified="No">True</Option>
    <Option name="NodePurityLimit" modified="No">5.000000e-01</Option>
    <Option name="SeparationType" modified="Yes">misclassificationerror</Option>
    <Option name="nEventsMin" modified="No">64</Option>
    <Option name="nCuts" modified="No">20</Option>
    <Option name="UseFisherCuts" modified="No">False</Option>
    <Option name="MinLinCorrForFisher" modified="No">8.000000e-01</Option>
    <Option name="UseExclusiveVars" modified="No">False</Option>
    <Option name="PruneStrength" modified="No">0.000000e+00</Option>
    <Option name="PruneMethod" modified="No">nopruning</Option>
    <Option name="PruneBeforeBoost" modified="No">False</Option>
    <Option name="PruningValFraction" modified="No">5.000000e-01</Option>
    <Option name="NNodesMax" modified="No">100000</Option>
    <Option name="MaxDepth" modified="Yes">5</Option>
    <Option name="DoBoostMonitor" modified="No">False</Option>
    <Option name="NegWeightTreatment" modified="No">inverseboostnegweights</Option>
  </Options>
  <Variables NVar="5">
    <Variable VarIndex="0" Expression="met_pt" Label="met_pt" Title="missing E_{T}" Unit="GeV/c^{2}" Internal="met_pt" Type="F" Min="5.00067520e+01" Max="5.98265674e+03"/>
    <Variable VarIndex="1" Expression="lep_pt" Label="lep_pt" Title="lep p_{T}" Unit="GeV/c" Internal="lep_pt" Type="F" Min="5.00005989e+01" Max="3.85408081e+03"/>
    <Variable VarIndex="2" Expression="lep_eta" Label="lep_eta" Title="lep #eta" Unit="" Internal="lep_eta" Type="F" Min="-2.51678586e+00" Max="2.51285124e+00"/>
    <Variable VarIndex="3" Expression="lep_fbrem" Label="lep_fbrem" Title="lep f_{brem}" Unit="" Internal="lep_fbrem" Type="F" Min="-9.08695412e+00" Max="9.96582747e-01"/>
    <Variable VarIndex="4" Expression="ljet_pt" Label="ljet_pt" Title="lead jet p_{T}" Unit="GeV/c" Internal="ljet_pt" Type="F" Min="2.00106918e+02" Max="8.59569141e+03"/>
  </Variables>
  <Spectators NSpec="4">
    <Spectator SpecIndex="0" Expression="jet_n" Label="jet_n" Title="number of jets in event" Unit="" Internal="jet_n" Type="F" Min="2.00000000e+00" Max="1.30000000e+01"/>
    <Spectator SpecIndex="1" Expression="met_phi" Label="met_phi" Title="MET #phi" Unit="rad" Internal="met_phi" Type="F" Min="-3.14143395e+00" Max="3.14132953e+00"/>
    <Spectator SpecIndex="2" Expression="lep_phi" Label="lep_phi" Title="lep #phi" Unit="rad" Internal="lep_phi" Type="F" Min="-3.14152956e+00" Max="3.14084601e+00"/>
    <Spectator SpecIndex="3" Expression="ljet_phi" Label="ljet_phi" Title="lead jet #phi" Unit="rad" Internal="ljet_phi" Type="F" Min="-3.14070272e+00" Max="3.14147568e+00"/>
  </Spectators>
  <Classes NClass="2">
    <Class Name="Signal" Index="0"/>
    <Class Name="Background" Index="1"/>
  </Classes>
  <Transformations NTransformations="0"/>
  <MVAPdfs>
    <PDF Name="BDT_PDFSig" MinNSmooth="0" MaxNSmooth="0" InterpolMethod="2" KDE_type="1" KDE_iter="1" KDE_border="1" KDE_finefactor="1.0000000000000000e+00">
      <Histogram Name="BDT_tr_S_original" NBins="323" XMin="-1.0000000000000000e+00" XMax="1.0000000000000000e+00" HasEquidistantBins="1">
        0.00000000e+00 0.00000000e+00 0.00000000e+00 0.00000000e+00 2.10807989e-02 0.00000000e+00 0.00000000e+00 0.00000000e+00 2.10807989e-02 4.21615977e-02 2.10807989e-02 2.10807989e-02 0.00000000e+00 0.00000000e+00 2.10807989e-02 4.21615977e-02 6.32423966e-02 2.10807989e-02 6.32423966e-02 4.21615977e-02 4.21615977e-02 2.10807989e-02 0.00000000e+00 0.00000000e+00 2.10807989e-02 4.21615977e-02 2.10807989e-02 2.10807989e-02 4.21615977e-02 4.21615977e-02 6.32423966e-02 6.32423966e-02 2.10807989e-02 0.00000000e+00 1.26484793e-01 8.43231954e-02 8.43231954e-02 1.68646391e-01 1.05403994e-01 1.47565592e-01 2.10807989e-02 6.32423966e-02 1.26484793e-01 2.31888787e-01 6.32423966e-02 1.05403994e-01 2.10807989e-02 1.26484793e-01 1.26484793e-01 8.43231954e-02 1.47565592e-01 1.89727190e-01 8.43231954e-02 2.52969586e-01 1.05403994e-01 1.68646391e-01 1.05403994e-01 8.43231954e-02 1.89727190e-01 1.26484793e-01 1.05403994e-01 1.05403994e-01 1.26484793e-01 1.26484793e-01 4.21615977e-02 1.05403994e-01 8.43231954e-02 6.32423966e-02 6.32423966e-02 1.68646391e-01 1.05403994e-01 1.89727190e-01 2.31888787e-01 2.10807989e-01 2.10807989e-01 1.68646391e-01 1.05403994e-01 1.68646391e-01 4.21615977e-02 2.31888787e-01 1.26484793e-01 1.68646391e-01 1.68646391e-01 1.68646391e-01 2.10807989e-01 1.26484793e-01 6.32423966e-02 1.05403994e-01 2.31888787e-01 1.89727190e-01 2.74050385e-01 1.05403994e-01 1.89727190e-01 2.95131184e-01 1.05403994e-01 3.16211983e-01 2.10807989e-01 2.52969586e-01 1.26484793e-01 1.26484793e-01 1.89727190e-01 1.47565592e-01 1.68646391e-01 2.31888787e-01 3.37292782e-01 2.74050385e-01 2.10807989e-01 1.47565592e-01 1.68646391e-01 1.68646391e-01 1.26484793e-01 2.10807989e-01 2.52969586e-01 2.31888787e-01 3.16211983e-01 2.52969586e-01 1.47565592e-01 3.37292782e-01 2.52969586e-01 1.05403994e-01 1.26484793e-01 1.89727190e-01 1.89727190e-01 2.10807989e-01 8.43231954e-02 8.43231954e-02 3.16211983e-01 2.95131184e-01 2.52969586e-01 2.10807989e-01 2.31888787e-01 2.10807989e-01 1.89727190e-01 2.74050385e-01 3.16211983e-01 4.21615977e-01 5.27019971e-01 2.95131184e-01 2.74050385e-01 3.16211983e-01 1.05403994e-01 1.68646391e-01 3.79454379e-01 2.31888787e-01 2.95131184e-01 4.42696776e-01 3.37292782e-01 3.58373580e-01 3.16211983e-01 4.42696776e-01 5.05939172e-01 4.21615977e-01 2.31888787e-01 4.00535178e-01 3.37292782e-01 4.00535178e-01 2.52969586e-01 4.63777575e-01 2.10807989e-01 3.37292782e-01 2.31888787e-01 2.95131184e-01 1.89727190e-01 2.74050385e-01 2.95131184e-01 2.31888787e-01 1.89727190e-01 2.74050385e-01 2.31888787e-01 2.10807989e-01 3.37292782e-01 1.68646391e-01 2.10807989e-01 2.31888787e-01 2.31888787e-01 2.74050385e-01 4.21615977e-01 4.42696776e-01 3.16211983e-01 4.42696776e-01 2.31888787e-01 2.74050385e-01 2.10807989e-01 4.42696776e-01 4.00535178e-01 2.74050385e-01 3.58373580e-01 3.37292782e-01 2.31888787e-01 3.79454379e-01 3.58373580e-01 3.79454379e-01 3.79454379e-01 3.16211983e-01 2.52969586e-01 2.74050385e-01 3.37292782e-01 2.95131184e-01 2.52969586e-01 2.95131184e-01 4.21615977e-01 3.16211983e-01 3.37292782e-01 4.00535178e-01 1.68646391e-01 6.53504764e-01 6.11343167e-01 3.37292782e-01 4.63777575e-01 2.74050385e-01 3.37292782e-01 5.27019971e-01 6.32423966e-01 3.58373580e-01 2.95131184e-01 5.90262368e-01 2.74050385e-01 5.27019971e-01 4.21615977e-01 2.95131184e-01 3.79454379e-01 4.21615977e-01 6.53504764e-01 4.63777575e-01 8.01070356e-01 3.37292782e-01 6.11343167e-01 4.21615977e-01 3.16211983e-01 6.11343167e-01 5.90262368e-01 4.21615977e-01 6.11343167e-01 5.05939172e-01 4.63777575e-01 4.84858374e-01 5.48100770e-01 4.84858374e-01 7.16747161e-01 3.79454379e-01 2.95131184e-01 4.21615977e-01 1.01187834e+00 7.79989557e-01 4.00535178e-01 6.53504764e-01 4.00535178e-01 4.63777575e-01 5.90262368e-01 6.32423966e-01 4.42696776e-01 8.85393552e-01 4.42696776e-01 4.42696776e-01 9.69716747e-01 6.53504764e-01 6.95666362e-01 6.11343167e-01 8.01070356e-01 8.43231954e-01 4.84858374e-01 5.69181569e-01 5.27019971e-01 6.53504764e-01 7.37827960e-01 6.53504764e-01 6.74585563e-01 6.95666362e-01 5.90262368e-01 5.27019971e-01 8.22151155e-01 8.01070356e-01 6.53504764e-01 5.69181569e-01 9.69716747e-01 1.22268633e+00 1.68646391e+00 6.53504764e-01 4.55345255e+00 1.24376713e+00 9.06474351e-01 8.85393552e-01 9.06474351e-01 2.44537267e+00 4.21615977e-01 3.77346299e+00 5.48100770e-01 5.27019971e-01 9.06474351e-01 1.22268633e+00 1.62322151e+00 3.37292782e-01 9.69716747e-01 6.74585563e-01 7.37827960e-01 8.01070356e-01 1.28592873e+00 1.03295914e+00 1.93943349e+00 8.43231954e-01 1.03295914e+00 7.16747161e-01 8.01070356e-01 1.05403994e+00 1.30700953e+00 7.79989557e-01 8.22151155e-01 6.95666362e-01 1.24376713e+00 1.41241352e+00 1.39133272e+00 7.79989557e-01 9.06474351e-01 2.00267589e+00 1.07512074e+00 9.27555149e-01 6.32423966e-01 2.59293826e+00 5.90262368e-01 2.84590784e+00 2.31888787e-01 2.68147761e+01 0.00000000e+00 
      </Histogram>
    </PDF>
    <PDF Name="BDT_PDFBkg" MinNSmooth="0" MaxNSmooth="0" InterpolMethod="2" KDE_type="1" KDE_iter="1" KDE_border="1" KDE_finefactor="1.0000000000000000e+00">
      <Histogram Name="BDT_tr_B_original" NBins="323" XMin="-1.0000000000000000e+00" XMax="1.0000000000000000e+00" HasEquidistantBins="1">
        6.25343492e-01 5.48688484e+00 3.42930302e-01 6.05171122e-01 2.72327005e+00 3.63102673e-01 1.33137647e+00 9.07756682e-01 1.08930802e+00 1.35154884e+00 7.86722458e-01 2.38033975e+00 1.04896328e+00 9.48101424e-01 1.41206595e+00 1.21034224e+00 1.59361729e+00 1.77516862e+00 1.81551336e+00 1.39189358e+00 1.43223832e+00 6.25343492e-01 2.60223582e+00 9.48101424e-01 7.06032975e-01 2.31982263e+00 1.31120410e+00 1.00861854e+00 1.10948039e+00 9.27929053e-01 1.29103173e+00 1.29103173e+00 1.02879091e+00 1.39189358e+00 1.79534099e+00 1.57344492e+00 1.47258306e+00 1.85585811e+00 1.73482388e+00 1.59361729e+00 1.75499625e+00 1.47258306e+00 1.73482388e+00 1.47258306e+00 1.41206595e+00 1.43223832e+00 1.67430677e+00 1.27085936e+00 1.10948039e+00 1.23051461e+00 1.67430677e+00 1.10948039e+00 1.21034224e+00 1.12965276e+00 1.55327255e+00 8.67411941e-01 1.33137647e+00 1.49275543e+00 9.48101424e-01 9.68273795e-01 9.27929053e-01 7.66550087e-01 8.06894829e-01 7.26205346e-01 5.24481639e-01 7.86722458e-01 9.48101424e-01 5.64826380e-01 1.08930802e+00 1.57344492e+00 5.44654009e-01 9.68273795e-01 7.46377717e-01 7.86722458e-01 9.48101424e-01 6.85860605e-01 1.27085936e+00 5.44654009e-01 7.86722458e-01 8.67411941e-01 7.86722458e-01 5.64826380e-01 8.06894829e-01 4.84136897e-01 7.86722458e-01 4.43792156e-01 7.26205346e-01 8.27067200e-01 6.85860605e-01 6.45515863e-01 8.27067200e-01 4.84136897e-01 7.26205346e-01 7.46377717e-01 5.04309268e-01 8.27067200e-01 5.84998751e-01 5.44654009e-01 6.05171122e-01 4.84136897e-01 6.65688234e-01 4.23619785e-01 4.84136897e-01 6.85860605e-01 6.45515863e-01 5.44654009e-01 8.67411941e-01 7.86722458e-01 6.45515863e-01 5.64826380e-01 4.23619785e-01 5.24481639e-01 5.84998751e-01 6.05171122e-01 5.04309268e-01 5.04309268e-01 3.83275044e-01 6.85860605e-01 6.05171122e-01 3.63102673e-01 7.66550087e-01 7.26205346e-01 3.63102673e-01 4.63964527e-01 3.42930302e-01 2.62240819e-01 5.44654009e-01 3.63102673e-01 4.43792156e-01 4.03447414e-01 3.83275044e-01 5.64826380e-01 5.64826380e-01 4.03447414e-01 5.84998751e-01 6.05171122e-01 8.87584312e-01 4.84136897e-01 3.83275044e-01 5.24481639e-01 5.04309268e-01 1.61378966e-01 6.05171122e-01 3.83275044e-01 5.44654009e-01 8.47239570e-01 4.23619785e-01 4.23619785e-01 2.42068449e-01 5.44654009e-01 4.63964527e-01 4.03447414e-01 3.42930302e-01 3.83275044e-01 2.82413190e-01 5.04309268e-01 5.24481639e-01 3.22757932e-01 2.62240819e-01 4.03447414e-01 3.02585561e-01 1.61378966e-01 1.81551336e-01 3.22757932e-01 3.22757932e-01 2.62240819e-01 2.42068449e-01 2.42068449e-01 2.62240819e-01 1.81551336e-01 8.06894829e-02 1.00861854e-01 1.41206595e-01 3.42930302e-01 1.00861854e-01 2.42068449e-01 2.21896078e-01 1.81551336e-01 3.02585561e-01 1.61378966e-01 2.21896078e-01 1.00861854e-01 1.41206595e-01 1.21034224e-01 1.00861854e-01 1.21034224e-01 1.21034224e-01 2.62240819e-01 1.81551336e-01 1.41206595e-01 1.61378966e-01 1.41206595e-01 1.21034224e-01 2.01723707e-02 1.00861854e-01 1.41206595e-01 1.21034224e-01 1.41206595e-01 1.21034224e-01 1.81551336e-01 1.00861854e-01 1.61378966e-01 8.06894829e-02 1.81551336e-01 2.21896078e-01 1.21034224e-01 1.41206595e-01 1.81551336e-01 2.42068449e-01 8.06894829e-02 1.21034224e-01 1.61378966e-01 6.05171122e-02 1.21034224e-01 1.21034224e-01 2.01723707e-01 1.81551336e-01 1.21034224e-01 1.61378966e-01 1.00861854e-01 2.21896078e-01 1.21034224e-01 1.61378966e-01 1.81551336e-01 2.01723707e-01 6.05171122e-02 2.01723707e-01 1.61378966e-01 1.21034224e-01 2.21896078e-01 2.01723707e-01 1.21034224e-01 1.81551336e-01 1.00861854e-01 1.21034224e-01 1.61378966e-01 1.61378966e-01 1.61378966e-01 1.41206595e-01 6.05171122e-02 8.06894829e-02 1.21034224e-01 8.06894829e-02 6.05171122e-02 6.05171122e-02 2.01723707e-01 2.01723707e-02 1.21034224e-01 1.41206595e-01 8.06894829e-02 4.03447414e-02 8.06894829e-02 1.00861854e-01 8.06894829e-02 1.41206595e-01 6.05171122e-02 6.05171122e-02 8.06894829e-02 4.03447414e-02 8.06894829e-02 6.05171122e-02 6.05171122e-02 2.01723707e-02 2.01723707e-02 4.03447414e-02 2.01723707e-02 6.05171122e-02 2.01723707e-02 2.01723707e-02 4.03447414e-02 6.05171122e-02 6.05171122e-02 0.00000000e+00 4.03447414e-02 8.06894829e-02 1.21034224e-01 2.01723707e-01 8.06894829e-02 1.00861854e-01 4.03447414e-02 2.01723707e-02 2.01723707e-02 0.00000000e+00 1.21034224e-01 2.01723707e-02 2.21896078e-01 0.00000000e+00 2.01723707e-02 2.01723707e-02 8.06894829e-02 2.01723707e-02 6.05171122e-02 0.00000000e+00 2.01723707e-02 2.01723707e-02 4.03447414e-02 0.00000000e+00 4.03447414e-02 2.01723707e-02 4.03447414e-02 6.05171122e-02 4.03447414e-02 2.01723707e-02 0.00000000e+00 2.01723707e-02 4.03447414e-02 4.03447414e-02 0.00000000e+00 0.00000000e+00 4.03447414e-02 2.01723707e-02 0.00000000e+00 2.01723707e-02 2.01723707e-02 0.00000000e+00 0.00000000e+00 0.00000000e+00 0.00000000e+00 0.00000000e+00 4.03447414e-02 0.00000000e+00 2.62240819e-01 0.00000000e+00 
      </Histogram>
    </PDF>
  </MVAPdfs>
  <Weights NTrees="100" AnalysisType="0">
    <BinaryTree type="DecisionTree" boostWeight="4.0409409905654316e-02" itree="0">
      <Node pos="s" depth="0" NCoef="0" IVar="1" Cut="4.1229394531250000e+02" cType="1" res="-9.9000000000000000e+01" rms="0.0000000000000000e+00" purity="5.0512659549713135e-01" nType="0">
        <Node pos="l" depth="1" NCoef="0" IVar="0" Cut="3.3254364013671875e+02" cType="0" res="-9.9000000000000000e+01" rms="0.0000000000000000e+00" purity="6.2534314393997192e-01" nType="1"/>
        <Node pos="r" depth="1" NCoef="0" IVar="0" Cut="2.9834109497070312e+02" cType="0" res="-9.9000000000000000e+01" rms="0.0000000000000000e+00" purity="1.9607411324977875e-01" nType="0">
          <Node pos="l" depth="2" NCoef="0" IVar="2" Cut="-8.2222890853881836e-01" cType="0" res="-9.9000000000000000e+01" rms="0.0000000000000000e+00" purity="7.4491679668426514e-01" nType="1"/>
          <Node pos="r" depth="2" NCoef="0" IVar="0" Cut="6.1831050872802734e+01" cType="0" res="-9.9000000000000000e+01" rms="0.0000000000000000e+00" purity="1.2171299755573273e-01" nType="-1"/>
        </Node>
      </Node>
    </BinaryTree>
    <BinaryTree type="DecisionTree" boostWeight="6.7829089000507617e-02" itree="1">
      <Node pos="s" depth="0" NCoef="0" IVar="1" Cut="2.3114727783203125e+02" cType="1" res="-9.9000000000000000e+01" rms="0.0000000000000000e+00" purity="5.0000822544097900e-01" nType="0">
        <Node pos="l" depth="1" NCoef="0" IVar="4" Cut="1.7992658691406250e+03" cType="1" res="-9.9000000000000000e+01" rms="0.0000000000000000e+00" purity="6.5491914749145508e-01" nType="0">
          <Node pos="l" depth="2" NCoef="0" IVar="0" Cut="1.2420022583007812e+02" cType="0" res="-9.9000000000000000e+01" rms="0.0000000000000000e+00" purity="6.7629295587539673e-01" nType="0">
            <Node pos="l" depth="3" NCoef="0" IVar="0" Cut="1.9483323669433594e+02" cType="0" res="-9.9000000000000000e+01" rms="0.0000000000000000e+00" purity="8.7330973148345947e-01" nType="1"/>
            <Node pos="r" depth="3" NCoef="0" IVar="0" Cut="1.1007354736328125e+02" cType="0" res="-9.9000000000000000e+01" rms="0.0000000000000000e+00" purity="3.9380654692649841e-01" nType="0">
              <Node pos="l" depth="4" NCoef="0" IVar="3" Cut="1.7916491627693176e-01" cType="1" res="-9.9000000000000000e+01" rms="0.0000000000000000e+00" purity="5.6268000602722168e-01" nType="1"/>
              <Node pos="r" depth="4" NCoef="0" IVar="4" Cut="3.5019229125976562e+02" cType="1" res="-9.9000000000000000e+01" rms="0.0000000000000000e+00" purity="3.6599782109260559e-01" nType="0">
                <Node pos="l" depth="5" NCoef="0" IVar="-1" Cut="0.0000000000000000e+00" cType="1" res="-9.9000000000000000e+01" rms="0.0000000000000000e+00" purity="5.6689542531967163e-01" nType="1"/>
                <Node pos="r" depth="5" NCoef="0" IVar="-1" Cut="0.0000000000000000e+00" cType="1" res="-9.9000000000000000e+01" rms="0.0000000000000000e+00" purity="2.3977895081043243e-01" nType="-1"/>
              </Node>
            </Node>
          </Node>
          <Node pos="r" depth="2" NCoef="0" IVar="2" Cut="-1.2919834852218628e+00" cType="0" res="-9.9000000000000000e+01" rms="0.0000000000000000e+00" purity="1.0558399371802807e-02" nType="-1"/>
        </Node>
        <Node pos="r" depth="1" NCoef="0" IVar="1" Cut="4.0372467041015625e+02" cType="1" res="-9.9000000000000000e+01" rms="0.0000000000000000e+00" purity="3.1832545995712280e-01" nType="0">
          <Node pos="l" depth="2" NCoef="0" IVar="0" Cut="1.5861012268066406e+02" cType="0" res="-9.9000000000000000e+01" rms="0.0000000000000000e+00" purity="5.0534433126449585e-01" nType="0">
            <Node pos="l" depth="3" NCoef="0" IVar="2" Cut="-1.2892174720764160e+00" cType="0" res="-9.9000000000000000e+01" rms="0.0000000000000000e+00" purity="8.8903081417083740e-01" nType="1"/>
            <Node pos="r" depth="3" NCoef="0" IVar="3" Cut="1.6351231932640076e-01" cType="1" res="-9.9000000000000000e+01" rms="0.0000000000000000e+00" purity="2.6809895038604736e-01" nType="-1"/>
          </Node>
          <Node pos="r" depth="2" NCoef="0" IVar="2" Cut="-2.0133781433105469e+00" cType="0" res="-9.9000000000000000e+01" rms="0.0000000000000000e+00" purity="2.0332275331020355e-01" nType="-1"/>
        </Node>
      </Node>
    </BinaryTree>
    <BinaryTree type="DecisionTree" boostWeight="5.6355530403259746e-02" itree="2">
      <Node pos="s" depth="0" NCoef="0" IVar="0" Cut="3.3251388549804688e+02" cType="0" res="-9.9000000000000000e+01" rms="0.0000000000000000e+00" purity="5.0083154439926147e-01" nType="0">
        <Node pos="l" depth="1" NCoef="0" IVar="1" Cut="1.0437862548828125e+03" cType="1" res="-9.9000000000000000e+01" rms="0.0000000000000000e+00" purity="9.4021391868591309e-01" nType="0">
          <Node pos="l" depth="2" NCoef="0" IVar="0" Cut="6.0157531738281250e+02" cType="0" res="-9.9000000000000000e+01" rms="0.0000000000000000e+00" purity="9.6551233530044556e-01" nType="1"/>
          <Node pos="r" depth="2" NCoef="0" IVar="-1" Cut="0.0000000000000000e+00" cType="1" res="-9.9000000000000000e+01" rms="0.0000000000000000e+00" purity="4.0000796318054199e-02" nType="-1"/>
        </Node>
        <Node pos="r" depth="1" NCoef="0" IVar="0" Cut="1.4415919494628906e+02" cType="0" res="-9.9000000000000000e+01" rms="0.0000000000000000e+00" purity="4.0662664175033569e-01" nType="0">
          <Node pos="l" depth="2" NCoef="0" IVar="3" Cut="1.2200267612934113e-01" cType="1" res="-9.9000000000000000e+01" rms="0.0000000000000000e+00" purity="6.7701989412307739e-01" nType="1"/>
          <Node pos="r" depth="2" NCoef="0" IVar="1" Cut="2.1532844543457031e+02" cType="1" res="-9.9000000000000000e+01" rms="0.0000000000000000e+00" purity="2.7334228157997131e-01" nType="-1"/>
        </Node>
      </Node>
    </BinaryTree>
    <BinaryTree type="DecisionTree" boostWeight="6.2006535909476169e-02" itree="3">
      <Node pos="s" depth="0" NCoef="0" IVar="3" Cut="5.1641434431076050e-01" cType="1" res="-9.9000000000000000e+01" rms="0.0000000000000000e+00" purity="5.0245547294616699e-01" nType="0">
        <Node pos="l" depth="1" NCoef="0" IVar="1" Cut="3.8124362182617188e+02" cType="1" res="-9.9000000000000000e+01" rms="0.0000000000000000e+00" purity="5.5878800153732300e-01" nType="0">
          <Node pos="l" depth="2" NCoef="0" IVar="2" Cut="1.3188045024871826e+00" cType="1" res="-9.9000000000000000e+01" rms="0.0000000000000000e+00" purity="6.5815353393554688e-01" nType="0">
            <Node pos="l" depth="3" NCoef="0" IVar="2" Cut="-1.4108513593673706e+00" cType="0" res="-9.9000000000000000e+01" rms="0.0000000000000000e+00" purity="7.1805220842361450e-01" nType="0">
              <Node pos="l" depth="4" NCoef="0" IVar="2" Cut="-1.2791785001754761e+00" cType="0" res="-9.9000000000000000e+01" rms="0.0000000000000000e+00" purity="7.8624588251113892e-01" nType="1"/>
              <Node pos="r" depth="4" NCoef="0" IVar="0" Cut="1.6505657958984375e+02" cType="0" res="-9.9000000000000000e+01" rms="0.0000000000000000e+00" purity="3.1091836094856262e-01" nType="0">
                <Node pos="l" depth="5" NCoef="0" IVar="-1" Cut="0.0000000000000000e+00" cType="1" res="-9.9000000000000000e+01" rms="0.0000000000000000e+00" purity="6.6741210222244263e-01" nType="1"/>
                <Node pos="r" depth="5" NCoef="0" IVar="-1" Cut="0.0000000000000000e+00" cType="1" res="-9.9000000000000000e+01" rms="0.0000000000000000e+00" purity="1.9690822064876556e-01" nType="-1"/>
              </Node>
            </Node>
            <Node pos="r" depth="3" NCoef="0" IVar="1" Cut="6.5707962036132812e+01" cType="1" res="-9.9000000000000000e+01" rms="0.0000000000000000e+00" purity="2.9981875419616699e-01" nType="-1"/>
          </Node>
          <Node pos="r" depth="2" NCoef="0" IVar="1" Cut="5.3117675781250000e+02" cType="1" res="-9.9000000000000000e+01" rms="0.0000000000000000e+00" purity="2.9960477352142334e-01" nType="-1"/>
        </Node>
        <Node pos="r" depth="1" NCoef="0" IVar="4" Cut="3.9102389526367188e+02" cType="1" res="-9.9000000000000000e+01" rms="0.0000000000000000e+00" purity="4.3729251623153687e-01" nType="0">
          <Node pos="l" depth="2" NCoef="0" IVar="1" Cut="1.8133044433593750e+02" cType="1" res="-9.9000000000000000e+01" rms="0.0000000000000000e+00" purity="6.7481577396392822e-01" nType="0">
            <Node pos="l" depth="3" NCoef="0" IVar="2" Cut="2.0271847248077393e+00" cType="1" res="-9.9000000000000000e+01" rms="0.0000000000000000e+00" purity="7.6924991607666016e-01" nType="0">
              <Node pos="l" depth="4" NCoef="0" IVar="0" Cut="7.8463958740234375e+01" cType="0" res="-9.9000000000000000e+01" rms="0.0000000000000000e+00" purity="7.8667742013931274e-01" nType="0">
                <Node pos="l" depth="5" NCoef="0" IVar="-1" Cut="0.0000000000000000e+00" cType="1" res="-9.9000000000000000e+01" rms="0.0000000000000000e+00" purity="8.9239847660064697e-01" nType="1"/>
                <Node pos="r" depth="5" NCoef="0" IVar="-1" Cut="0.0000000000000000e+00" cType="1" res="-9.9000000000000000e+01" rms="0.0000000000000000e+00" purity="4.1326302289962769e-01" nType="-1"/>
              </Node>
              <Node pos="r" depth="4" NCoef="0" IVar="-1" Cut="0.0000000000000000e+00" cType="1" res="-9.9000000000000000e+01" rms="0.0000000000000000e+00" purity="4.8779496550559998e-01" nType="-1"/>
            </Node>
            <Node pos="r" depth="3" NCoef="0" IVar="4" Cut="2.6404544067382812e+02" cType="1" res="-9.9000000000000000e+01" rms="0.0000000000000000e+00" purity="4.2748108506202698e-01" nType="0">
              <Node pos="l" depth="4" NCoef="0" IVar="-1" Cut="0.0000000000000000e+00" cType="1" res="-9.9000000000000000e+01" rms="0.0000000000000000e+00" purity="6.0807007551193237e-01" nType="1"/>
              <Node pos="r" depth="4" NCoef="0" IVar="2" Cut="-1.5562613010406494e+00" cType="0" res="-9.9000000000000000e+01" rms="0.0000000000000000e+00" purity="3.7443664669990540e-01" nType="-1"/>
            </Node>
          </Node>
          <Node pos="r" depth="2" NCoef="0" IVar="0" Cut="1.9833418273925781e+02" cType="0" res="-9.9000000000000000e+01" rms="0.0000000000000000e+00" purity="3.6360171437263489e-01" nType="0">
            <Node pos="l" depth="3" NCoef="0" IVar="0" Cut="2.6548910522460938e+02" cType="0" res="-9.9000000000000000e+01" rms="0.0000000000000000e+00" purity="8.0394929647445679e-01" nType="1"/>
            <Node pos="r" depth="3" NCoef="0" IVar="0" Cut="5.7062591552734375e+01" cType="0" res="-9.9000000000000000e+01" rms="0.0000000000000000e+00" purity="1.7694661021232605e-01" nType="-1"/>
          </Node>
        </Node>
      </Node>
    </BinaryTree>
    <BinaryTree type="DecisionTree" boostWeight="4.9947939642864821e-02" itree="4">
      <Node pos="s" depth="0" NCoef="0" IVar="2" Cut="1.0758121013641357e+00" cType="1" res="-9.9000000000000000e+01" rms="0.0000000000000000e+00" purity="5.0355094671249390e-01" nType="0">
        <Node pos="l" depth="1" NCoef="0" IVar="3" Cut="5.3916424512863159e-01" cType="1" res="-9.9000000000000000e+01" rms="0.0000000000000000e+00" purity="5.5770587921142578e-01" nType="0">
          <Node pos="l" depth="2" NCoef="0" IVar="0" Cut="1.1772938537597656e+02" cType="0" res="-9.9000000000000000e+01" rms="0.0000000000000000e+00" purity="6.0533767938613892e-01" nType="0">
            <Node pos="l" depth="3" NCoef="0" IVar="3" Cut="1.2403018027544022e-01" cType="1" res="-9.9000000000000000e+01" rms="0.0000000000000000e+00" purity="7.7223587036132812e-01" nType="1"/>
            <Node pos="r" depth="3" NCoef="0" IVar="0" Cut="5.3255657196044922e+01" cType="0" res="-9.9000000000000000e+01" rms="0.0000000000000000e+00" purity="3.4079012274742126e-01" nType="-1"/>
          </Node>
          <Node pos="r" depth="2" NCoef="0" IVar="0" Cut="1.9833418273925781e+02" cType="0" res="-9.9000000000000000e+01" rms="0.0000000000000000e+00" purity="4.8487675189971924e-01" nType="0">
            <Node pos="l" depth="3" NCoef="0" IVar="0" Cut="2.6546987915039062e+02" cType="0" res="-9.9000000000000000e+01" rms="0.0000000000000000e+00" purity="8.4717398881912231e-01" nType="1"/>
            <Node pos="r" depth="3" NCoef="0" IVar="4" Cut="3.9105953979492188e+02" cType="1" res="-9.9000000000000000e+01" rms="0.0000000000000000e+00" purity="3.2651296257972717e-01" nType="0">
              <Node pos="l" depth="4" NCoef="0" IVar="3" Cut="5.8275568485260010e-01" cType="1" res="-9.9000000000000000e+01" rms="0.0000000000000000e+00" purity="6.4403665065765381e-01" nType="1"/>
              <Node pos="r" depth="4" NCoef="0" IVar="1" Cut="2.3124670410156250e+02" cType="1" res="-9.9000000000000000e+01" rms="0.0000000000000000e+00" purity="2.1269519627094269e-01" nType="-1"/>
            </Node>
          </Node>
        </Node>
        <Node pos="r" depth="1" NCoef="0" IVar="4" Cut="5.9989666748046875e+02" cType="1" res="-9.9000000000000000e+01" rms="0.0000000000000000e+00" purity="3.2690000534057617e-01" nType="-1"/>
      </Node>
    </BinaryTree>
    <BinaryTree type="DecisionTree" boostWeight="1.6171281521012760e-02" itree="5">
      <Node pos="s" depth="0" NCoef="0" IVar="4" Cut="5.9989666748046875e+02" cType="1" res="-9.9000000000000000e+01" rms="0.0000000000000000e+00" purity="5.0532650947570801e-01" nType="0">
        <Node pos="l" depth="1" NCoef="0" IVar="3" Cut="3.6245901137590408e-02" cType="1" res="-9.9000000000000000e+01" rms="0.0000000000000000e+00" purity="6.1088562011718750e-01" nType="1"/>
        <Node pos="r" depth="1" NCoef="0" IVar="2" Cut="-2.2772793769836426e+00" cType="0" res="-9.9000000000000000e+01" rms="0.0000000000000000e+00" purity="4.3911451101303101e-01" nType="-1"/>
      </Node>
    </BinaryTree>
    <BinaryTree type="DecisionTree" boostWeight="6.6143501253534936e-02" itree="6">
      <Node pos="s" depth="0" NCoef="0" IVar="1" Cut="4.1229394531250000e+02" cType="1" res="-9.9000000000000000e+01" rms="0.0000000000000000e+00" purity="5.0626069307327271e-01" nType="0">
        <Node pos="l" depth="1" NCoef="0" IVar="2" Cut="1.3153185844421387e+00" cType="1" res="-9.9000000000000000e+01" rms="0.0000000000000000e+00" purity="6.1478245258331299e-01" nType="0">
          <Node pos="l" depth="2" NCoef="0" IVar="0" Cut="1.2422486114501953e+02" cType="0" res="-9.9000000000000000e+01" rms="0.0000000000000000e+00" purity="6.7036300897598267e-01" nType="0">
            <Node pos="l" depth="3" NCoef="0" IVar="2" Cut="-2.1145882606506348e+00" cType="0" res="-9.9000000000000000e+01" rms="0.0000000000000000e+00" purity="8.5040670633316040e-01" nType="0">
              <Node pos="l" depth="4" NCoef="0" IVar="4" Cut="1.8095369873046875e+03" cType="1" res="-9.9000000000000000e+01" rms="0.0000000000000000e+00" purity="8.6035043001174927e-01" nType="0">
                <Node pos="l" depth="5" NCoef="0" IVar="-1" Cut="0.0000000000000000e+00" cType="1" res="-9.9000000000000000e+01" rms="0.0000000000000000e+00" purity="8.8665342330932617e-01" nType="1"/>
                <Node pos="r" depth="5" NCoef="0" IVar="-1" Cut="0.0000000000000000e+00" cType="1" res="-9.9000000000000000e+01" rms="0.0000000000000000e+00" purity="1.2270749546587467e-02" nType="-1"/>
              </Node>
              <Node pos="r" depth="4" NCoef="0" IVar="4" Cut="6.1172998046875000e+02" cType="1" res="-9.9000000000000000e+01" rms="0.0000000000000000e+00" purity="4.7166502475738525e-01" nType="0">
                <Node pos="l" depth="5" NCoef="0" IVar="-1" Cut="0.0000000000000000e+00" cType="1" res="-9.9000000000000000e+01" rms="0.0000000000000000e+00" purity="7.7065539360046387e-01" nType="1"/>
                <Node pos="r" depth="5" NCoef="0" IVar="-1" Cut="0.0000000000000000e+00" cType="1" res="-9.9000000000000000e+01" rms="0.0000000000000000e+00" purity="1.7120657861232758e-01" nType="-1"/>
              </Node>
            </Node>
            <Node pos="r" depth="3" NCoef="0" IVar="4" Cut="3.6822338867187500e+02" cType="1" res="-9.9000000000000000e+01" rms="0.0000000000000000e+00" purity="4.1551008820533752e-01" nType="0">
              <Node pos="l" depth="4" NCoef="0" IVar="4" Cut="3.2804772949218750e+02" cType="1" res="-9.9000000000000000e+01" rms="0.0000000000000000e+00" purity="6.3806444406509399e-01" nType="0">
                <Node pos="l" depth="5" NCoef="0" IVar="-1" Cut="0.0000000000000000e+00" cType="1" res="-9.9000000000000000e+01" rms="0.0000000000000000e+00" purity="6.8136423826217651e-01" nType="1"/>
                <Node pos="r" depth="5" NCoef="0" IVar="-1" Cut="0.0000000000000000e+00" cType="1" res="-9.9000000000000000e+01" rms="0.0000000000000000e+00" purity="4.5344406366348267e-01" nType="-1"/>
              </Node>
              <Node pos="r" depth="4" NCoef="0" IVar="0" Cut="5.3594909667968750e+01" cType="0" res="-9.9000000000000000e+01" rms="0.0000000000000000e+00" purity="2.9246252775192261e-01" nType="-1"/>
            </Node>
          </Node>
          <Node pos="r" depth="2" NCoef="0" IVar="1" Cut="6.7258903503417969e+01" cType="1" res="-9.9000000000000000e+01" rms="0.0000000000000000e+00" purity="3.6758151650428772e-01" nType="0">
            <Node pos="l" depth="3" NCoef="0" IVar="1" Cut="5.6586254119873047e+01" cType="0" res="-9.9000000000000000e+01" rms="0.0000000000000000e+00" purity="5.4462277889251709e-01" nType="1"/>
            <Node pos="r" depth="3" NCoef="0" IVar="0" Cut="3.3254364013671875e+02" cType="0" res="-9.9000000000000000e+01" rms="0.0000000000000000e+00" purity="3.4899476170539856e-01" nType="0">
              <Node pos="l" depth="4" NCoef="0" IVar="-1" Cut="0.0000000000000000e+00" cType="1" res="-9.9000000000000000e+01" rms="0.0000000000000000e+00" purity="8.9404201507568359e-01" nType="1"/>
              <Node pos="r" depth="4" NCoef="0" IVar="0" Cut="1.8445304870605469e+02" cType="0" res="-9.9000000000000000e+01" rms="0.0000000000000000e+00" purity="3.0805489420890808e-01" nType="0">
                <Node pos="l" depth="5" NCoef="0" IVar="-1" Cut="0.0000000000000000e+00" cType="1" res="-9.9000000000000000e+01" rms="0.0000000000000000e+00" purity="7.1452862024307251e-01" nType="1"/>
                <Node pos="r" depth="5" NCoef="0" IVar="-1" Cut="0.0000000000000000e+00" cType="1" res="-9.9000000000000000e+01" rms="0.0000000000000000e+00" purity="2.3762586712837219e-01" nType="-1"/>
              </Node>
            </Node>
          </Node>
        </Node>
        <Node pos="r" depth="1" NCoef="0" IVar="4" Cut="4.1836163330078125e+02" cType="1" res="-9.9000000000000000e+01" rms="0.0000000000000000e+00" purity="2.2187192738056183e-01" nType="-1"/>
      </Node>
    </BinaryTree>
    <BinaryTree type="DecisionTree" boostWeight="5.4134286610320263e-02" itree="7">
      <Node pos="s" depth="0" NCoef="0" IVar="1" Cut="4.1229394531250000e+02" cType="1" res="-9.9000000000000000e+01" rms="0.0000000000000000e+00" purity="5.0841134786605835e-01" nType="0">
        <Node pos="l" depth="1" NCoef="0" IVar="2" Cut="1.3153185844421387e+00" cType="1" res="-9.9000000000000000e+01" rms="0.0000000000000000e+00" purity="6.1342889070510864e-01" nType="0">
          <Node pos="l" depth="2" NCoef="0" IVar="2" Cut="-1.4220076799392700e+00" cType="0" res="-9.9000000000000000e+01" rms="0.0000000000000000e+00" purity="6.6777426004409790e-01" nType="0">
            <Node pos="l" depth="3" NCoef="0" IVar="4" Cut="1.6083513183593750e+03" cType="1" res="-9.9000000000000000e+01" rms="0.0000000000000000e+00" purity="7.3830437660217285e-01" nType="0">
              <Node pos="l" depth="4" NCoef="0" IVar="0" Cut="1.2422486114501953e+02" cType="0" res="-9.9000000000000000e+01" rms="0.0000000000000000e+00" purity="7.6136231422424316e-01" nType="1"/>
              <Node pos="r" depth="4" NCoef="0" IVar="2" Cut="-7.6542079448699951e-01" cType="0" res="-9.9000000000000000e+01" rms="0.0000000000000000e+00" purity="7.3263719677925110e-02" nType="-1"/>
            </Node>
            <Node pos="r" depth="3" NCoef="0" IVar="0" Cut="1.6499647521972656e+02" cType="0" res="-9.9000000000000000e+01" rms="0.0000000000000000e+00" purity="3.5533258318901062e-01" nType="0">
              <Node pos="l" depth="4" NCoef="0" IVar="1" Cut="6.7220954895019531e+01" cType="0" res="-9.9000000000000000e+01" rms="0.0000000000000000e+00" purity="7.1844410896301270e-01" nType="1"/>
              <Node pos="r" depth="4" NCoef="0" IVar="2" Cut="-2.3607685565948486e+00" cType="0" res="-9.9000000000000000e+01" rms="0.0000000000000000e+00" purity="2.3111499845981598e-01" nType="-1"/>
            </Node>
          </Node>
          <Node pos="r" depth="2" NCoef="0" IVar="2" Cut="1.3723809719085693e+00" cType="1" res="-9.9000000000000000e+01" rms="0.0000000000000000e+00" purity="3.7271636724472046e-01" nType="-1"/>
        </Node>
        <Node pos="r" depth="1" NCoef="0" IVar="3" Cut="8.0863855779170990e-02" cType="1" res="-9.9000000000000000e+01" rms="0.0000000000000000e+00" purity="2.3350095748901367e-01" nType="-1"/>
      </Node>
    </BinaryTree>
    <BinaryTree type="DecisionTree" boostWeight="5.5939672320129301e-02" itree="8">
      <Node pos="s" depth="0" NCoef="0" IVar="4" Cut="5.9989666748046875e+02" cType="1" res="-9.9000000000000000e+01" rms="0.0000000000000000e+00" purity="5.0871270895004272e-01" nType="0">
        <Node pos="l" depth="1" NCoef="0" IVar="2" Cut="1.5450327396392822e+00" cType="1" res="-9.9000000000000000e+01" rms="0.0000000000000000e+00" purity="6.0526716709136963e-01" nType="0">
          <Node pos="l" depth="2" NCoef="0" IVar="3" Cut="8.6013711988925934e-02" cType="1" res="-9.9000000000000000e+01" rms="0.0000000000000000e+00" purity="6.4790731668472290e-01" nType="1"/>
          <Node pos="r" depth="2" NCoef="0" IVar="3" Cut="5.1513296365737915e-01" cType="0" res="-9.9000000000000000e+01" rms="0.0000000000000000e+00" purity="3.9114716649055481e-01" nType="-1"/>
        </Node>
        <Node pos="r" depth="1" NCoef="0" IVar="2" Cut="-1.0797467231750488e+00" cType="0" res="-9.9000000000000000e+01" rms="0.0000000000000000e+00" purity="4.4799777865409851e-01" nType="0">
          <Node pos="l" depth="2" NCoef="0" IVar="2" Cut="9.7319692373275757e-01" cType="1" res="-9.9000000000000000e+01" rms="0.0000000000000000e+00" purity="5.0013816356658936e-01" nType="0">
            <Node pos="l" depth="3" NCoef="0" IVar="0" Cut="1.9836024475097656e+02" cType="0" res="-9.9000000000000000e+01" rms="0.0000000000000000e+00" purity="5.9194904565811157e-01" nType="0">
              <Node pos="l" depth="4" NCoef="0" IVar="1" Cut="1.0437862548828125e+03" cType="1" res="-9.9000000000000000e+01" rms="0.0000000000000000e+00" purity="8.7258332967758179e-01" nType="0">
                <Node pos="l" depth="5" NCoef="0" IVar="-1" Cut="0.0000000000000000e+00" cType="1" res="-9.9000000000000000e+01" rms="0.0000000000000000e+00" purity="9.3461686372756958e-01" nType="1"/>
                <Node pos="r" depth="5" NCoef="0" IVar="-1" Cut="0.0000000000000000e+00" cType="1" res="-9.9000000000000000e+01" rms="0.0000000000000000e+00" purity="2.5856392458081245e-02" nType="-1"/>
              </Node>
              <Node pos="r" depth="4" NCoef="0" IVar="0" Cut="1.6996150207519531e+02" cType="0" res="-9.9000000000000000e+01" rms="0.0000000000000000e+00" purity="3.2048675417900085e-01" nType="0">
                <Node pos="l" depth="5" NCoef="0" IVar="-1" Cut="0.0000000000000000e+00" cType="1" res="-9.9000000000000000e+01" rms="0.0000000000000000e+00" purity="5.2155447006225586e-01" nType="1"/>
                <Node pos="r" depth="5" NCoef="0" IVar="-1" Cut="0.0000000000000000e+00" cType="1" res="-9.9000000000000000e+01" rms="0.0000000000000000e+00" purity="2.9818379878997803e-01" nType="-1"/>
              </Node>
            </Node>
            <Node pos="r" depth="3" NCoef="0" IVar="0" Cut="3.3258322143554688e+02" cType="0" res="-9.9000000000000000e+01" rms="0.0000000000000000e+00" purity="2.7552130818367004e-01" nType="0">
              <Node pos="l" depth="4" NCoef="0" IVar="1" Cut="1.4857952880859375e+02" cType="1" res="-9.9000000000000000e+01" rms="0.0000000000000000e+00" purity="8.7153321504592896e-01" nType="1"/>
              <Node pos="r" depth="4" NCoef="0" IVar="0" Cut="2.5167243957519531e+02" cType="0" res="-9.9000000000000000e+01" rms="0.0000000000000000e+00" purity="1.8429702520370483e-01" nType="0">
                <Node pos="l" depth="5" NCoef="0" IVar="-1" Cut="0.0000000000000000e+00" cType="1" res="-9.9000000000000000e+01" rms="0.0000000000000000e+00" purity="6.6184383630752563e-01" nType="1"/>
                <Node pos="r" depth="5" NCoef="0" IVar="-1" Cut="0.0000000000000000e+00" cType="1" res="-9.9000000000000000e+01" rms="0.0000000000000000e+00" purity="1.5446971356868744e-01" nType="-1"/>
              </Node>
            </Node>
          </Node>
          <Node pos="r" depth="2" NCoef="0" IVar="0" Cut="2.7987426757812500e+02" cType="0" res="-9.9000000000000000e+01" rms="0.0000000000000000e+00" purity="2.4272119998931885e-01" nType="0">
            <Node pos="l" depth="3" NCoef="0" IVar="0" Cut="3.7327670288085938e+02" cType="0" res="-9.9000000000000000e+01" rms="0.0000000000000000e+00" purity="8.2147586345672607e-01" nType="1"/>
            <Node pos="r" depth="3" NCoef="0" IVar="0" Cut="6.0949523925781250e+01" cType="0" res="-9.9000000000000000e+01" rms="0.0000000000000000e+00" purity="1.4321799576282501e-01" nType="-1"/>
          </Node>
        </Node>
      </Node>
    </BinaryTree>
    <BinaryTree type="DecisionTree" boostWeight="6.5529012187332619e-02" itree="9">
      <Node pos="s" depth="0" NCoef="0" IVar="1" Cut="4.1229394531250000e+02" cType="1" res="-9.9000000000000000e+01" rms="0.0000000000000000e+00" purity="5.0761443376541138e-01" nType="0">
        <Node pos="l" depth="1" NCoef="0" IVar="2" Cut="-1.3192532062530518e+00" cType="0" res="-9.9000000000000000e+01" rms="0.0000000000000000e+00" purity="6.0714298486709595e-01" nType="0">
          <Node pos="l" depth="2" NCoef="0" IVar="2" Cut="1.4182051420211792e+00" cType="1" res="-9.9000000000000000e+01" rms="0.0000000000000000e+00" purity="6.5673321485519409e-01" nType="0">
            <Node pos="l" depth="3" NCoef="0" IVar="0" Cut="1.2422486114501953e+02" cType="0" res="-9.9000000000000000e+01" rms="0.0000000000000000e+00" purity="7.2477900981903076e-01" nType="0">
              <Node pos="l" depth="4" NCoef="0" IVar="3" Cut="2.4867182970046997e-01" cType="1" res="-9.9000000000000000e+01" rms="0.0000000000000000e+00" purity="8.7047672271728516e-01" nType="1"/>
              <Node pos="r" depth="4" NCoef="0" IVar="0" Cut="7.8312217712402344e+01" cType="0" res="-9.9000000000000000e+01" rms="0.0000000000000000e+00" purity="4.9067664146423340e-01" nType="0">
                <Node pos="l" depth="5" NCoef="0" IVar="-1" Cut="0.0000000000000000e+00" cType="1" res="-9.9000000000000000e+01" rms="0.0000000000000000e+00" purity="5.6966876983642578e-01" nType="1"/>
                <Node pos="r" depth="5" NCoef="0" IVar="-1" Cut="0.0000000000000000e+00" cType="1" res="-9.9000000000000000e+01" rms="0.0000000000000000e+00" purity="3.8721472024917603e-01" nType="-1"/>
              </Node>
            </Node>
            <Node pos="r" depth="3" NCoef="0" IVar="0" Cut="3.3254364013671875e+02" cType="0" res="-9.9000000000000000e+01" rms="0.0000000000000000e+00" purity="3.7192910909652710e-01" nType="0">
              <Node pos="l" depth="4" NCoef="0" IVar="-1" Cut="0.0000000000000000e+00" cType="1" res="-9.9000000000000000e+01" rms="0.0000000000000000e+00" purity="8.6995679140090942e-01" nType="1"/>
              <Node pos="r" depth="4" NCoef="0" IVar="0" Cut="1.6977189636230469e+02" cType="0" res="-9.9000000000000000e+01" rms="0.0000000000000000e+00" purity="3.3568120002746582e-01" nType="0">
                <Node pos="l" depth="5" NCoef="0" IVar="-1" Cut="0.0000000000000000e+00" cType="1" res="-9.9000000000000000e+01" rms="0.0000000000000000e+00" purity="6.7994928359985352e-01" nType="1"/>
                <Node pos="r" depth="5" NCoef="0" IVar="-1" Cut="0.0000000000000000e+00" cType="1" res="-9.9000000000000000e+01" rms="0.0000000000000000e+00" purity="2.4949164688587189e-01" nType="-1"/>
              </Node>
            </Node>
          </Node>
          <Node pos="r" depth="2" NCoef="0" IVar="0" Cut="1.6499647521972656e+02" cType="0" res="-9.9000000000000000e+01" rms="0.0000000000000000e+00" purity="3.7445834279060364e-01" nType="0">
            <Node pos="l" depth="3" NCoef="0" IVar="4" Cut="1.2165561523437500e+03" cType="1" res="-9.9000000000000000e+01" rms="0.0000000000000000e+00" purity="7.1902501583099365e-01" nType="0">
              <Node pos="l" depth="4" NCoef="0" IVar="0" Cut="2.1610801696777344e+02" cType="0" res="-9.9000000000000000e+01" rms="0.0000000000000000e+00" purity="8.0456227064132690e-01" nType="1"/>
              <Node pos="r" depth="4" NCoef="0" IVar="-1" Cut="0.0000000000000000e+00" cType="1" res="-9.9000000000000000e+01" rms="0.0000000000000000e+00" purity="2.3711501061916351e-01" nType="-1"/>
            </Node>
            <Node pos="r" depth="3" NCoef="0" IVar="1" Cut="6.7300239562988281e+01" cType="1" res="-9.9000000000000000e+01" rms="0.0000000000000000e+00" purity="2.5077751278877258e-01" nType="-1"/>
          </Node>
        </Node>
        <Node pos="r" depth="1" NCoef="0" IVar="0" Cut="2.3625750732421875e+02" cType="0" res="-9.9000000000000000e+01" rms="0.0000000000000000e+00" purity="2.4546694755554199e-01" nType="0">
          <Node pos="l" depth="2" NCoef="0" IVar="1" Cut="8.5754650878906250e+02" cType="1" res="-9.9000000000000000e+01" rms="0.0000000000000000e+00" purity="6.8647742271423340e-01" nType="0">
            <Node pos="l" depth="3" NCoef="0" IVar="1" Cut="4.5481262207031250e+02" cType="1" res="-9.9000000000000000e+01" rms="0.0000000000000000e+00" purity="8.7498474121093750e-01" nType="1"/>
            <Node pos="r" depth="3" NCoef="0" IVar="1" Cut="1.2394617919921875e+03" cType="1" res="-9.9000000000000000e+01" rms="0.0000000000000000e+00" purity="1.3412384688854218e-01" nType="-1"/>
          </Node>
          <Node pos="r" depth="2" NCoef="0" IVar="1" Cut="5.7633618164062500e+02" cType="1" res="-9.9000000000000000e+01" rms="0.0000000000000000e+00" purity="1.4115548133850098e-01" nType="-1"/>
        </Node>
      </Node>
    </BinaryTree>
    <BinaryTree type="DecisionTree" boostWeight="4.8730255639205841e-02" itree="10">
      <Node pos="s" depth="0" NCoef="0" IVar="2" Cut="-1.0797467231750488e+00" cType="0" res="-9.9000000000000000e+01" rms="0.0000000000000000e+00" purity="5.0778418779373169e-01" nType="0">
        <Node pos="l" depth="1" NCoef="0" IVar="3" Cut="5.1641434431076050e-01" cType="1" res="-9.9000000000000000e+01" rms="0.0000000000000000e+00" purity="5.5778574943542480e-01" nType="0">
          <Node pos="l" depth="2" NCoef="0" IVar="2" Cut="1.1450406312942505e+00" cType="1" res="-9.9000000000000000e+01" rms="0.0000000000000000e+00" purity="6.0338461399078369e-01" nType="0">
            <Node pos="l" depth="3" NCoef="0" IVar="0" Cut="1.1772938537597656e+02" cType="0" res="-9.9000000000000000e+01" rms="0.0000000000000000e+00" purity="6.6936248540878296e-01" nType="0">
              <Node pos="l" depth="4" NCoef="0" IVar="2" Cut="-9.7102481126785278e-01" cType="0" res="-9.9000000000000000e+01" rms="0.0000000000000000e+00" purity="7.9403078556060791e-01" nType="1"/>
              <Node pos="r" depth="4" NCoef="0" IVar="2" Cut="-9.7181969881057739e-01" cType="0" res="-9.9000000000000000e+01" rms="0.0000000000000000e+00" purity="4.3768936395645142e-01" nType="-1"/>
            </Node>
            <Node pos="r" depth="3" NCoef="0" IVar="0" Cut="3.3254364013671875e+02" cType="0" res="-9.9000000000000000e+01" rms="0.0000000000000000e+00" purity="3.0778875946998596e-01" nType="0">
              <Node pos="l" depth="4" NCoef="0" IVar="-1" Cut="0.0000000000000000e+00" cType="1" res="-9.9000000000000000e+01" rms="0.0000000000000000e+00" purity="8.6392194032669067e-01" nType="1"/>
              <Node pos="r" depth="4" NCoef="0" IVar="2" Cut="1.2105317115783691e+00" cType="1" res="-9.9000000000000000e+01" rms="0.0000000000000000e+00" purity="2.6921293139457703e-01" nType="-1"/>
            </Node>
          </Node>
          <Node pos="r" depth="2" NCoef="0" IVar="0" Cut="1.2423980712890625e+02" cType="0" res="-9.9000000000000000e+01" rms="0.0000000000000000e+00" purity="4.9260681867599487e-01" nType="0">
            <Node pos="l" depth="3" NCoef="0" IVar="3" Cut="5.3920024633407593e-01" cType="1" res="-9.9000000000000000e+01" rms="0.0000000000000000e+00" purity="7.1009558439254761e-01" nType="1"/>
            <Node pos="r" depth="3" NCoef="0" IVar="0" Cut="5.3609855651855469e+01" cType="0" res="-9.9000000000000000e+01" rms="0.0000000000000000e+00" purity="2.7753999829292297e-01" nType="-1"/>
          </Node>
        </Node>
        <Node pos="r" depth="1" NCoef="0" IVar="0" Cut="2.2240737915039062e+02" cType="0" res="-9.9000000000000000e+01" rms="0.0000000000000000e+00" purity="3.4205406904220581e-01" nType="0">
          <Node pos="l" depth="2" NCoef="0" IVar="4" Cut="1.2653221435546875e+03" cType="1" res="-9.9000000000000000e+01" rms="0.0000000000000000e+00" purity="7.7575939893722534e-01" nType="0">
            <Node pos="l" depth="3" NCoef="0" IVar="0" Cut="2.7062380981445312e+02" cType="0" res="-9.9000000000000000e+01" rms="0.0000000000000000e+00" purity="8.3922857046127319e-01" nType="1"/>
            <Node pos="r" depth="3" NCoef="0" IVar="-1" Cut="0.0000000000000000e+00" cType="1" res="-9.9000000000000000e+01" rms="0.0000000000000000e+00" purity="3.7841653823852539e-01" nType="-1"/>
          </Node>
          <Node pos="r" depth="2" NCoef="0" IVar="1" Cut="1.3935932922363281e+02" cType="1" res="-9.9000000000000000e+01" rms="0.0000000000000000e+00" purity="2.5538066029548645e-01" nType="-1"/>
        </Node>
      </Node>
    </BinaryTree>
    <BinaryTree type="DecisionTree" boostWeight="5.2953128874100669e-02" itree="11">
      <Node pos="s" depth="0" NCoef="0" IVar="0" Cut="3.3251388549804688e+02" cType="0" res="-9.9000000000000000e+01" rms="0.0000000000000000e+00" purity="5.0944471359252930e-01" nType="0">
        <Node pos="l" depth="1" NCoef="0" IVar="0" Cut="6.0157531738281250e+02" cType="0" res="-9.9000000000000000e+01" rms="0.0000000000000000e+00" purity="9.2751812934875488e-01" nType="1"/>
        <Node pos="r" depth="1" NCoef="0" IVar="4" Cut="4.1050009155273438e+02" cType="1" res="-9.9000000000000000e+01" rms="0.0000000000000000e+00" purity="4.2548888921737671e-01" nType="0">
          <Node pos="l" depth="2" NCoef="0" IVar="4" Cut="3.9040652465820312e+02" cType="1" res="-9.9000000000000000e+01" rms="0.0000000000000000e+00" purity="6.8796914815902710e-01" nType="0">
            <Node pos="l" depth="3" NCoef="0" IVar="0" Cut="7.6959205627441406e+01" cType="0" res="-9.9000000000000000e+01" rms="0.0000000000000000e+00" purity="7.0016574859619141e-01" nType="0">
              <Node pos="l" depth="4" NCoef="0" IVar="4" Cut="2.0915977478027344e+02" cType="1" res="-9.9000000000000000e+01" rms="0.0000000000000000e+00" purity="8.1054437160491943e-01" nType="1"/>
              <Node pos="r" depth="4" NCoef="0" IVar="1" Cut="1.4319657897949219e+02" cType="1" res="-9.9000000000000000e+01" rms="0.0000000000000000e+00" purity="3.9560449123382568e-01" nType="0">
                <Node pos="l" depth="5" NCoef="0" IVar="-1" Cut="0.0000000000000000e+00" cType="1" res="-9.9000000000000000e+01" rms="0.0000000000000000e+00" purity="5.1997619867324829e-01" nType="1"/>
                <Node pos="r" depth="5" NCoef="0" IVar="-1" Cut="0.0000000000000000e+00" cType="1" res="-9.9000000000000000e+01" rms="0.0000000000000000e+00" purity="3.1781908869743347e-01" nType="-1"/>
              </Node>
            </Node>
            <Node pos="r" depth="3" NCoef="0" IVar="0" Cut="1.1500672149658203e+02" cType="0" res="-9.9000000000000000e+01" rms="0.0000000000000000e+00" purity="4.8636075854301453e-01" nType="0">
              <Node pos="l" depth="4" NCoef="0" IVar="-1" Cut="0.0000000000000000e+00" cType="1" res="-9.9000000000000000e+01" rms="0.0000000000000000e+00" purity="7.3580330610275269e-01" nType="1"/>
              <Node pos="r" depth="4" NCoef="0" IVar="-1" Cut="0.0000000000000000e+00" cType="1" res="-9.9000000000000000e+01" rms="0.0000000000000000e+00" purity="3.0969077348709106e-01" nType="-1"/>
            </Node>
          </Node>
          <Node pos="r" depth="2" NCoef="0" IVar="2" Cut="-2.2772793769836426e+00" cType="0" res="-9.9000000000000000e+01" rms="0.0000000000000000e+00" purity="3.1612008810043335e-01" nType="-1"/>
        </Node>
      </Node>
    </BinaryTree>
    <BinaryTree type="DecisionTree" boostWeight="5.0417269372174424e-02" itree="12">
      <Node pos="s" depth="0" NCoef="0" IVar="3" Cut="5.1641434431076050e-01" cType="1" res="-9.9000000000000000e+01" rms="0.0000000000000000e+00" purity="5.1315557956695557e-01" nType="0">
        <Node pos="l" depth="1" NCoef="0" IVar="0" Cut="3.3254132080078125e+02" cType="0" res="-9.9000000000000000e+01" rms="0.0000000000000000e+00" purity="5.6377243995666504e-01" nType="0">
          <Node pos="l" depth="2" NCoef="0" IVar="4" Cut="1.8003239746093750e+03" cType="1" res="-9.9000000000000000e+01" rms="0.0000000000000000e+00" purity="9.3554687500000000e-01" nType="0">
            <Node pos="l" depth="3" NCoef="0" IVar="0" Cut="3.8679473876953125e+02" cType="0" res="-9.9000000000000000e+01" rms="0.0000000000000000e+00" purity="9.7892391681671143e-01" nType="1"/>
            <Node pos="r" depth="3" NCoef="0" IVar="-1" Cut="0.0000000000000000e+00" cType="1" res="-9.9000000000000000e+01" rms="0.0000000000000000e+00" purity="1.4411470852792263e-02" nType="-1"/>
          </Node>
          <Node pos="r" depth="2" NCoef="0" IVar="1" Cut="2.1532844543457031e+02" cType="1" res="-9.9000000000000000e+01" rms="0.0000000000000000e+00" purity="4.7416228055953979e-01" nType="0">
            <Node pos="l" depth="3" NCoef="0" IVar="4" Cut="6.0555572509765625e+02" cType="1" res="-9.9000000000000000e+01" rms="0.0000000000000000e+00" purity="5.9123468399047852e-01" nType="0">
              <Node pos="l" depth="4" NCoef="0" IVar="2" Cut="1.7794967889785767e+00" cType="1" res="-9.9000000000000000e+01" rms="0.0000000000000000e+00" purity="7.3406809568405151e-01" nType="0">
                <Node pos="l" depth="5" NCoef="0" IVar="-1" Cut="0.0000000000000000e+00" cType="1" res="-9.9000000000000000e+01" rms="0.0000000000000000e+00" purity="7.7211207151412964e-01" nType="1"/>
                <Node pos="r" depth="5" NCoef="0" IVar="-1" Cut="0.0000000000000000e+00" cType="1" res="-9.9000000000000000e+01" rms="0.0000000000000000e+00" purity="4.1545388102531433e-01" nType="-1"/>
              </Node>
              <Node pos="r" depth="4" NCoef="0" IVar="2" Cut="-2.2495334148406982e+00" cType="0" res="-9.9000000000000000e+01" rms="0.0000000000000000e+00" purity="3.9207127690315247e-01" nType="-1"/>
            </Node>
            <Node pos="r" depth="3" NCoef="0" IVar="1" Cut="3.7290155029296875e+02" cType="1" res="-9.9000000000000000e+01" rms="0.0000000000000000e+00" purity="3.3780822157859802e-01" nType="-1"/>
          </Node>
        </Node>
        <Node pos="r" depth="1" NCoef="0" IVar="3" Cut="9.7371768951416016e-01" cType="0" res="-9.9000000000000000e+01" rms="0.0000000000000000e+00" purity="4.5444473624229431e-01" nType="0">
          <Node pos="l" depth="2" NCoef="0" IVar="1" Cut="2.5464628601074219e+02" cType="1" res="-9.9000000000000000e+01" rms="0.0000000000000000e+00" purity="5.2645140886306763e-01" nType="0">
            <Node pos="l" depth="3" NCoef="0" IVar="-1" Cut="0.0000000000000000e+00" cType="1" res="-9.9000000000000000e+01" rms="0.0000000000000000e+00" purity="6.3882362842559814e-01" nType="1"/>
            <Node pos="r" depth="3" NCoef="0" IVar="-1" Cut="0.0000000000000000e+00" cType="1" res="-9.9000000000000000e+01" rms="0.0000000000000000e+00" purity="3.5306137800216675e-01" nType="-1"/>
          </Node>
          <Node pos="r" depth="2" NCoef="0" IVar="1" Cut="2.3116647338867188e+02" cType="1" res="-9.9000000000000000e+01" rms="0.0000000000000000e+00" purity="4.5284873247146606e-01" nType="0">
            <Node pos="l" depth="3" NCoef="0" IVar="0" Cut="1.2433804321289062e+02" cType="0" res="-9.9000000000000000e+01" rms="0.0000000000000000e+00" purity="6.1947596073150635e-01" nType="0">
              <Node pos="l" depth="4" NCoef="0" IVar="4" Cut="1.6166104736328125e+03" cType="1" res="-9.9000000000000000e+01" rms="0.0000000000000000e+00" purity="8.0997419357299805e-01" nType="0">
                <Node pos="l" depth="5" NCoef="0" IVar="-1" Cut="0.0000000000000000e+00" cType="1" res="-9.9000000000000000e+01" rms="0.0000000000000000e+00" purity="8.4385818243026733e-01" nType="1"/>
                <Node pos="r" depth="5" NCoef="0" IVar="-1" Cut="0.0000000000000000e+00" cType="1" res="-9.9000000000000000e+01" rms="0.0000000000000000e+00" purity="9.3164421617984772e-02" nType="-1"/>
              </Node>
              <Node pos="r" depth="4" NCoef="0" IVar="1" Cut="5.8721263885498047e+01" cType="1" res="-9.9000000000000000e+01" rms="0.0000000000000000e+00" purity="3.9779368042945862e-01" nType="-1"/>
            </Node>
            <Node pos="r" depth="3" NCoef="0" IVar="4" Cut="3.9225073242187500e+02" cType="1" res="-9.9000000000000000e+01" rms="0.0000000000000000e+00" purity="2.7391630411148071e-01" nType="-1"/>
          </Node>
        </Node>
      </Node>
    </BinaryTree>
    <BinaryTree type="DecisionTree" boostWeight="4.8912539045974528e-02" itree="13">
      <Node pos="s" depth="0" NCoef="0" IVar="0" Cut="3.3251388549804688e+02" cType="0" res="-9.9000000000000000e+01" rms="0.0000000000000000e+00" purity="5.1720678806304932e-01" nType="0">
        <Node pos="l" depth="1" NCoef="0" IVar="2" Cut="-1.5511485338211060e+00" cType="0" res="-9.9000000000000000e+01" rms="0.0000000000000000e+00" purity="9.2342233657836914e-01" nType="1"/>
        <Node pos="r" depth="1" NCoef="0" IVar="4" Cut="4.1050009155273438e+02" cType="1" res="-9.9000000000000000e+01" rms="0.0000000000000000e+00" purity="4.3726605176925659e-01" nType="0">
          <Node pos="l" depth="2" NCoef="0" IVar="0" Cut="7.6959205627441406e+01" cType="0" res="-9.9000000000000000e+01" rms="0.0000000000000000e+00" purity="6.8269222974777222e-01" nType="0">
            <Node pos="l" depth="3" NCoef="0" IVar="0" Cut="8.9128021240234375e+01" cType="0" res="-9.9000000000000000e+01" rms="0.0000000000000000e+00" purity="7.9202884435653687e-01" nType="1"/>
            <Node pos="r" depth="3" NCoef="0" IVar="0" Cut="7.3097259521484375e+01" cType="0" res="-9.9000000000000000e+01" rms="0.0000000000000000e+00" purity="3.8983741402626038e-01" nType="0">
              <Node pos="l" depth="4" NCoef="0" IVar="-1" Cut="0.0000000000000000e+00" cType="1" res="-9.9000000000000000e+01" rms="0.0000000000000000e+00" purity="5.3343576192855835e-01" nType="1"/>
              <Node pos="r" depth="4" NCoef="0" IVar="3" Cut="5.1579850912094116e-01" cType="1" res="-9.9000000000000000e+01" rms="0.0000000000000000e+00" purity="3.7099385261535645e-01" nType="-1"/>
            </Node>
          </Node>
          <Node pos="r" depth="2" NCoef="0" IVar="1" Cut="2.3114727783203125e+02" cType="1" res="-9.9000000000000000e+01" rms="0.0000000000000000e+00" purity="3.3543950319290161e-01" nType="-1"/>
        </Node>
      </Node>
    </BinaryTree>
    <BinaryTree type="DecisionTree" boostWeight="3.6207804256692080e-02" itree="14">
      <Node pos="s" depth="0" NCoef="0" IVar="1" Cut="4.1229394531250000e+02" cType="1" res="-9.9000000000000000e+01" rms="0.0000000000000000e+00" purity="5.2109450101852417e-01" nType="0">
        <Node pos="l" depth="1" NCoef="0" IVar="0" Cut="3.3254364013671875e+02" cType="0" res="-9.9000000000000000e+01" rms="0.0000000000000000e+00" purity="6.1419594287872314e-01" nType="1"/>
        <Node pos="r" depth="1" NCoef="0" IVar="0" Cut="2.3625750732421875e+02" cType="0" res="-9.9000000000000000e+01" rms="0.0000000000000000e+00" purity="2.7041310071945190e-01" nType="0">
          <Node pos="l" depth="2" NCoef="0" IVar="4" Cut="1.5449172363281250e+03" cType="1" res="-9.9000000000000000e+01" rms="0.0000000000000000e+00" purity="6.7657285928726196e-01" nType="0">
            <Node pos="l" depth="3" NCoef="0" IVar="0" Cut="2.8154907226562500e+02" cType="0" res="-9.9000000000000000e+01" rms="0.0000000000000000e+00" purity="8.3109968900680542e-01" nType="1"/>
            <Node pos="r" depth="3" NCoef="0" IVar="4" Cut="2.6883098144531250e+03" cType="1" res="-9.9000000000000000e+01" rms="0.0000000000000000e+00" purity="5.8745499700307846e-02" nType="-1"/>
          </Node>
          <Node pos="r" depth="2" NCoef="0" IVar="1" Cut="5.7633618164062500e+02" cType="1" res="-9.9000000000000000e+01" rms="0.0000000000000000e+00" purity="1.7157782614231110e-01" nType="-1"/>
        </Node>
      </Node>
    </BinaryTree>
    <BinaryTree type="DecisionTree" boostWeight="5.0143189596704336e-02" itree="15">
      <Node pos="s" depth="0" NCoef="0" IVar="0" Cut="3.3251388549804688e+02" cType="0" res="-9.9000000000000000e+01" rms="0.0000000000000000e+00" purity="5.1628059148788452e-01" nType="0">
        <Node pos="l" depth="1" NCoef="0" IVar="3" Cut="2.9384532943367958e-02" cType="1" res="-9.9000000000000000e+01" rms="0.0000000000000000e+00" purity="9.1823935508728027e-01" nType="1"/>
        <Node pos="r" depth="1" NCoef="0" IVar="1" Cut="2.3114727783203125e+02" cType="1" res="-9.9000000000000000e+01" rms="0.0000000000000000e+00" purity="4.3902719020843506e-01" nType="0">
          <Node pos="l" depth="2" NCoef="0" IVar="2" Cut="-1.0773036479949951e+00" cType="0" res="-9.9000000000000000e+01" rms="0.0000000000000000e+00" purity="5.6915485858917236e-01" nType="0">
            <Node pos="l" depth="3" NCoef="0" IVar="2" Cut="1.8175739049911499e+00" cType="1" res="-9.9000000000000000e+01" rms="0.0000000000000000e+00" purity="6.2001949548721313e-01" nType="0">
              <Node pos="l" depth="4" NCoef="0" IVar="3" Cut="2.5354686379432678e-01" cType="1" res="-9.9000000000000000e+01" rms="0.0000000000000000e+00" purity="6.6574370861053467e-01" nType="1"/>
              <Node pos="r" depth="4" NCoef="0" IVar="2" Cut="1.8826496601104736e+00" cType="1" res="-9.9000000000000000e+01" rms="0.0000000000000000e+00" purity="3.2602223753929138e-01" nType="-1"/>
            </Node>
            <Node pos="r" depth="3" NCoef="0" IVar="2" Cut="-1.1466125249862671e+00" cType="0" res="-9.9000000000000000e+01" rms="0.0000000000000000e+00" purity="4.2178165912628174e-01" nType="0">
              <Node pos="l" depth="4" NCoef="0" IVar="-1" Cut="0.0000000000000000e+00" cType="1" res="-9.9000000000000000e+01" rms="0.0000000000000000e+00" purity="5.3537666797637939e-01" nType="1"/>
              <Node pos="r" depth="4" NCoef="0" IVar="2" Cut="-2.3780841827392578e+00" cType="0" res="-9.9000000000000000e+01" rms="0.0000000000000000e+00" purity="4.1300171613693237e-01" nType="-1"/>
            </Node>
          </Node>
          <Node pos="r" depth="2" NCoef="0" IVar="0" Cut="2.2486128234863281e+02" cType="0" res="-9.9000000000000000e+01" rms="0.0000000000000000e+00" purity="2.8915822505950928e-01" nType="0">
            <Node pos="l" depth="3" NCoef="0" IVar="1" Cut="8.3324011230468750e+02" cType="1" res="-9.9000000000000000e+01" rms="0.0000000000000000e+00" purity="6.2004554271697998e-01" nType="0">
              <Node pos="l" depth="4" NCoef="0" IVar="1" Cut="2.8909024047851562e+02" cType="1" res="-9.9000000000000000e+01" rms="0.0000000000000000e+00" purity="7.5888907909393311e-01" nType="1"/>
              <Node pos="r" depth="4" NCoef="0" IVar="0" Cut="2.6673236083984375e+02" cType="0" res="-9.9000000000000000e+01" rms="0.0000000000000000e+00" purity="9.6043393015861511e-02" nType="-1"/>
            </Node>
            <Node pos="r" depth="3" NCoef="0" IVar="1" Cut="4.0372467041015625e+02" cType="1" res="-9.9000000000000000e+01" rms="0.0000000000000000e+00" purity="2.5042611360549927e-01" nType="-1"/>
          </Node>
        </Node>
      </Node>
    </BinaryTree>
    <BinaryTree type="DecisionTree" boostWeight="5.3777770639300532e-02" itree="16">
      <Node pos="s" depth="0" NCoef="0" IVar="2" Cut="-1.0797467231750488e+00" cType="0" res="-9.9000000000000000e+01" rms="0.0000000000000000e+00" purity="5.1670998334884644e-01" nType="0">
        <Node pos="l" depth="1" NCoef="0" IVar="1" Cut="5.9344061279296875e+02" cType="1" res="-9.9000000000000000e+01" rms="0.0000000000000000e+00" purity="5.6330621242523193e-01" nType="0">
          <Node pos="l" depth="2" NCoef="0" IVar="1" Cut="5.4167346191406250e+02" cType="1" res="-9.9000000000000000e+01" rms="0.0000000000000000e+00" purity="6.3709652423858643e-01" nType="0">
            <Node pos="l" depth="3" NCoef="0" IVar="2" Cut="1.3153423070907593e+00" cType="1" res="-9.9000000000000000e+01" rms="0.0000000000000000e+00" purity="6.4178937673568726e-01" nType="0">
              <Node pos="l" depth="4" NCoef="0" IVar="4" Cut="1.8095236816406250e+03" cType="1" res="-9.9000000000000000e+01" rms="0.0000000000000000e+00" purity="7.2707223892211914e-01" nType="0">
                <Node pos="l" depth="5" NCoef="0" IVar="-1" Cut="0.0000000000000000e+00" cType="1" res="-9.9000000000000000e+01" rms="0.0000000000000000e+00" purity="7.4863785505294800e-01" nType="1"/>
                <Node pos="r" depth="5" NCoef="0" IVar="-1" Cut="0.0000000000000000e+00" cType="1" res="-9.9000000000000000e+01" rms="0.0000000000000000e+00" purity="9.4588212668895721e-03" nType="-1"/>
              </Node>
              <Node pos="r" depth="4" NCoef="0" IVar="0" Cut="3.3254364013671875e+02" cType="0" res="-9.9000000000000000e+01" rms="0.0000000000000000e+00" purity="3.7878829240798950e-01" nType="0">
                <Node pos="l" depth="5" NCoef="0" IVar="-1" Cut="0.0000000000000000e+00" cType="1" res="-9.9000000000000000e+01" rms="0.0000000000000000e+00" purity="8.2982969284057617e-01" nType="1"/>
                <Node pos="r" depth="5" NCoef="0" IVar="-1" Cut="0.0000000000000000e+00" cType="1" res="-9.9000000000000000e+01" rms="0.0000000000000000e+00" purity="3.4645459055900574e-01" nType="-1"/>
              </Node>
            </Node>
            <Node pos="r" depth="3" NCoef="0" IVar="0" Cut="1.5286575317382812e+02" cType="0" res="-9.9000000000000000e+01" rms="0.0000000000000000e+00" purity="4.7415941953659058e-01" nType="0">
              <Node pos="l" depth="4" NCoef="0" IVar="-1" Cut="0.0000000000000000e+00" cType="1" res="-9.9000000000000000e+01" rms="0.0000000000000000e+00" purity="8.7170290946960449e-01" nType="1"/>
              <Node pos="r" depth="4" NCoef="0" IVar="3" Cut="4.6756818890571594e-01" cType="1" res="-9.9000000000000000e+01" rms="0.0000000000000000e+00" purity="2.1467342972755432e-01" nType="-1"/>
            </Node>
          </Node>
          <Node pos="r" depth="2" NCoef="0" IVar="1" Cut="7.4889440917968750e+02" cType="1" res="-9.9000000000000000e+01" rms="0.0000000000000000e+00" purity="2.0946153998374939e-01" nType="-1"/>
        </Node>
        <Node pos="r" depth="1" NCoef="0" IVar="2" Cut="-1.1487654447555542e+00" cType="0" res="-9.9000000000000000e+01" rms="0.0000000000000000e+00" purity="3.6198344826698303e-01" nType="0">
          <Node pos="l" depth="2" NCoef="0" IVar="3" Cut="5.8977442979812622e-01" cType="0" res="-9.9000000000000000e+01" rms="0.0000000000000000e+00" purity="5.2262312173843384e-01" nType="0">
            <Node pos="l" depth="3" NCoef="0" IVar="0" Cut="1.3462867736816406e+02" cType="0" res="-9.9000000000000000e+01" rms="0.0000000000000000e+00" purity="5.5557060241699219e-01" nType="0">
              <Node pos="l" depth="4" NCoef="0" IVar="-1" Cut="0.0000000000000000e+00" cType="1" res="-9.9000000000000000e+01" rms="0.0000000000000000e+00" purity="7.9167586565017700e-01" nType="1"/>
              <Node pos="r" depth="4" NCoef="0" IVar="-1" Cut="0.0000000000000000e+00" cType="1" res="-9.9000000000000000e+01" rms="0.0000000000000000e+00" purity="3.2354608178138733e-01" nType="-1"/>
            </Node>
            <Node pos="r" depth="3" NCoef="0" IVar="-1" Cut="0.0000000000000000e+00" cType="1" res="-9.9000000000000000e+01" rms="0.0000000000000000e+00" purity="4.8156145215034485e-01" nType="-1"/>
          </Node>
          <Node pos="r" depth="2" NCoef="0" IVar="0" Cut="1.6494050598144531e+02" cType="0" res="-9.9000000000000000e+01" rms="0.0000000000000000e+00" purity="3.4768480062484741e-01" nType="0">
            <Node pos="l" depth="3" NCoef="0" IVar="4" Cut="1.2136889648437500e+03" cType="1" res="-9.9000000000000000e+01" rms="0.0000000000000000e+00" purity="6.5931421518325806e-01" nType="0">
              <Node pos="l" depth="4" NCoef="0" IVar="0" Cut="2.1261930847167969e+02" cType="0" res="-9.9000000000000000e+01" rms="0.0000000000000000e+00" purity="7.3976343870162964e-01" nType="1"/>
              <Node pos="r" depth="4" NCoef="0" IVar="-1" Cut="0.0000000000000000e+00" cType="1" res="-9.9000000000000000e+01" rms="0.0000000000000000e+00" purity="2.6040294766426086e-01" nType="-1"/>
            </Node>
            <Node pos="r" depth="3" NCoef="0" IVar="0" Cut="5.5476100921630859e+01" cType="0" res="-9.9000000000000000e+01" rms="0.0000000000000000e+00" purity="2.3800127208232880e-01" nType="-1"/>
          </Node>
        </Node>
      </Node>
    </BinaryTree>
    <BinaryTree type="DecisionTree" boostWeight="4.9265240917894859e-02" itree="17">
      <Node pos="s" depth="0" NCoef="0" IVar="2" Cut="-1.0797467231750488e+00" cType="0" res="-9.9000000000000000e+01" rms="0.0000000000000000e+00" purity="5.1634633541107178e-01" nType="0">
        <Node pos="l" depth="1" NCoef="0" IVar="4" Cut="1.7992658691406250e+03" cType="1" res="-9.9000000000000000e+01" rms="0.0000000000000000e+00" purity="5.6110304594039917e-01" nType="0">
          <Node pos="l" depth="2" NCoef="0" IVar="2" Cut="1.1442697048187256e+00" cType="1" res="-9.9000000000000000e+01" rms="0.0000000000000000e+00" purity="5.9930509328842163e-01" nType="0">
            <Node pos="l" depth="3" NCoef="0" IVar="1" Cut="7.0492395019531250e+02" cType="1" res="-9.9000000000000000e+01" rms="0.0000000000000000e+00" purity="6.9600051641464233e-01" nType="0">
              <Node pos="l" depth="4" NCoef="0" IVar="3" Cut="2.5354686379432678e-01" cType="1" res="-9.9000000000000000e+01" rms="0.0000000000000000e+00" purity="7.4285161495208740e-01" nType="1"/>
              <Node pos="r" depth="4" NCoef="0" IVar="1" Cut="8.0474920654296875e+02" cType="1" res="-9.9000000000000000e+01" rms="0.0000000000000000e+00" purity="2.6993611454963684e-01" nType="-1"/>
            </Node>
            <Node pos="r" depth="3" NCoef="0" IVar="4" Cut="3.5151571655273438e+02" cType="1" res="-9.9000000000000000e+01" rms="0.0000000000000000e+00" purity="3.7049445509910583e-01" nType="0">
              <Node pos="l" depth="4" NCoef="0" IVar="0" Cut="9.4144012451171875e+01" cType="0" res="-9.9000000000000000e+01" rms="0.0000000000000000e+00" purity="5.8161461353302002e-01" nType="0">
                <Node pos="l" depth="5" NCoef="0" IVar="-1" Cut="0.0000000000000000e+00" cType="1" res="-9.9000000000000000e+01" rms="0.0000000000000000e+00" purity="8.0192363262176514e-01" nType="1"/>
                <Node pos="r" depth="5" NCoef="0" IVar="-1" Cut="0.0000000000000000e+00" cType="1" res="-9.9000000000000000e+01" rms="0.0000000000000000e+00" purity="3.1612586975097656e-01" nType="-1"/>
              </Node>
              <Node pos="r" depth="4" NCoef="0" IVar="2" Cut="1.2097858190536499e+00" cType="1" res="-9.9000000000000000e+01" rms="0.0000000000000000e+00" purity="3.0449879169464111e-01" nType="-1"/>
            </Node>
          </Node>
          <Node pos="r" depth="2" NCoef="0" IVar="4" Cut="2.1361210937500000e+03" cType="1" res="-9.9000000000000000e+01" rms="0.0000000000000000e+00" purity="4.0655266493558884e-03" nType="-1"/>
        </Node>
        <Node pos="r" depth="1" NCoef="0" IVar="4" Cut="4.0299078369140625e+02" cType="1" res="-9.9000000000000000e+01" rms="0.0000000000000000e+00" purity="3.6771920323371887e-01" nType="0">
          <Node pos="l" depth="2" NCoef="0" IVar="3" Cut="5.4068243503570557e-01" cType="0" res="-9.9000000000000000e+01" rms="0.0000000000000000e+00" purity="5.4978394508361816e-01" nType="1"/>
          <Node pos="r" depth="2" NCoef="0" IVar="3" Cut="3.0026018619537354e-01" cType="0" res="-9.9000000000000000e+01" rms="0.0000000000000000e+00" purity="2.9647651314735413e-01" nType="-1"/>
        </Node>
      </Node>
    </BinaryTree>
    <BinaryTree type="DecisionTree" boostWeight="5.8078799047582362e-02" itree="18">
      <Node pos="s" depth="0" NCoef="0" IVar="2" Cut="-1.0797467231750488e+00" cType="0" res="-9.9000000000000000e+01" rms="0.0000000000000000e+00" purity="5.1532691717147827e-01" nType="0">
        <Node pos="l" depth="1" NCoef="0" IVar="3" Cut="5.1641434431076050e-01" cType="1" res="-9.9000000000000000e+01" rms="0.0000000000000000e+00" purity="5.5864828824996948e-01" nType="0">
          <Node pos="l" depth="2" NCoef="0" IVar="4" Cut="1.7993372802734375e+03" cType="1" res="-9.9000000000000000e+01" rms="0.0000000000000000e+00" purity="6.0115307569503784e-01" nType="0">
            <Node pos="l" depth="3" NCoef="0" IVar="2" Cut="1.1450406312942505e+00" cType="1" res="-9.9000000000000000e+01" rms="0.0000000000000000e+00" purity="6.5150845050811768e-01" nType="0">
              <Node pos="l" depth="4" NCoef="0" IVar="1" Cut="7.0492395019531250e+02" cType="1" res="-9.9000000000000000e+01" rms="0.0000000000000000e+00" purity="7.2310286760330200e-01" nType="0">
                <Node pos="l" depth="5" NCoef="0" IVar="-1" Cut="0.0000000000000000e+00" cType="1" res="-9.9000000000000000e+01" rms="0.0000000000000000e+00" purity="7.6078790426254272e-01" nType="1"/>
                <Node pos="r" depth="5" NCoef="0" IVar="-1" Cut="0.0000000000000000e+00" cType="1" res="-9.9000000000000000e+01" rms="0.0000000000000000e+00" purity="3.4425154328346252e-01" nType="-1"/>
              </Node>
              <Node pos="r" depth="4" NCoef="0" IVar="0" Cut="2.3211833190917969e+02" cType="0" res="-9.9000000000000000e+01" rms="0.0000000000000000e+00" purity="3.4986206889152527e-01" nType="0">
                <Node pos="l" depth="5" NCoef="0" IVar="-1" Cut="0.0000000000000000e+00" cType="1" res="-9.9000000000000000e+01" rms="0.0000000000000000e+00" purity="8.4497946500778198e-01" nType="1"/>
                <Node pos="r" depth="5" NCoef="0" IVar="-1" Cut="0.0000000000000000e+00" cType="1" res="-9.9000000000000000e+01" rms="0.0000000000000000e+00" purity="2.6712793111801147e-01" nType="-1"/>
              </Node>
            </Node>
            <Node pos="r" depth="3" NCoef="0" IVar="4" Cut="2.1411235351562500e+03" cType="0" res="-9.9000000000000000e+01" rms="0.0000000000000000e+00" purity="1.9721745047718287e-03" nType="-1"/>
          </Node>
          <Node pos="r" depth="2" NCoef="0" IVar="1" Cut="2.3117369079589844e+02" cType="1" res="-9.9000000000000000e+01" rms="0.0000000000000000e+00" purity="4.9824562668800354e-01" nType="0">
            <Node pos="l" depth="3" NCoef="0" IVar="4" Cut="1.6357371826171875e+03" cType="1" res="-9.9000000000000000e+01" rms="0.0000000000000000e+00" purity="6.4549684524536133e-01" nType="0">
              <Node pos="l" depth="4" NCoef="0" IVar="0" Cut="1.2435333251953125e+02" cType="0" res="-9.9000000000000000e+01" rms="0.0000000000000000e+00" purity="6.6533398628234863e-01" nType="0">
                <Node pos="l" depth="5" NCoef="0" IVar="-1" Cut="0.0000000000000000e+00" cType="1" res="-9.9000000000000000e+01" rms="0.0000000000000000e+00" purity="8.4551888704299927e-01" nType="1"/>
                <Node pos="r" depth="5" NCoef="0" IVar="-1" Cut="0.0000000000000000e+00" cType="1" res="-9.9000000000000000e+01" rms="0.0000000000000000e+00" purity="4.4769740104675293e-01" nType="-1"/>
              </Node>
              <Node pos="r" depth="4" NCoef="0" IVar="-1" Cut="0.0000000000000000e+00" cType="1" res="-9.9000000000000000e+01" rms="0.0000000000000000e+00" purity="8.2864977419376373e-02" nType="-1"/>
            </Node>
            <Node pos="r" depth="3" NCoef="0" IVar="0" Cut="2.1289192199707031e+02" cType="0" res="-9.9000000000000000e+01" rms="0.0000000000000000e+00" purity="3.3288371562957764e-01" nType="0">
              <Node pos="l" depth="4" NCoef="0" IVar="1" Cut="6.4615155029296875e+02" cType="1" res="-9.9000000000000000e+01" rms="0.0000000000000000e+00" purity="7.2091609239578247e-01" nType="0">
                <Node pos="l" depth="5" NCoef="0" IVar="-1" Cut="0.0000000000000000e+00" cType="1" res="-9.9000000000000000e+01" rms="0.0000000000000000e+00" purity="8.7631011009216309e-01" nType="1"/>
                <Node pos="r" depth="5" NCoef="0" IVar="-1" Cut="0.0000000000000000e+00" cType="1" res="-9.9000000000000000e+01" rms="0.0000000000000000e+00" purity="2.5248605012893677e-01" nType="-1"/>
              </Node>
              <Node pos="r" depth="4" NCoef="0" IVar="2" Cut="-9.0957266092300415e-01" cType="1" res="-9.9000000000000000e+01" rms="0.0000000000000000e+00" purity="2.2758327424526215e-01" nType="-1"/>
            </Node>
          </Node>
        </Node>
        <Node pos="r" depth="1" NCoef="0" IVar="0" Cut="1.6494050598144531e+02" cType="0" res="-9.9000000000000000e+01" rms="0.0000000000000000e+00" purity="3.7209671735763550e-01" nType="0">
          <Node pos="l" depth="2" NCoef="0" IVar="4" Cut="1.4163634033203125e+03" cType="1" res="-9.9000000000000000e+01" rms="0.0000000000000000e+00" purity="6.6969048976898193e-01" nType="0">
            <Node pos="l" depth="3" NCoef="0" IVar="1" Cut="5.4142596435546875e+02" cType="1" res="-9.9000000000000000e+01" rms="0.0000000000000000e+00" purity="7.2427147626876831e-01" nType="0">
              <Node pos="l" depth="4" NCoef="0" IVar="3" Cut="2.4871638417243958e-01" cType="0" res="-9.9000000000000000e+01" rms="0.0000000000000000e+00" purity="8.0303376913070679e-01" nType="1"/>
              <Node pos="r" depth="4" NCoef="0" IVar="-1" Cut="0.0000000000000000e+00" cType="1" res="-9.9000000000000000e+01" rms="0.0000000000000000e+00" purity="1.8803940713405609e-01" nType="-1"/>
            </Node>
            <Node pos="r" depth="3" NCoef="0" IVar="-1" Cut="0.0000000000000000e+00" cType="1" res="-9.9000000000000000e+01" rms="0.0000000000000000e+00" purity="1.2101358175277710e-01" nType="-1"/>
          </Node>
          <Node pos="r" depth="2" NCoef="0" IVar="0" Cut="5.5478019714355469e+01" cType="0" res="-9.9000000000000000e+01" rms="0.0000000000000000e+00" purity="2.6065027713775635e-01" nType="-1"/>
        </Node>
      </Node>
    </BinaryTree>
    <BinaryTree type="DecisionTree" boostWeight="4.8850433018739980e-02" itree="19">
      <Node pos="s" depth="0" NCoef="0" IVar="2" Cut="-1.0797467231750488e+00" cType="0" res="-9.9000000000000000e+01" rms="0.0000000000000000e+00" purity="5.1615995168685913e-01" nType="0">
        <Node pos="l" depth="1" NCoef="0" IVar="4" Cut="1.7992658691406250e+03" cType="1" res="-9.9000000000000000e+01" rms="0.0000000000000000e+00" purity="5.5780136585235596e-01" nType="0">
          <Node pos="l" depth="2" NCoef="0" IVar="0" Cut="1.2419789886474609e+02" cType="0" res="-9.9000000000000000e+01" rms="0.0000000000000000e+00" purity="5.9472054243087769e-01" nType="0">
            <Node pos="l" depth="3" NCoef="0" IVar="4" Cut="1.5684979248046875e+03" cType="1" res="-9.9000000000000000e+01" rms="0.0000000000000000e+00" purity="7.8855788707733154e-01" nType="0">
              <Node pos="l" depth="4" NCoef="0" IVar="0" Cut="1.9483029174804688e+02" cType="0" res="-9.9000000000000000e+01" rms="0.0000000000000000e+00" purity="7.9361069202423096e-01" nType="1"/>
              <Node pos="r" depth="4" NCoef="0" IVar="-1" Cut="0.0000000000000000e+00" cType="1" res="-9.9000000000000000e+01" rms="0.0000000000000000e+00" purity="4.1056799888610840e-01" nType="-1"/>
            </Node>
            <Node pos="r" depth="3" NCoef="0" IVar="1" Cut="1.8098527526855469e+02" cType="1" res="-9.9000000000000000e+01" rms="0.0000000000000000e+00" purity="3.7418675422668457e-01" nType="-1"/>
          </Node>
          <Node pos="r" depth="2" NCoef="0" IVar="4" Cut="2.1361210937500000e+03" cType="1" res="-9.9000000000000000e+01" rms="0.0000000000000000e+00" purity="4.5213890261948109e-03" nType="-1"/>
        </Node>
        <Node pos="r" depth="1" NCoef="0" IVar="0" Cut="1.6494050598144531e+02" cType="0" res="-9.9000000000000000e+01" rms="0.0000000000000000e+00" purity="3.7851363420486450e-01" nType="0">
          <Node pos="l" depth="2" NCoef="0" IVar="0" Cut="2.1701193237304688e+02" cType="0" res="-9.9000000000000000e+01" rms="0.0000000000000000e+00" purity="6.6414672136306763e-01" nType="1"/>
          <Node pos="r" depth="2" NCoef="0" IVar="3" Cut="5.4068243503570557e-01" cType="0" res="-9.9000000000000000e+01" rms="0.0000000000000000e+00" purity="2.7199727296829224e-01" nType="-1"/>
        </Node>
      </Node>
    </BinaryTree>
    <BinaryTree type="DecisionTree" boostWeight="4.1321615601509286e-02" itree="20">
      <Node pos="s" depth="0" NCoef="0" IVar="1" Cut="4.1229394531250000e+02" cType="1" res="-9.9000000000000000e+01" rms="0.0000000000000000e+00" purity="5.1779580116271973e-01" nType="0">
        <Node pos="l" depth="1" NCoef="0" IVar="2" Cut="-1.5587596893310547e+00" cType="0" res="-9.9000000000000000e+01" rms="0.0000000000000000e+00" purity="6.0055506229400635e-01" nType="0">
          <Node pos="l" depth="2" NCoef="0" IVar="2" Cut="1.7374159097671509e+00" cType="1" res="-9.9000000000000000e+01" rms="0.0000000000000000e+00" purity="6.3356661796569824e-01" nType="0">
            <Node pos="l" depth="3" NCoef="0" IVar="0" Cut="1.2422486114501953e+02" cType="0" res="-9.9000000000000000e+01" rms="0.0000000000000000e+00" purity="6.6849833726882935e-01" nType="0">
              <Node pos="l" depth="4" NCoef="0" IVar="0" Cut="1.9489479064941406e+02" cType="0" res="-9.9000000000000000e+01" rms="0.0000000000000000e+00" purity="8.1719034910202026e-01" nType="1"/>
              <Node pos="r" depth="4" NCoef="0" IVar="2" Cut="7.9591864347457886e-01" cType="1" res="-9.9000000000000000e+01" rms="0.0000000000000000e+00" purity="4.7563108801841736e-01" nType="0">
                <Node pos="l" depth="5" NCoef="0" IVar="-1" Cut="0.0000000000000000e+00" cType="1" res="-9.9000000000000000e+01" rms="0.0000000000000000e+00" purity="5.1810103654861450e-01" nType="1"/>
                <Node pos="r" depth="5" NCoef="0" IVar="-1" Cut="0.0000000000000000e+00" cType="1" res="-9.9000000000000000e+01" rms="0.0000000000000000e+00" purity="3.8973563909530640e-01" nType="-1"/>
              </Node>
            </Node>
            <Node pos="r" depth="3" NCoef="0" IVar="4" Cut="5.9989666748046875e+02" cType="1" res="-9.9000000000000000e+01" rms="0.0000000000000000e+00" purity="3.5991397500038147e-01" nType="-1"/>
          </Node>
          <Node pos="r" depth="2" NCoef="0" IVar="1" Cut="8.4422828674316406e+01" cType="1" res="-9.9000000000000000e+01" rms="0.0000000000000000e+00" purity="3.8087144494056702e-01" nType="0">
            <Node pos="l" depth="3" NCoef="0" IVar="3" Cut="2.9875823855400085e-01" cType="0" res="-9.9000000000000000e+01" rms="0.0000000000000000e+00" purity="5.1376968622207642e-01" nType="0">
              <Node pos="l" depth="4" NCoef="0" IVar="4" Cut="5.4492816162109375e+02" cType="1" res="-9.9000000000000000e+01" rms="0.0000000000000000e+00" purity="5.9189724922180176e-01" nType="0">
                <Node pos="l" depth="5" NCoef="0" IVar="-1" Cut="0.0000000000000000e+00" cType="1" res="-9.9000000000000000e+01" rms="0.0000000000000000e+00" purity="7.8755629062652588e-01" nType="1"/>
                <Node pos="r" depth="5" NCoef="0" IVar="-1" Cut="0.0000000000000000e+00" cType="1" res="-9.9000000000000000e+01" rms="0.0000000000000000e+00" purity="3.2669851183891296e-01" nType="-1"/>
              </Node>
              <Node pos="r" depth="4" NCoef="0" IVar="-1" Cut="0.0000000000000000e+00" cType="1" res="-9.9000000000000000e+01" rms="0.0000000000000000e+00" purity="3.5335651040077209e-01" nType="-1"/>
            </Node>
            <Node pos="r" depth="3" NCoef="0" IVar="2" Cut="-2.3343400955200195e+00" cType="0" res="-9.9000000000000000e+01" rms="0.0000000000000000e+00" purity="3.4519109129905701e-01" nType="-1"/>
          </Node>
        </Node>
        <Node pos="r" depth="1" NCoef="0" IVar="1" Cut="5.7633618164062500e+02" cType="1" res="-9.9000000000000000e+01" rms="0.0000000000000000e+00" purity="2.8859722614288330e-01" nType="-1"/>
      </Node>
    </BinaryTree>
    <BinaryTree type="DecisionTree" boostWeight="5.9945922876515539e-02" itree="21">
      <Node pos="s" depth="0" NCoef="0" IVar="3" Cut="5.1641434431076050e-01" cType="1" res="-9.9000000000000000e+01" rms="0.0000000000000000e+00" purity="5.1809275150299072e-01" nType="0">
        <Node pos="l" depth="1" NCoef="0" IVar="4" Cut="1.7993372802734375e+03" cType="1" res="-9.9000000000000000e+01" rms="0.0000000000000000e+00" purity="5.5919384956359863e-01" nType="0">
          <Node pos="l" depth="2" NCoef="0" IVar="2" Cut="1.0758121013641357e+00" cType="1" res="-9.9000000000000000e+01" rms="0.0000000000000000e+00" purity="6.0129886865615845e-01" nType="0">
            <Node pos="l" depth="3" NCoef="0" IVar="0" Cut="1.1772938537597656e+02" cType="0" res="-9.9000000000000000e+01" rms="0.0000000000000000e+00" purity="6.4835214614868164e-01" nType="0">
              <Node pos="l" depth="4" NCoef="0" IVar="1" Cut="9.3085797119140625e+02" cType="1" res="-9.9000000000000000e+01" rms="0.0000000000000000e+00" purity="8.0333799123764038e-01" nType="0">
                <Node pos="l" depth="5" NCoef="0" IVar="-1" Cut="0.0000000000000000e+00" cType="1" res="-9.9000000000000000e+01" rms="0.0000000000000000e+00" purity="8.1593781709671021e-01" nType="1"/>
                <Node pos="r" depth="5" NCoef="0" IVar="-1" Cut="0.0000000000000000e+00" cType="1" res="-9.9000000000000000e+01" rms="0.0000000000000000e+00" purity="2.3068545758724213e-01" nType="-1"/>
              </Node>
              <Node pos="r" depth="4" NCoef="0" IVar="4" Cut="3.5313052368164062e+02" cType="1" res="-9.9000000000000000e+01" rms="0.0000000000000000e+00" purity="4.2646846175193787e-01" nType="0">
                <Node pos="l" depth="5" NCoef="0" IVar="-1" Cut="0.0000000000000000e+00" cType="1" res="-9.9000000000000000e+01" rms="0.0000000000000000e+00" purity="6.8014472723007202e-01" nType="1"/>
                <Node pos="r" depth="5" NCoef="0" IVar="-1" Cut="0.0000000000000000e+00" cType="1" res="-9.9000000000000000e+01" rms="0.0000000000000000e+00" purity="3.4385070204734802e-01" nType="-1"/>
              </Node>
            </Node>
            <Node pos="r" depth="3" NCoef="0" IVar="4" Cut="3.4415628051757812e+02" cType="1" res="-9.9000000000000000e+01" rms="0.0000000000000000e+00" purity="3.7745422124862671e-01" nType="0">
              <Node pos="l" depth="4" NCoef="0" IVar="0" Cut="9.8890121459960938e+01" cType="0" res="-9.9000000000000000e+01" rms="0.0000000000000000e+00" purity="5.7134097814559937e-01" nType="0">
                <Node pos="l" depth="5" NCoef="0" IVar="-1" Cut="0.0000000000000000e+00" cType="1" res="-9.9000000000000000e+01" rms="0.0000000000000000e+00" purity="7.9885423183441162e-01" nType="1"/>
                <Node pos="r" depth="5" NCoef="0" IVar="-1" Cut="0.0000000000000000e+00" cType="1" res="-9.9000000000000000e+01" rms="0.0000000000000000e+00" purity="3.2847476005554199e-01" nType="-1"/>
              </Node>
              <Node pos="r" depth="4" NCoef="0" IVar="0" Cut="2.3695651245117188e+02" cType="0" res="-9.9000000000000000e+01" rms="0.0000000000000000e+00" purity="3.1198656558990479e-01" nType="0">
                <Node pos="l" depth="5" NCoef="0" IVar="-1" Cut="0.0000000000000000e+00" cType="1" res="-9.9000000000000000e+01" rms="0.0000000000000000e+00" purity="8.2882714271545410e-01" nType="1"/>
                <Node pos="r" depth="5" NCoef="0" IVar="-1" Cut="0.0000000000000000e+00" cType="1" res="-9.9000000000000000e+01" rms="0.0000000000000000e+00" purity="2.1685665845870972e-01" nType="-1"/>
              </Node>
            </Node>
          </Node>
          <Node pos="r" depth="2" NCoef="0" IVar="1" Cut="2.1574734497070312e+02" cType="1" res="-9.9000000000000000e+01" rms="0.0000000000000000e+00" purity="2.0418290514498949e-03" nType="-1"/>
        </Node>
        <Node pos="r" depth="1" NCoef="0" IVar="0" Cut="1.9833418273925781e+02" cType="0" res="-9.9000000000000000e+01" rms="0.0000000000000000e+00" purity="4.7082126140594482e-01" nType="0">
          <Node pos="l" depth="2" NCoef="0" IVar="1" Cut="6.3766851806640625e+02" cType="1" res="-9.9000000000000000e+01" rms="0.0000000000000000e+00" purity="7.9075008630752563e-01" nType="0">
            <Node pos="l" depth="3" NCoef="0" IVar="4" Cut="1.4401303710937500e+03" cType="1" res="-9.9000000000000000e+01" rms="0.0000000000000000e+00" purity="8.5588842630386353e-01" nType="0">
              <Node pos="l" depth="4" NCoef="0" IVar="1" Cut="7.7877288818359375e+01" cType="1" res="-9.9000000000000000e+01" rms="0.0000000000000000e+00" purity="8.8777655363082886e-01" nType="1"/>
              <Node pos="r" depth="4" NCoef="0" IVar="1" Cut="1.6142582702636719e+02" cType="0" res="-9.9000000000000000e+01" rms="0.0000000000000000e+00" purity="4.7382330894470215e-01" nType="0">
                <Node pos="l" depth="5" NCoef="0" IVar="-1" Cut="0.0000000000000000e+00" cType="1" res="-9.9000000000000000e+01" rms="0.0000000000000000e+00" purity="5.1104515790939331e-01" nType="1"/>
                <Node pos="r" depth="5" NCoef="0" IVar="-1" Cut="0.0000000000000000e+00" cType="1" res="-9.9000000000000000e+01" rms="0.0000000000000000e+00" purity="4.3761280179023743e-01" nType="-1"/>
              </Node>
            </Node>
            <Node pos="r" depth="3" NCoef="0" IVar="1" Cut="8.7885803222656250e+02" cType="1" res="-9.9000000000000000e+01" rms="0.0000000000000000e+00" purity="2.4661271274089813e-01" nType="-1"/>
          </Node>
          <Node pos="r" depth="2" NCoef="0" IVar="0" Cut="1.5584434509277344e+02" cType="0" res="-9.9000000000000000e+01" rms="0.0000000000000000e+00" purity="3.5580351948738098e-01" nType="0">
            <Node pos="l" depth="3" NCoef="0" IVar="4" Cut="7.4354833984375000e+02" cType="1" res="-9.9000000000000000e+01" rms="0.0000000000000000e+00" purity="5.4326587915420532e-01" nType="0">
              <Node pos="l" depth="4" NCoef="0" IVar="1" Cut="2.2751773071289062e+02" cType="1" res="-9.9000000000000000e+01" rms="0.0000000000000000e+00" purity="7.4694281816482544e-01" nType="0">
                <Node pos="l" depth="5" NCoef="0" IVar="-1" Cut="0.0000000000000000e+00" cType="1" res="-9.9000000000000000e+01" rms="0.0000000000000000e+00" purity="8.5608482360839844e-01" nType="1"/>
                <Node pos="r" depth="5" NCoef="0" IVar="-1" Cut="0.0000000000000000e+00" cType="1" res="-9.9000000000000000e+01" rms="0.0000000000000000e+00" purity="3.8981601595878601e-01" nType="-1"/>
              </Node>
              <Node pos="r" depth="4" NCoef="0" IVar="1" Cut="1.8488879394531250e+02" cType="1" res="-9.9000000000000000e+01" rms="0.0000000000000000e+00" purity="3.4215369820594788e-01" nType="-1"/>
            </Node>
            <Node pos="r" depth="3" NCoef="0" IVar="4" Cut="3.9105953979492188e+02" cType="1" res="-9.9000000000000000e+01" rms="0.0000000000000000e+00" purity="3.2864832878112793e-01" nType="0">
              <Node pos="l" depth="4" NCoef="0" IVar="0" Cut="8.0310501098632812e+01" cType="0" res="-9.9000000000000000e+01" rms="0.0000000000000000e+00" purity="5.5366426706314087e-01" nType="0">
                <Node pos="l" depth="5" NCoef="0" IVar="-1" Cut="0.0000000000000000e+00" cType="1" res="-9.9000000000000000e+01" rms="0.0000000000000000e+00" purity="6.9590276479721069e-01" nType="1"/>
                <Node pos="r" depth="5" NCoef="0" IVar="-1" Cut="0.0000000000000000e+00" cType="1" res="-9.9000000000000000e+01" rms="0.0000000000000000e+00" purity="3.7775075435638428e-01" nType="-1"/>
              </Node>
              <Node pos="r" depth="4" NCoef="0" IVar="2" Cut="-2.0243906974792480e+00" cType="0" res="-9.9000000000000000e+01" rms="0.0000000000000000e+00" purity="2.4131394922733307e-01" nType="-1"/>
            </Node>
          </Node>
        </Node>
      </Node>
    </BinaryTree>
    <BinaryTree type="DecisionTree" boostWeight="3.9752201813193527e-02" itree="22">
      <Node pos="s" depth="0" NCoef="0" IVar="2" Cut="-1.0797467231750488e+00" cType="0" res="-9.9000000000000000e+01" rms="0.0000000000000000e+00" purity="5.1936995983123779e-01" nType="0">
        <Node pos="l" depth="1" NCoef="0" IVar="0" Cut="3.3254132080078125e+02" cType="0" res="-9.9000000000000000e+01" rms="0.0000000000000000e+00" purity="5.5995744466781616e-01" nType="0">
          <Node pos="l" depth="2" NCoef="0" IVar="0" Cut="6.0160668945312500e+02" cType="0" res="-9.9000000000000000e+01" rms="0.0000000000000000e+00" purity="9.1420471668243408e-01" nType="1"/>
          <Node pos="r" depth="2" NCoef="0" IVar="4" Cut="4.1050009155273438e+02" cType="1" res="-9.9000000000000000e+01" rms="0.0000000000000000e+00" purity="4.8504778742790222e-01" nType="0">
            <Node pos="l" depth="3" NCoef="0" IVar="2" Cut="1.9875067472457886e+00" cType="1" res="-9.9000000000000000e+01" rms="0.0000000000000000e+00" purity="7.1507799625396729e-01" nType="0">
              <Node pos="l" depth="4" NCoef="0" IVar="2" Cut="-9.3310374021530151e-01" cType="0" res="-9.9000000000000000e+01" rms="0.0000000000000000e+00" purity="7.4680566787719727e-01" nType="1"/>
              <Node pos="r" depth="4" NCoef="0" IVar="3" Cut="3.1348857283592224e-01" cType="0" res="-9.9000000000000000e+01" rms="0.0000000000000000e+00" purity="4.3802237510681152e-01" nType="-1"/>
            </Node>
            <Node pos="r" depth="3" NCoef="0" IVar="2" Cut="-9.0860271453857422e-01" cType="0" res="-9.9000000000000000e+01" rms="0.0000000000000000e+00" purity="3.9262583851814270e-01" nType="-1"/>
          </Node>
        </Node>
        <Node pos="r" depth="1" NCoef="0" IVar="4" Cut="4.0299078369140625e+02" cType="1" res="-9.9000000000000000e+01" rms="0.0000000000000000e+00" purity="3.8591024279594421e-01" nType="0">
          <Node pos="l" depth="2" NCoef="0" IVar="0" Cut="8.6843437194824219e+01" cType="0" res="-9.9000000000000000e+01" rms="0.0000000000000000e+00" purity="5.4816967248916626e-01" nType="0">
            <Node pos="l" depth="3" NCoef="0" IVar="0" Cut="1.2212124633789062e+02" cType="0" res="-9.9000000000000000e+01" rms="0.0000000000000000e+00" purity="7.1591728925704956e-01" nType="1"/>
            <Node pos="r" depth="3" NCoef="0" IVar="3" Cut="5.4068243503570557e-01" cType="0" res="-9.9000000000000000e+01" rms="0.0000000000000000e+00" purity="3.0834376811981201e-01" nType="-1"/>
          </Node>
          <Node pos="r" depth="2" NCoef="0" IVar="1" Cut="1.3930885314941406e+02" cType="1" res="-9.9000000000000000e+01" rms="0.0000000000000000e+00" purity="3.2033547759056091e-01" nType="-1"/>
        </Node>
      </Node>
    </BinaryTree>
    <BinaryTree type="DecisionTree" boostWeight="2.5475496647033091e-02" itree="23">
      <Node pos="s" depth="0" NCoef="0" IVar="1" Cut="4.1229394531250000e+02" cType="1" res="-9.9000000000000000e+01" rms="0.0000000000000000e+00" purity="5.2279800176620483e-01" nType="0">
        <Node pos="l" depth="1" NCoef="0" IVar="0" Cut="3.3254364013671875e+02" cType="0" res="-9.9000000000000000e+01" rms="0.0000000000000000e+00" purity="6.0014384984970093e-01" nType="1"/>
        <Node pos="r" depth="1" NCoef="0" IVar="3" Cut="8.0863855779170990e-02" cType="1" res="-9.9000000000000000e+01" rms="0.0000000000000000e+00" purity="3.0673521757125854e-01" nType="-1"/>
      </Node>
    </BinaryTree>
    <BinaryTree type="DecisionTree" boostWeight="4.8569135327823691e-02" itree="24">
      <Node pos="s" depth="0" NCoef="0" IVar="1" Cut="4.1229394531250000e+02" cType="1" res="-9.9000000000000000e+01" rms="0.0000000000000000e+00" purity="5.1985013484954834e-01" nType="0">
        <Node pos="l" depth="1" NCoef="0" IVar="4" Cut="1.7992658691406250e+03" cType="1" res="-9.9000000000000000e+01" rms="0.0000000000000000e+00" purity="5.9401518106460571e-01" nType="0">
          <Node pos="l" depth="2" NCoef="0" IVar="0" Cut="1.2420022583007812e+02" cType="0" res="-9.9000000000000000e+01" rms="0.0000000000000000e+00" purity="6.1262500286102295e-01" nType="0">
            <Node pos="l" depth="3" NCoef="0" IVar="2" Cut="-2.2388675212860107e+00" cType="0" res="-9.9000000000000000e+01" rms="0.0000000000000000e+00" purity="7.9672330617904663e-01" nType="0">
              <Node pos="l" depth="4" NCoef="0" IVar="0" Cut="1.9483323669433594e+02" cType="0" res="-9.9000000000000000e+01" rms="0.0000000000000000e+00" purity="8.0046749114990234e-01" nType="1"/>
              <Node pos="r" depth="4" NCoef="0" IVar="-1" Cut="0.0000000000000000e+00" cType="1" res="-9.9000000000000000e+01" rms="0.0000000000000000e+00" purity="4.9778789281845093e-01" nType="-1"/>
            </Node>
            <Node pos="r" depth="3" NCoef="0" IVar="2" Cut="-2.2772793769836426e+00" cType="0" res="-9.9000000000000000e+01" rms="0.0000000000000000e+00" purity="4.1916722059249878e-01" nType="-1"/>
          </Node>
          <Node pos="r" depth="2" NCoef="0" IVar="2" Cut="-1.2919834852218628e+00" cType="0" res="-9.9000000000000000e+01" rms="0.0000000000000000e+00" purity="1.0129893198609352e-02" nType="-1"/>
        </Node>
        <Node pos="r" depth="1" NCoef="0" IVar="0" Cut="2.3625750732421875e+02" cType="0" res="-9.9000000000000000e+01" rms="0.0000000000000000e+00" purity="3.1217905879020691e-01" nType="0">
          <Node pos="l" depth="2" NCoef="0" IVar="1" Cut="1.0059079589843750e+03" cType="1" res="-9.9000000000000000e+01" rms="0.0000000000000000e+00" purity="6.7979753017425537e-01" nType="0">
            <Node pos="l" depth="3" NCoef="0" IVar="1" Cut="4.4018869018554688e+02" cType="1" res="-9.9000000000000000e+01" rms="0.0000000000000000e+00" purity="8.2527846097946167e-01" nType="1"/>
            <Node pos="r" depth="3" NCoef="0" IVar="4" Cut="2.5338496093750000e+03" cType="1" res="-9.9000000000000000e+01" rms="0.0000000000000000e+00" purity="3.7050832062959671e-02" nType="-1"/>
          </Node>
          <Node pos="r" depth="2" NCoef="0" IVar="1" Cut="5.7633618164062500e+02" cType="1" res="-9.9000000000000000e+01" rms="0.0000000000000000e+00" purity="2.1959133446216583e-01" nType="-1"/>
        </Node>
      </Node>
    </BinaryTree>
    <BinaryTree type="DecisionTree" boostWeight="4.3749852213774906e-02" itree="25">
      <Node pos="s" depth="0" NCoef="0" IVar="1" Cut="4.1229394531250000e+02" cType="1" res="-9.9000000000000000e+01" rms="0.0000000000000000e+00" purity="5.2241325378417969e-01" nType="0">
        <Node pos="l" depth="1" NCoef="0" IVar="4" Cut="1.7992658691406250e+03" cType="1" res="-9.9000000000000000e+01" rms="0.0000000000000000e+00" purity="5.9517520666122437e-01" nType="0">
          <Node pos="l" depth="2" NCoef="0" IVar="0" Cut="1.2420022583007812e+02" cType="0" res="-9.9000000000000000e+01" rms="0.0000000000000000e+00" purity="6.1353361606597900e-01" nType="0">
            <Node pos="l" depth="3" NCoef="0" IVar="0" Cut="1.9483323669433594e+02" cType="0" res="-9.9000000000000000e+01" rms="0.0000000000000000e+00" purity="7.8904932737350464e-01" nType="1"/>
            <Node pos="r" depth="3" NCoef="0" IVar="3" Cut="3.6245901137590408e-02" cType="1" res="-9.9000000000000000e+01" rms="0.0000000000000000e+00" purity="4.3103641271591187e-01" nType="0">
              <Node pos="l" depth="4" NCoef="0" IVar="1" Cut="1.6779078674316406e+02" cType="1" res="-9.9000000000000000e+01" rms="0.0000000000000000e+00" purity="5.0682550668716431e-01" nType="0">
                <Node pos="l" depth="5" NCoef="0" IVar="-1" Cut="0.0000000000000000e+00" cType="1" res="-9.9000000000000000e+01" rms="0.0000000000000000e+00" purity="5.4983639717102051e-01" nType="1"/>
                <Node pos="r" depth="5" NCoef="0" IVar="-1" Cut="0.0000000000000000e+00" cType="1" res="-9.9000000000000000e+01" rms="0.0000000000000000e+00" purity="4.5134136080741882e-01" nType="-1"/>
              </Node>
              <Node pos="r" depth="4" NCoef="0" IVar="4" Cut="2.7555548095703125e+02" cType="1" res="-9.9000000000000000e+01" rms="0.0000000000000000e+00" purity="4.2855751514434814e-01" nType="0">
                <Node pos="l" depth="5" NCoef="0" IVar="-1" Cut="0.0000000000000000e+00" cType="1" res="-9.9000000000000000e+01" rms="0.0000000000000000e+00" purity="6.3596451282501221e-01" nType="1"/>
                <Node pos="r" depth="5" NCoef="0" IVar="-1" Cut="0.0000000000000000e+00" cType="1" res="-9.9000000000000000e+01" rms="0.0000000000000000e+00" purity="3.8245794177055359e-01" nType="-1"/>
