<?xml version="1.0"?>
<MethodSetup Method="BDT::BDT">
  <GeneralInfo>
    <Info name="TMVA Release" value="4.1.4 [262404]"/>
    <Info name="ROOT Release" value="5.34/04 [336388]"/>
    <Info name="Creator" value="karavdia"/>
    <Info name="Date" value="Sun Nov  1 13:54:06 2015"/>
    <Info name="Host" value="Linux zitpcx5595 2.6.32-279.22.1.el6.x86_64 #1 SMP Tue Feb 5 14:33:39 CST 2013 x86_64 x86_64 x86_64 GNU/Linux"/>
    <Info name="Dir" value="/afs/desy.de/user/k/karavdia/xxl/af-cms/CMSSW_7_4_9/src/UHH2/ZprimeSemiLeptonic/qcd_rejection/tmva/test"/>
    <Info name="Training events" value="16353"/>
    <Info name="TrainingTime" value="1.35375404e+00"/>
    <Info name="AnalysisType" value="Classification"/>
  </GeneralInfo>
  <Options>
    <Option name="V" modified="Yes">False</Option>
    <Option name="VerbosityLevel" modified="No">Default</Option>
    <Option name="VarTransform" modified="No">None</Option>
    <Option name="H" modified="Yes">False</Option>
    <Option name="CreateMVAPdfs" modified="Yes">True</Option>
    <Option name="IgnoreNegWeightsInTraining" modified="No">False</Option>
    <Option name="NTrees" modified="Yes">100</Option>
    <Option name="RenormByClass" modified="No">False</Option>
    <Option name="BoostType" modified="Yes">AdaBoost</Option>
    <Option name="AdaBoostR2Loss" modified="No">quadratic</Option>
    <Option name="UseBaggedGrad" modified="No">False</Option>
    <Option name="GradBaggingFraction" modified="No">6.000000e-01</Option>
    <Option name="Shrinkage" modified="No">1.000000e+00</Option>
    <Option name="AdaBoostBeta" modified="Yes">5.000000e-02</Option>
    <Option name="UseRandomisedTrees" modified="Yes">True</Option>
    <Option name="UseNvars" modified="No">3</Option>
    <Option name="UsePoissonNvars" modified="No">True</Option>
    <Option name="UseNTrainEvents" modified="No">16353</Option>
    <Option name="UseWeightedTrees" modified="No">True</Option>
    <Option name="UseYesNoLeaf" modified="No">True</Option>
    <Option name="NodePurityLimit" modified="No">5.000000e-01</Option>
    <Option name="SeparationType" modified="Yes">misclassificationerror</Option>
    <Option name="nEventsMin" modified="No">45</Option>
    <Option name="nCuts" modified="No">20</Option>
    <Option name="UseFisherCuts" modified="No">False</Option>
    <Option name="MinLinCorrForFisher" modified="No">8.000000e-01</Option>
    <Option name="UseExclusiveVars" modified="No">False</Option>
    <Option name="PruneStrength" modified="No">0.000000e+00</Option>
    <Option name="PruneMethod" modified="No">nopruning</Option>
    <Option name="PruneBeforeBoost" modified="No">False</Option>
    <Option name="PruningValFraction" modified="No">5.000000e-01</Option>
    <Option name="NNodesMax" modified="No">100000</Option>
    <Option name="MaxDepth" modified="Yes">5</Option>
    <Option name="DoBoostMonitor" modified="No">False</Option>
    <Option name="NegWeightTreatment" modified="No">inverseboostnegweights</Option>
  </Options>
  <Variables NVar="6">
    <Variable VarIndex="0" Expression="met_pt" Label="met_pt" Title="missing E_{T}" Unit="GeV/c^{2}" Internal="met_pt" Type="F" Min="5.00355492e+01" Max="5.98265674e+03"/>
    <Variable VarIndex="1" Expression="lep_pt" Label="lep_pt" Title="lep p_{T}" Unit="GeV/c" Internal="lep_pt" Type="F" Min="5.00006409e+01" Max="3.52188525e+03"/>
    <Variable VarIndex="2" Expression="lep_eta" Label="lep_eta" Title="lep #eta" Unit="" Internal="lep_eta" Type="F" Min="-2.52123022e+00" Max="2.53957319e+00"/>
    <Variable VarIndex="3" Expression="lep_fbrem" Label="lep_fbrem" Title="lep f_{brem}" Unit="" Internal="lep_fbrem" Type="F" Min="-1.02685642e+01" Max="9.97231424e-01"/>
    <Variable VarIndex="4" Expression="ljet_pt" Label="ljet_pt" Title="lead jet p_{T}" Unit="GeV/c" Internal="ljet_pt" Type="F" Min="2.00029175e+02" Max="8.59569141e+03"/>
    <Variable VarIndex="5" Expression="lep_pt_ljet" Label="lep_pt_ljet" Title="p_{T, rel}(lep, lead jet)" Unit="GeV/c" Internal="lep_pt_ljet" Type="F" Min="1.01737030e-01" Max="3.65518262e+03"/>
  </Variables>
  <Spectators NSpec="1">
    <Spectator SpecIndex="0" Expression="jet_n" Label="jet_n" Title="number of jets in event" Unit="" Internal="jet_n" Type="F" Min="2.00000000e+00" Max="1.30000000e+01"/>
  </Spectators>
  <Classes NClass="2">
    <Class Name="Signal" Index="0"/>
    <Class Name="Background" Index="1"/>
  </Classes>
  <Transformations NTransformations="0"/>
  <MVAPdfs>
    <PDF Name="BDT_PDFSig" MinNSmooth="0" MaxNSmooth="0" InterpolMethod="2" KDE_type="1" KDE_iter="1" KDE_border="1" KDE_finefactor="1.0000000000000000e+00">
      <Histogram Name="BDT_tr_S_original" NBins="327" XMin="-1.0000000000000000e+00" XMax="1.0000000000000000e+00" HasEquidistantBins="1">
        0.00000000e+00 0.00000000e+00 0.00000000e+00 0.00000000e+00 0.00000000e+00 0.00000000e+00 0.00000000e+00 2.32211334e-02 0.00000000e+00 0.00000000e+00 0.00000000e+00 0.00000000e+00 2.32211334e-02 0.00000000e+00 0.00000000e+00 0.00000000e+00 0.00000000e+00 0.00000000e+00 0.00000000e+00 0.00000000e+00 0.00000000e+00 0.00000000e+00 0.00000000e+00 0.00000000e+00 2.32211334e-02 0.00000000e+00 0.00000000e+00 2.32211334e-02 0.00000000e+00 2.32211334e-02 0.00000000e+00 2.32211334e-02 0.00000000e+00 0.00000000e+00 0.00000000e+00 4.64422667e-02 2.32211334e-02 0.00000000e+00 2.32211334e-02 4.64422667e-02 0.00000000e+00 4.64422667e-02 2.32211334e-02 2.32211334e-02 0.00000000e+00 4.64422667e-02 2.32211334e-02 0.00000000e+00 0.00000000e+00 2.32211334e-02 2.32211334e-02 2.32211334e-02 6.96634001e-02 2.32211334e-02 2.32211334e-02 2.32211334e-02 9.28845334e-02 2.32211334e-02 2.32211334e-02 2.32211334e-02 9.28845334e-02 2.32211334e-02 4.64422667e-02 4.64422667e-02 0.00000000e+00 1.16105667e-01 4.64422667e-02 6.96634001e-02 9.28845334e-02 1.16105667e-01 9.28845334e-02 2.32211334e-02 1.39326800e-01 9.28845334e-02 1.16105667e-01 1.16105667e-01 4.64422667e-02 4.64422667e-02 6.96634001e-02 9.28845334e-02 9.28845334e-02 6.96634001e-02 0.00000000e+00 4.64422667e-02 9.28845334e-02 9.28845334e-02 1.16105667e-01 1.39326800e-01 6.96634001e-02 6.96634001e-02 1.16105667e-01 2.08990200e-01 4.64422667e-02 6.96634001e-02 4.64422667e-02 6.96634001e-02 2.32211334e-02 2.32211334e-02 6.96634001e-02 1.39326800e-01 1.16105667e-01 9.28845334e-02 6.96634001e-02 1.16105667e-01 1.16105667e-01 1.85769067e-01 1.39326800e-01 2.08990200e-01 1.85769067e-01 2.08990200e-01 6.96634001e-02 1.62547934e-01 1.85769067e-01 2.32211334e-01 1.39326800e-01 2.55432467e-01 1.16105667e-01 1.62547934e-01 1.62547934e-01 2.55432467e-01 2.78653600e-01 9.28845334e-02 2.32211334e-01 1.62547934e-01 3.94759267e-01 2.32211334e-01 1.39326800e-01 3.25095867e-01 2.55432467e-01 2.78653600e-01 4.64422667e-02 1.85769067e-01 1.16105667e-01 2.55432467e-01 3.25095867e-01 6.96634001e-02 2.55432467e-01 3.01874734e-01 4.17980401e-01 1.39326800e-01 1.62547934e-01 6.96634001e-02 1.16105667e-01 2.08990200e-01 9.28845334e-02 3.25095867e-01 3.71538134e-01 1.85769067e-01 2.78653600e-01 3.71538134e-01 3.94759267e-01 2.32211334e-01 1.39326800e-01 3.71538134e-01 2.78653600e-01 2.55432467e-01 9.28845334e-02 1.62547934e-01 3.71538134e-01 2.08990200e-01 2.08990200e-01 1.62547934e-01 3.01874734e-01 3.25095867e-01 3.25095867e-01 2.78653600e-01 4.17980401e-01 2.08990200e-01 4.41201534e-01 3.25095867e-01 3.94759267e-01 2.78653600e-01 3.94759267e-01 4.87643801e-01 2.55432467e-01 3.01874734e-01 3.71538134e-01 3.25095867e-01 3.01874734e-01 2.78653600e-01 5.10864934e-01 5.34086067e-01 4.17980401e-01 4.87643801e-01 3.01874734e-01 3.48317000e-01 2.55432467e-01 4.64422667e-01 4.41201534e-01 5.57307201e-01 3.25095867e-01 4.64422667e-01 3.94759267e-01 4.41201534e-01 4.87643801e-01 3.01874734e-01 1.16105667e-01 3.71538134e-01 3.71538134e-01 4.41201534e-01 3.25095867e-01 7.19855134e-01 1.85769067e-01 4.17980401e-01 4.64422667e-01 6.73412867e-01 3.01874734e-01 4.64422667e-01 3.48317000e-01 4.87643801e-01 3.48317000e-01 5.10864934e-01 3.48317000e-01 5.10864934e-01 3.94759267e-01 2.55432467e-01 6.03749467e-01 5.34086067e-01 5.57307201e-01 5.80528334e-01 5.34086067e-01 3.48317000e-01 6.26970601e-01 5.80528334e-01 5.34086067e-01 4.87643801e-01 4.87643801e-01 6.26970601e-01 5.10864934e-01 6.73412867e-01 4.64422667e-01 5.10864934e-01 3.48317000e-01 6.96634001e-01 4.41201534e-01 4.17980401e-01 8.12739668e-01 3.94759267e-01 5.57307201e-01 4.64422667e-01 7.19855134e-01 5.34086067e-01 5.80528334e-01 5.10864934e-01 5.80528334e-01 6.03749467e-01 6.03749467e-01 7.43076268e-01 5.80528334e-01 6.03749467e-01 7.66297401e-01 6.03749467e-01 9.05624201e-01 6.26970601e-01 5.57307201e-01 8.59181934e-01 8.82403068e-01 9.05624201e-01 7.89518534e-01 9.28845334e-01 5.34086067e-01 8.82403068e-01 1.16105667e+00 7.66297401e-01 9.75287601e-01 8.59181934e-01 8.59181934e-01 8.82403068e-01 1.34682573e+00 6.03749467e-01 8.35960801e-01 1.04495100e+00 8.35960801e-01 8.59181934e-01 8.59181934e-01 1.50937367e+00 5.10864934e-01 1.25394120e+00 1.41648914e+00 1.32360460e+00 1.18427780e+00 5.34086067e-01 1.18427780e+00 9.75287601e-01 1.55581594e+00 1.32360460e+00 1.74158500e+00 1.30038347e+00 1.69514274e+00 9.52066468e-01 1.92735407e+00 5.80528334e-01 2.76331487e+00 8.35960801e-01 1.27716233e+00 7.66297401e-01 1.20749893e+00 9.75287601e-01 1.46293140e+00 1.48615254e+00 5.57307201e-01 1.34682573e+00 9.75287601e-01 1.18427780e+00 1.27716233e+00 1.88091180e+00 1.83446954e+00 1.13783553e+00 1.41648914e+00 1.67192160e+00 1.34682573e+00 2.64720920e+00 2.20600767e+00 1.69514274e+00 1.69514274e+00 1.39326800e+00 3.11163187e+00 4.64422667e-01 1.10068172e+01 3.71538134e-01 3.11163187e+00 1.55581594e+00 1.50937367e+00 4.41201534e-01 8.45249254e+00 0.00000000e+00 2.32211334e-02 
      </Histogram>
    </PDF>
    <PDF Name="BDT_PDFBkg" MinNSmooth="0" MaxNSmooth="0" InterpolMethod="2" KDE_type="1" KDE_iter="1" KDE_border="1" KDE_finefactor="1.0000000000000000e+00">
      <Histogram Name="BDT_tr_B_original" NBins="327" XMin="-1.0000000000000000e+00" XMax="1.0000000000000000e+00" HasEquidistantBins="1">
        1.69955022e+01 5.27023988e+00 3.16622939e+00 2.30828336e+00 2.92110195e+00 1.65461019e+00 3.39092954e+00 3.02323838e+00 2.92110195e+00 1.77717391e+00 3.53392054e+00 3.00281109e+00 3.22751124e+00 1.94059220e+00 2.26742879e+00 1.73631934e+00 1.30734633e+00 1.61375562e+00 1.57290105e+00 1.36862819e+00 1.87931034e+00 1.22563718e+00 1.24606447e+00 1.40948276e+00 1.06221889e+00 1.12350075e+00 9.80509745e-01 1.00093703e+00 1.06221889e+00 1.08264618e+00 7.55809595e-01 1.16435532e+00 1.00093703e+00 6.74100450e-01 1.18478261e+00 6.74100450e-01 1.16435532e+00 1.00093703e+00 9.60082459e-01 8.37518741e-01 1.14392804e+00 7.55809595e-01 1.08264618e+00 8.98800600e-01 1.02136432e+00 1.36862819e+00 1.20520990e+00 9.19227886e-01 1.00093703e+00 1.04179160e+00 8.37518741e-01 7.76236882e-01 8.78373313e-01 1.08264618e+00 8.78373313e-01 6.53673163e-01 7.14955022e-01 8.17091454e-01 6.94527736e-01 6.33245877e-01 1.06221889e+00 6.12818591e-01 7.76236882e-01 6.74100450e-01 8.78373313e-01 7.55809595e-01 6.53673163e-01 5.71964018e-01 6.74100450e-01 8.78373313e-01 4.69827586e-01 7.55809595e-01 4.90254873e-01 5.10682159e-01 8.98800600e-01 8.57946027e-01 5.51536732e-01 6.53673163e-01 6.53673163e-01 7.96664168e-01 6.94527736e-01 4.28973013e-01 5.71964018e-01 3.67691154e-01 5.31109445e-01 4.49400300e-01 7.14955022e-01 4.49400300e-01 3.67691154e-01 3.26836582e-01 5.10682159e-01 4.28973013e-01 2.85982009e-01 2.85982009e-01 4.28973013e-01 5.31109445e-01 3.67691154e-01 2.85982009e-01 6.33245877e-01 3.88118441e-01 3.88118441e-01 5.71964018e-01 4.49400300e-01 4.08545727e-01 4.49400300e-01 3.88118441e-01 7.14955022e-01 5.10682159e-01 3.67691154e-01 5.10682159e-01 5.10682159e-01 4.69827586e-01 3.26836582e-01 3.67691154e-01 4.08545727e-01 4.08545727e-01 5.51536732e-01 5.10682159e-01 3.67691154e-01 4.08545727e-01 3.26836582e-01 4.28973013e-01 5.31109445e-01 3.67691154e-01 4.28973013e-01 7.14955022e-01 4.49400300e-01 4.49400300e-01 4.69827586e-01 5.92391304e-01 4.08545727e-01 3.47263868e-01 3.67691154e-01 3.06409295e-01 3.26836582e-01 3.47263868e-01 2.65554723e-01 2.45127436e-01 4.69827586e-01 2.65554723e-01 2.65554723e-01 8.17091454e-02 1.22563718e-01 2.45127436e-01 2.45127436e-01 2.65554723e-01 1.63418291e-01 3.06409295e-01 2.04272864e-01 3.88118441e-01 2.24700150e-01 2.45127436e-01 1.83845577e-01 2.24700150e-01 2.85982009e-01 2.85982009e-01 1.02136432e-01 2.24700150e-01 2.65554723e-01 1.02136432e-01 1.83845577e-01 2.45127436e-01 1.02136432e-01 1.63418291e-01 2.04272864e-01 1.02136432e-01 1.22563718e-01 1.22563718e-01 2.85982009e-01 6.12818591e-02 2.04272864e-01 3.26836582e-01 1.22563718e-01 1.83845577e-01 1.22563718e-01 1.83845577e-01 1.22563718e-01 2.04272864e-01 1.63418291e-01 1.42991004e-01 1.42991004e-01 1.42991004e-01 2.24700150e-01 1.02136432e-01 1.63418291e-01 1.63418291e-01 3.26836582e-01 2.45127436e-01 1.02136432e-01 2.24700150e-01 1.22563718e-01 8.17091454e-02 2.24700150e-01 1.83845577e-01 1.83845577e-01 8.17091454e-02 8.17091454e-02 6.12818591e-02 1.22563718e-01 1.02136432e-01 8.17091454e-02 2.04272864e-01 8.17091454e-02 1.22563718e-01 1.63418291e-01 1.22563718e-01 1.63418291e-01 1.02136432e-01 1.22563718e-01 1.63418291e-01 4.08545727e-02 1.63418291e-01 8.17091454e-02 1.02136432e-01 1.02136432e-01 1.02136432e-01 8.17091454e-02 1.22563718e-01 1.63418291e-01 4.08545727e-02 1.63418291e-01 1.22563718e-01 1.02136432e-01 6.12818591e-02 8.17091454e-02 1.02136432e-01 1.02136432e-01 1.22563718e-01 2.04272864e-02 1.42991004e-01 4.08545727e-02 1.42991004e-01 0.00000000e+00 6.12818591e-02 6.12818591e-02 4.08545727e-02 1.42991004e-01 8.17091454e-02 1.22563718e-01 6.12818591e-02 1.42991004e-01 6.12818591e-02 0.00000000e+00 1.02136432e-01 8.17091454e-02 8.17091454e-02 4.08545727e-02 4.08545727e-02 6.12818591e-02 6.12818591e-02 6.12818591e-02 4.08545727e-02 4.08545727e-02 6.12818591e-02 2.04272864e-02 4.08545727e-02 8.17091454e-02 4.08545727e-02 2.04272864e-02 1.02136432e-01 8.17091454e-02 4.08545727e-02 6.12818591e-02 0.00000000e+00 8.17091454e-02 2.04272864e-02 1.02136432e-01 2.04272864e-02 1.22563718e-01 1.02136432e-01 0.00000000e+00 2.04272864e-02 6.12818591e-02 4.08545727e-02 0.00000000e+00 6.12818591e-02 4.08545727e-02 2.04272864e-02 0.00000000e+00 2.04272864e-02 8.17091454e-02 2.04272864e-02 0.00000000e+00 4.08545727e-02 4.08545727e-02 8.17091454e-02 8.17091454e-02 0.00000000e+00 4.08545727e-02 4.08545727e-02 4.08545727e-02 0.00000000e+00 2.04272864e-02 2.04272864e-02 8.17091454e-02 2.04272864e-02 8.17091454e-02 2.04272864e-02 4.08545727e-02 0.00000000e+00 0.00000000e+00 0.00000000e+00 0.00000000e+00 0.00000000e+00 0.00000000e+00 4.08545727e-02 4.08545727e-02 2.04272864e-02 2.04272864e-02 0.00000000e+00 0.00000000e+00 4.08545727e-02 0.00000000e+00 0.00000000e+00 0.00000000e+00 2.04272864e-02 0.00000000e+00 0.00000000e+00 6.12818591e-02 0.00000000e+00 2.04272864e-02 0.00000000e+00 2.04272864e-02 0.00000000e+00 6.12818591e-02 0.00000000e+00 0.00000000e+00 
      </Histogram>
    </PDF>
  </MVAPdfs>
  <Weights NTrees="100" AnalysisType="0">
    <BinaryTree type="DecisionTree" boostWeight="8.0000073240486663e-02" itree="0">
      <Node pos="s" depth="0" NCoef="0" IVar="3" Cut="4.6076497435569763e-01" cType="1" res="-9.9000000000000000e+01" rms="0.0000000000000000e+00" purity="5.1005929708480835e-01" nType="0">
        <Node pos="l" depth="1" NCoef="0" IVar="4" Cut="1.7992028808593750e+03" cType="1" res="-9.9000000000000000e+01" rms="0.0000000000000000e+00" purity="5.8459627628326416e-01" nType="0">
          <Node pos="l" depth="2" NCoef="0" IVar="0" Cut="1.1772938537597656e+02" cType="0" res="-9.9000000000000000e+01" rms="0.0000000000000000e+00" purity="6.3389009237289429e-01" nType="0">
            <Node pos="l" depth="3" NCoef="0" IVar="5" Cut="7.9501647949218750e+02" cType="1" res="-9.9000000000000000e+01" rms="0.0000000000000000e+00" purity="8.4802806377410889e-01" nType="0">
              <Node pos="l" depth="4" NCoef="0" IVar="1" Cut="7.2201422119140625e+02" cType="1" res="-9.9000000000000000e+01" rms="0.0000000000000000e+00" purity="8.6029875278472900e-01" nType="0">
                <Node pos="l" depth="5" NCoef="0" IVar="-1" Cut="0.0000000000000000e+00" cType="1" res="-9.9000000000000000e+01" rms="0.0000000000000000e+00" purity="8.8390904664993286e-01" nType="1"/>
                <Node pos="r" depth="5" NCoef="0" IVar="-1" Cut="0.0000000000000000e+00" cType="1" res="-9.9000000000000000e+01" rms="0.0000000000000000e+00" purity="2.5698325037956238e-01" nType="-1"/>
              </Node>
              <Node pos="r" depth="4" NCoef="0" IVar="-1" Cut="0.0000000000000000e+00" cType="1" res="-9.9000000000000000e+01" rms="0.0000000000000000e+00" purity="2.0000000298023224e-01" nType="-1"/>
            </Node>
            <Node pos="r" depth="3" NCoef="0" IVar="0" Cut="5.3255622863769531e+01" cType="0" res="-9.9000000000000000e+01" rms="0.0000000000000000e+00" purity="2.3208059370517731e-01" nType="-1"/>
          </Node>
          <Node pos="r" depth="2" NCoef="0" IVar="-1" Cut="0.0000000000000000e+00" cType="1" res="-9.9000000000000000e+01" rms="0.0000000000000000e+00" purity="0.0000000000000000e+00" nType="-1"/>
        </Node>
        <Node pos="r" depth="1" NCoef="0" IVar="5" Cut="3.4820468139648438e+02" cType="1" res="-9.9000000000000000e+01" rms="0.0000000000000000e+00" purity="4.3779358267784119e-01" nType="0">
          <Node pos="l" depth="2" NCoef="0" IVar="1" Cut="3.4531060791015625e+02" cType="1" res="-9.9000000000000000e+01" rms="0.0000000000000000e+00" purity="5.0173723697662354e-01" nType="0">
            <Node pos="l" depth="3" NCoef="0" IVar="2" Cut="1.3397102355957031e+00" cType="1" res="-9.9000000000000000e+01" rms="0.0000000000000000e+00" purity="6.5649521350860596e-01" nType="0">
              <Node pos="l" depth="4" NCoef="0" IVar="0" Cut="1.2423095703125000e+02" cType="0" res="-9.9000000000000000e+01" rms="0.0000000000000000e+00" purity="7.0096129179000854e-01" nType="0">
                <Node pos="l" depth="5" NCoef="0" IVar="-1" Cut="0.0000000000000000e+00" cType="1" res="-9.9000000000000000e+01" rms="0.0000000000000000e+00" purity="9.0131074190139771e-01" nType="1"/>
                <Node pos="r" depth="5" NCoef="0" IVar="-1" Cut="0.0000000000000000e+00" cType="1" res="-9.9000000000000000e+01" rms="0.0000000000000000e+00" purity="2.8685259819030762e-01" nType="-1"/>
              </Node>
              <Node pos="r" depth="4" NCoef="0" IVar="4" Cut="3.7112606811523438e+02" cType="1" res="-9.9000000000000000e+01" rms="0.0000000000000000e+00" purity="4.2489850521087646e-01" nType="-1"/>
            </Node>
            <Node pos="r" depth="3" NCoef="0" IVar="1" Cut="4.7904544067382812e+02" cType="1" res="-9.9000000000000000e+01" rms="0.0000000000000000e+00" purity="9.4610095024108887e-02" nType="-1"/>
          </Node>
          <Node pos="r" depth="2" NCoef="0" IVar="1" Cut="2.1085484313964844e+02" cType="1" res="-9.9000000000000000e+01" rms="0.0000000000000000e+00" purity="2.3236934840679169e-01" nType="-1"/>
        </Node>
      </Node>
    </BinaryTree>
    <BinaryTree type="DecisionTree" boostWeight="7.8991481731120708e-02" itree="1">
      <Node pos="s" depth="0" NCoef="0" IVar="1" Cut="3.8065631103515625e+02" cType="1" res="-9.9000000000000000e+01" rms="0.0000000000000000e+00" purity="5.1286637783050537e-01" nType="0">
        <Node pos="l" depth="1" NCoef="0" IVar="2" Cut="1.3346199989318848e+00" cType="1" res="-9.9000000000000000e+01" rms="0.0000000000000000e+00" purity="6.4972376823425293e-01" nType="0">
          <Node pos="l" depth="2" NCoef="0" IVar="0" Cut="1.2420069122314453e+02" cType="0" res="-9.9000000000000000e+01" rms="0.0000000000000000e+00" purity="7.1051758527755737e-01" nType="0">
            <Node pos="l" depth="3" NCoef="0" IVar="2" Cut="-2.1391792297363281e+00" cType="0" res="-9.9000000000000000e+01" rms="0.0000000000000000e+00" purity="8.9001911878585815e-01" nType="0">
              <Node pos="l" depth="4" NCoef="0" IVar="0" Cut="1.9483323669433594e+02" cType="0" res="-9.9000000000000000e+01" rms="0.0000000000000000e+00" purity="8.9815151691436768e-01" nType="1"/>
              <Node pos="r" depth="4" NCoef="0" IVar="1" Cut="9.4693878173828125e+01" cType="1" res="-9.9000000000000000e+01" rms="0.0000000000000000e+00" purity="4.2260935902595520e-01" nType="-1"/>
            </Node>
            <Node pos="r" depth="3" NCoef="0" IVar="1" Cut="6.5742156982421875e+01" cType="1" res="-9.9000000000000000e+01" rms="0.0000000000000000e+00" purity="3.3402183651924133e-01" nType="-1"/>
          </Node>
          <Node pos="r" depth="2" NCoef="0" IVar="0" Cut="3.3263888549804688e+02" cType="0" res="-9.9000000000000000e+01" rms="0.0000000000000000e+00" purity="3.2674232125282288e-01" nType="0">
            <Node pos="l" depth="3" NCoef="0" IVar="1" Cut="8.0787322998046875e+01" cType="0" res="-9.9000000000000000e+01" rms="0.0000000000000000e+00" purity="9.0328800678253174e-01" nType="1"/>
            <Node pos="r" depth="3" NCoef="0" IVar="0" Cut="1.7073851013183594e+02" cType="0" res="-9.9000000000000000e+01" rms="0.0000000000000000e+00" purity="2.5520992279052734e-01" nType="0">
              <Node pos="l" depth="4" NCoef="0" IVar="4" Cut="1.0343189697265625e+03" cType="1" res="-9.9000000000000000e+01" rms="0.0000000000000000e+00" purity="7.2038048505783081e-01" nType="0">
                <Node pos="l" depth="5" NCoef="0" IVar="-1" Cut="0.0000000000000000e+00" cType="1" res="-9.9000000000000000e+01" rms="0.0000000000000000e+00" purity="8.3976835012435913e-01" nType="1"/>
                <Node pos="r" depth="5" NCoef="0" IVar="-1" Cut="0.0000000000000000e+00" cType="1" res="-9.9000000000000000e+01" rms="0.0000000000000000e+00" purity="1.2328518182039261e-01" nType="-1"/>
              </Node>
              <Node pos="r" depth="4" NCoef="0" IVar="5" Cut="1.0077146911621094e+02" cType="1" res="-9.9000000000000000e+01" rms="0.0000000000000000e+00" purity="1.2544232606887817e-01" nType="-1"/>
            </Node>
          </Node>
        </Node>
        <Node pos="r" depth="1" NCoef="0" IVar="2" Cut="-2.0470497608184814e+00" cType="0" res="-9.9000000000000000e+01" rms="0.0000000000000000e+00" purity="1.6740505397319794e-01" nType="-1"/>
      </Node>
    </BinaryTree>
    <BinaryTree type="DecisionTree" boostWeight="7.6564176256195118e-02" itree="2">
      <Node pos="s" depth="0" NCoef="0" IVar="5" Cut="3.4820468139648438e+02" cType="1" res="-9.9000000000000000e+01" rms="0.0000000000000000e+00" purity="5.1596271991729736e-01" nType="0">
        <Node pos="l" depth="1" NCoef="0" IVar="1" Cut="3.8065631103515625e+02" cType="1" res="-9.9000000000000000e+01" rms="0.0000000000000000e+00" purity="5.7940727472305298e-01" nType="0">
          <Node pos="l" depth="2" NCoef="0" IVar="2" Cut="1.3397102355957031e+00" cType="1" res="-9.9000000000000000e+01" rms="0.0000000000000000e+00" purity="6.9853848218917847e-01" nType="0">
            <Node pos="l" depth="3" NCoef="0" IVar="5" Cut="1.6659097671508789e+01" cType="0" res="-9.9000000000000000e+01" rms="0.0000000000000000e+00" purity="7.4086540937423706e-01" nType="0">
              <Node pos="l" depth="4" NCoef="0" IVar="5" Cut="3.2475578308105469e+01" cType="1" res="-9.9000000000000000e+01" rms="0.0000000000000000e+00" purity="7.6690810918807983e-01" nType="1"/>
              <Node pos="r" depth="4" NCoef="0" IVar="1" Cut="1.2879298400878906e+02" cType="1" res="-9.9000000000000000e+01" rms="0.0000000000000000e+00" purity="2.8566238284111023e-01" nType="0">
                <Node pos="l" depth="5" NCoef="0" IVar="-1" Cut="0.0000000000000000e+00" cType="1" res="-9.9000000000000000e+01" rms="0.0000000000000000e+00" purity="7.5770735740661621e-01" nType="1"/>
                <Node pos="r" depth="5" NCoef="0" IVar="-1" Cut="0.0000000000000000e+00" cType="1" res="-9.9000000000000000e+01" rms="0.0000000000000000e+00" purity="1.0205163806676865e-01" nType="-1"/>
              </Node>
            </Node>
            <Node pos="r" depth="3" NCoef="0" IVar="0" Cut="3.3263888549804688e+02" cType="0" res="-9.9000000000000000e+01" rms="0.0000000000000000e+00" purity="3.8277149200439453e-01" nType="0">
              <Node pos="l" depth="4" NCoef="0" IVar="1" Cut="8.2526748657226562e+01" cType="0" res="-9.9000000000000000e+01" rms="0.0000000000000000e+00" purity="8.9607566595077515e-01" nType="1"/>
              <Node pos="r" depth="4" NCoef="0" IVar="2" Cut="1.3980953693389893e+00" cType="1" res="-9.9000000000000000e+01" rms="0.0000000000000000e+00" purity="3.1335663795471191e-01" nType="-1"/>
            </Node>
          </Node>
          <Node pos="r" depth="2" NCoef="0" IVar="0" Cut="2.9837057495117188e+02" cType="0" res="-9.9000000000000000e+01" rms="0.0000000000000000e+00" purity="1.6057419776916504e-01" nType="0">
            <Node pos="l" depth="3" NCoef="0" IVar="4" Cut="1.7017855224609375e+03" cType="1" res="-9.9000000000000000e+01" rms="0.0000000000000000e+00" purity="7.2856515645980835e-01" nType="0">
              <Node pos="l" depth="4" NCoef="0" IVar="1" Cut="7.0196240234375000e+02" cType="1" res="-9.9000000000000000e+01" rms="0.0000000000000000e+00" purity="8.5649675130844116e-01" nType="0">
                <Node pos="l" depth="5" NCoef="0" IVar="-1" Cut="0.0000000000000000e+00" cType="1" res="-9.9000000000000000e+01" rms="0.0000000000000000e+00" purity="9.4260799884796143e-01" nType="1"/>
                <Node pos="r" depth="5" NCoef="0" IVar="-1" Cut="0.0000000000000000e+00" cType="1" res="-9.9000000000000000e+01" rms="0.0000000000000000e+00" purity="4.1612952947616577e-01" nType="-1"/>
              </Node>
              <Node pos="r" depth="4" NCoef="0" IVar="-1" Cut="0.0000000000000000e+00" cType="1" res="-9.9000000000000000e+01" rms="0.0000000000000000e+00" purity="0.0000000000000000e+00" nType="-1"/>
            </Node>
            <Node pos="r" depth="3" NCoef="0" IVar="1" Cut="5.3052020263671875e+02" cType="1" res="-9.9000000000000000e+01" rms="0.0000000000000000e+00" purity="7.6591581106185913e-02" nType="-1"/>
          </Node>
        </Node>
        <Node pos="r" depth="1" NCoef="0" IVar="0" Cut="2.1822195434570312e+02" cType="0" res="-9.9000000000000000e+01" rms="0.0000000000000000e+00" purity="2.6898530125617981e-01" nType="0">
          <Node pos="l" depth="2" NCoef="0" IVar="4" Cut="1.7262630615234375e+03" cType="1" res="-9.9000000000000000e+01" rms="0.0000000000000000e+00" purity="8.1602376699447632e-01" nType="0">
            <Node pos="l" depth="3" NCoef="0" IVar="1" Cut="1.3441783142089844e+02" cType="0" res="-9.9000000000000000e+01" rms="0.0000000000000000e+00" purity="9.1088020801544189e-01" nType="1"/>
            <Node pos="r" depth="3" NCoef="0" IVar="-1" Cut="0.0000000000000000e+00" cType="1" res="-9.9000000000000000e+01" rms="0.0000000000000000e+00" purity="0.0000000000000000e+00" nType="-1"/>
          </Node>
          <Node pos="r" depth="2" NCoef="0" IVar="2" Cut="-2.2810518741607666e+00" cType="0" res="-9.9000000000000000e+01" rms="0.0000000000000000e+00" purity="9.1309137642383575e-02" nType="-1"/>
        </Node>
      </Node>
    </BinaryTree>
    <BinaryTree type="DecisionTree" boostWeight="7.9156306162940240e-02" itree="3">
      <Node pos="s" depth="0" NCoef="0" IVar="4" Cut="5.9982263183593750e+02" cType="1" res="-9.9000000000000000e+01" rms="0.0000000000000000e+00" purity="5.1265144348144531e-01" nType="0">
        <Node pos="l" depth="1" NCoef="0" IVar="5" Cut="4.0238659667968750e+02" cType="1" res="-9.9000000000000000e+01" rms="0.0000000000000000e+00" purity="6.3802242279052734e-01" nType="0">
          <Node pos="l" depth="2" NCoef="0" IVar="1" Cut="2.7967495727539062e+02" cType="1" res="-9.9000000000000000e+01" rms="0.0000000000000000e+00" purity="6.9101560115814209e-01" nType="0">
            <Node pos="l" depth="3" NCoef="0" IVar="0" Cut="1.0080645751953125e+02" cType="0" res="-9.9000000000000000e+01" rms="0.0000000000000000e+00" purity="7.5310921669006348e-01" nType="0">
              <Node pos="l" depth="4" NCoef="0" IVar="0" Cut="1.4913439941406250e+02" cType="0" res="-9.9000000000000000e+01" rms="0.0000000000000000e+00" purity="8.9894598722457886e-01" nType="1"/>
              <Node pos="r" depth="4" NCoef="0" IVar="2" Cut="-1.9873981475830078e+00" cType="0" res="-9.9000000000000000e+01" rms="0.0000000000000000e+00" purity="3.8731956481933594e-01" nType="-1"/>
            </Node>
            <Node pos="r" depth="3" NCoef="0" IVar="1" Cut="3.1471722412109375e+02" cType="1" res="-9.9000000000000000e+01" rms="0.0000000000000000e+00" purity="3.4115874767303467e-01" nType="-1"/>
          </Node>
          <Node pos="r" depth="2" NCoef="0" IVar="2" Cut="-2.2810518741607666e+00" cType="0" res="-9.9000000000000000e+01" rms="0.0000000000000000e+00" purity="2.8024733066558838e-01" nType="-1"/>
        </Node>
        <Node pos="r" depth="1" NCoef="0" IVar="3" Cut="4.5991033315658569e-01" cType="1" res="-9.9000000000000000e+01" rms="0.0000000000000000e+00" purity="4.3173843622207642e-01" nType="0">
          <Node pos="l" depth="2" NCoef="0" IVar="4" Cut="1.7423001708984375e+03" cType="1" res="-9.9000000000000000e+01" rms="0.0000000000000000e+00" purity="5.0051796436309814e-01" nType="0">
            <Node pos="l" depth="3" NCoef="0" IVar="1" Cut="5.5660681152343750e+02" cType="1" res="-9.9000000000000000e+01" rms="0.0000000000000000e+00" purity="5.7247298955917358e-01" nType="0">
              <Node pos="l" depth="4" NCoef="0" IVar="0" Cut="1.8547030639648438e+02" cType="0" res="-9.9000000000000000e+01" rms="0.0000000000000000e+00" purity="6.6454976797103882e-01" nType="0">
                <Node pos="l" depth="5" NCoef="0" IVar="-1" Cut="0.0000000000000000e+00" cType="1" res="-9.9000000000000000e+01" rms="0.0000000000000000e+00" purity="9.4094687700271606e-01" nType="1"/>
                <Node pos="r" depth="5" NCoef="0" IVar="-1" Cut="0.0000000000000000e+00" cType="1" res="-9.9000000000000000e+01" rms="0.0000000000000000e+00" purity="2.9358932375907898e-01" nType="-1"/>
              </Node>
              <Node pos="r" depth="4" NCoef="0" IVar="2" Cut="-1.4197325706481934e+00" cType="0" res="-9.9000000000000000e+01" rms="0.0000000000000000e+00" purity="2.0875024795532227e-01" nType="-1"/>
            </Node>
            <Node pos="r" depth="3" NCoef="0" IVar="4" Cut="2.0693591308593750e+03" cType="1" res="-9.9000000000000000e+01" rms="0.0000000000000000e+00" purity="1.5291109448298812e-03" nType="-1"/>
          </Node>
          <Node pos="r" depth="2" NCoef="0" IVar="0" Cut="1.9836289978027344e+02" cType="0" res="-9.9000000000000000e+01" rms="0.0000000000000000e+00" purity="3.6276730895042419e-01" nType="0">
            <Node pos="l" depth="3" NCoef="0" IVar="0" Cut="2.6551052856445312e+02" cType="0" res="-9.9000000000000000e+01" rms="0.0000000000000000e+00" purity="8.1591421365737915e-01" nType="1"/>
            <Node pos="r" depth="3" NCoef="0" IVar="0" Cut="5.7100711822509766e+01" cType="0" res="-9.9000000000000000e+01" rms="0.0000000000000000e+00" purity="1.0491494089365005e-01" nType="-1"/>
          </Node>
        </Node>
      </Node>
    </BinaryTree>
    <BinaryTree type="DecisionTree" boostWeight="6.7764893315168731e-02" itree="4">
      <Node pos="s" depth="0" NCoef="0" IVar="1" Cut="3.8065631103515625e+02" cType="1" res="-9.9000000000000000e+01" rms="0.0000000000000000e+00" purity="5.1546359062194824e-01" nType="0">
        <Node pos="l" depth="1" NCoef="0" IVar="2" Cut="1.3346199989318848e+00" cType="1" res="-9.9000000000000000e+01" rms="0.0000000000000000e+00" purity="6.4331924915313721e-01" nType="0">
          <Node pos="l" depth="2" NCoef="0" IVar="5" Cut="4.6466595458984375e+02" cType="1" res="-9.9000000000000000e+01" rms="0.0000000000000000e+00" purity="6.9938015937805176e-01" nType="0">
            <Node pos="l" depth="3" NCoef="0" IVar="0" Cut="1.2420069122314453e+02" cType="0" res="-9.9000000000000000e+01" rms="0.0000000000000000e+00" purity="7.2062313556671143e-01" nType="0">
              <Node pos="l" depth="4" NCoef="0" IVar="4" Cut="1.8094523925781250e+03" cType="1" res="-9.9000000000000000e+01" rms="0.0000000000000000e+00" purity="8.8131326436996460e-01" nType="0">
                <Node pos="l" depth="5" NCoef="0" IVar="-1" Cut="0.0000000000000000e+00" cType="1" res="-9.9000000000000000e+01" rms="0.0000000000000000e+00" purity="9.0189552307128906e-01" nType="1"/>
                <Node pos="r" depth="5" NCoef="0" IVar="-1" Cut="0.0000000000000000e+00" cType="1" res="-9.9000000000000000e+01" rms="0.0000000000000000e+00" purity="6.4449603669345379e-03" nType="-1"/>
              </Node>
              <Node pos="r" depth="4" NCoef="0" IVar="3" Cut="2.4456594884395599e-01" cType="1" res="-9.9000000000000000e+01" rms="0.0000000000000000e+00" purity="3.8401275873184204e-01" nType="0">
                <Node pos="l" depth="5" NCoef="0" IVar="-1" Cut="0.0000000000000000e+00" cType="1" res="-9.9000000000000000e+01" rms="0.0000000000000000e+00" purity="5.3374284505844116e-01" nType="1"/>
                <Node pos="r" depth="5" NCoef="0" IVar="-1" Cut="0.0000000000000000e+00" cType="1" res="-9.9000000000000000e+01" rms="0.0000000000000000e+00" purity="3.1708189845085144e-01" nType="-1"/>
              </Node>
            </Node>
            <Node pos="r" depth="3" NCoef="0" IVar="4" Cut="4.0979415893554688e+02" cType="1" res="-9.9000000000000000e+01" rms="0.0000000000000000e+00" purity="2.8651261329650879e-01" nType="-1"/>
          </Node>
          <Node pos="r" depth="2" NCoef="0" IVar="3" Cut="1.7453536391258240e-01" cType="0" res="-9.9000000000000000e+01" rms="0.0000000000000000e+00" purity="3.4340095520019531e-01" nType="-1"/>
        </Node>
        <Node pos="r" depth="1" NCoef="0" IVar="1" Cut="5.3049121093750000e+02" cType="1" res="-9.9000000000000000e+01" rms="0.0000000000000000e+00" purity="1.8707107007503510e-01" nType="-1"/>
      </Node>
    </BinaryTree>
    <BinaryTree type="DecisionTree" boostWeight="8.4654394120286650e-02" itree="5">
      <Node pos="s" depth="0" NCoef="0" IVar="5" Cut="3.4820468139648438e+02" cType="1" res="-9.9000000000000000e+01" rms="0.0000000000000000e+00" purity="5.1788777112960815e-01" nType="0">
        <Node pos="l" depth="1" NCoef="0" IVar="5" Cut="1.6675640106201172e+01" cType="0" res="-9.9000000000000000e+01" rms="0.0000000000000000e+00" purity="5.7617902755737305e-01" nType="0">
          <Node pos="l" depth="2" NCoef="0" IVar="4" Cut="1.7992028808593750e+03" cType="1" res="-9.9000000000000000e+01" rms="0.0000000000000000e+00" purity="6.8495231866836548e-01" nType="0">
            <Node pos="l" depth="3" NCoef="0" IVar="4" Cut="1.5684868164062500e+03" cType="1" res="-9.9000000000000000e+01" rms="0.0000000000000000e+00" purity="7.1268153190612793e-01" nType="0">
              <Node pos="l" depth="4" NCoef="0" IVar="0" Cut="1.2423095703125000e+02" cType="0" res="-9.9000000000000000e+01" rms="0.0000000000000000e+00" purity="7.1544134616851807e-01" nType="0">
                <Node pos="l" depth="5" NCoef="0" IVar="-1" Cut="0.0000000000000000e+00" cType="1" res="-9.9000000000000000e+01" rms="0.0000000000000000e+00" purity="8.8589161634445190e-01" nType="1"/>
                <Node pos="r" depth="5" NCoef="0" IVar="-1" Cut="0.0000000000000000e+00" cType="1" res="-9.9000000000000000e+01" rms="0.0000000000000000e+00" purity="3.7429857254028320e-01" nType="-1"/>
              </Node>
              <Node pos="r" depth="4" NCoef="0" IVar="-1" Cut="0.0000000000000000e+00" cType="1" res="-9.9000000000000000e+01" rms="0.0000000000000000e+00" purity="2.9155185818672180e-01" nType="-1"/>
            </Node>
            <Node pos="r" depth="3" NCoef="0" IVar="3" Cut="1.0985452681779861e-01" cType="0" res="-9.9000000000000000e+01" rms="0.0000000000000000e+00" purity="2.3766111116856337e-03" nType="-1"/>
          </Node>
          <Node pos="r" depth="2" NCoef="0" IVar="0" Cut="4.2253427124023438e+02" cType="0" res="-9.9000000000000000e+01" rms="0.0000000000000000e+00" purity="6.2656894326210022e-02" nType="0">
            <Node pos="l" depth="3" NCoef="0" IVar="-1" Cut="0.0000000000000000e+00" cType="1" res="-9.9000000000000000e+01" rms="0.0000000000000000e+00" purity="6.5884774923324585e-01" nType="1"/>
            <Node pos="r" depth="3" NCoef="0" IVar="0" Cut="6.7531570434570312e+01" cType="0" res="-9.9000000000000000e+01" rms="0.0000000000000000e+00" purity="4.2375747114419937e-02" nType="-1"/>
          </Node>
        </Node>
        <Node pos="r" depth="1" NCoef="0" IVar="0" Cut="2.1822195434570312e+02" cType="0" res="-9.9000000000000000e+01" rms="0.0000000000000000e+00" purity="2.8923851251602173e-01" nType="0">
          <Node pos="l" depth="2" NCoef="0" IVar="4" Cut="1.7262630615234375e+03" cType="1" res="-9.9000000000000000e+01" rms="0.0000000000000000e+00" purity="8.1548374891281128e-01" nType="0">
            <Node pos="l" depth="3" NCoef="0" IVar="1" Cut="1.3441783142089844e+02" cType="0" res="-9.9000000000000000e+01" rms="0.0000000000000000e+00" purity="9.0571606159210205e-01" nType="1"/>
            <Node pos="r" depth="3" NCoef="0" IVar="-1" Cut="0.0000000000000000e+00" cType="1" res="-9.9000000000000000e+01" rms="0.0000000000000000e+00" purity="0.0000000000000000e+00" nType="-1"/>
          </Node>
          <Node pos="r" depth="2" NCoef="0" IVar="2" Cut="-2.2810518741607666e+00" cType="0" res="-9.9000000000000000e+01" rms="0.0000000000000000e+00" purity="1.0828056186437607e-01" nType="-1"/>
        </Node>
      </Node>
    </BinaryTree>
    <BinaryTree type="DecisionTree" boostWeight="3.5905319332780510e-02" itree="6">
      <Node pos="s" depth="0" NCoef="0" IVar="0" Cut="3.3254132080078125e+02" cType="0" res="-9.9000000000000000e+01" rms="0.0000000000000000e+00" purity="5.1973187923431396e-01" nType="0">
        <Node pos="l" depth="1" NCoef="0" IVar="4" Cut="1.8029112548828125e+03" cType="1" res="-9.9000000000000000e+01" rms="0.0000000000000000e+00" purity="9.4128161668777466e-01" nType="0">
          <Node pos="l" depth="2" NCoef="0" IVar="0" Cut="3.9326080322265625e+02" cType="0" res="-9.9000000000000000e+01" rms="0.0000000000000000e+00" purity="9.7244840860366821e-01" nType="1"/>
          <Node pos="r" depth="2" NCoef="0" IVar="2" Cut="-6.7972101271152496e-02" cType="0" res="-9.9000000000000000e+01" rms="0.0000000000000000e+00" purity="9.6394736319780350e-03" nType="-1"/>
        </Node>
        <Node pos="r" depth="1" NCoef="0" IVar="2" Cut="-2.2802395820617676e+00" cType="0" res="-9.9000000000000000e+01" rms="0.0000000000000000e+00" purity="4.0773588418960571e-01" nType="-1"/>
      </Node>
    </BinaryTree>
    <BinaryTree type="DecisionTree" boostWeight="6.8039275984594444e-02" itree="7">
      <Node pos="s" depth="0" NCoef="0" IVar="4" Cut="5.9982263183593750e+02" cType="1" res="-9.9000000000000000e+01" rms="0.0000000000000000e+00" purity="5.2521711587905884e-01" nType="0">
        <Node pos="l" depth="1" NCoef="0" IVar="0" Cut="1.0077409362792969e+02" cType="0" res="-9.9000000000000000e+01" rms="0.0000000000000000e+00" purity="6.5256041288375854e-01" nType="0">
          <Node pos="l" depth="2" NCoef="0" IVar="1" Cut="4.3187054443359375e+02" cType="1" res="-9.9000000000000000e+01" rms="0.0000000000000000e+00" purity="8.5172301530838013e-01" nType="0">
            <Node pos="l" depth="3" NCoef="0" IVar="0" Cut="1.4910267639160156e+02" cType="0" res="-9.9000000000000000e+01" rms="0.0000000000000000e+00" purity="8.6483901739120483e-01" nType="1"/>
            <Node pos="r" depth="3" NCoef="0" IVar="2" Cut="-7.1895980834960938e-01" cType="0" res="-9.9000000000000000e+01" rms="0.0000000000000000e+00" purity="4.2426261305809021e-01" nType="0">
              <Node pos="l" depth="4" NCoef="0" IVar="-1" Cut="0.0000000000000000e+00" cType="1" res="-9.9000000000000000e+01" rms="0.0000000000000000e+00" purity="5.3957855701446533e-01" nType="1"/>
              <Node pos="r" depth="4" NCoef="0" IVar="-1" Cut="0.0000000000000000e+00" cType="1" res="-9.9000000000000000e+01" rms="0.0000000000000000e+00" purity="2.6517671346664429e-01" nType="-1"/>
            </Node>
          </Node>
          <Node pos="r" depth="2" NCoef="0" IVar="0" Cut="9.5914848327636719e+01" cType="0" res="-9.9000000000000000e+01" rms="0.0000000000000000e+00" purity="2.9682618379592896e-01" nType="0">
            <Node pos="l" depth="3" NCoef="0" IVar="1" Cut="2.4181329345703125e+02" cType="1" res="-9.9000000000000000e+01" rms="0.0000000000000000e+00" purity="5.7364302873611450e-01" nType="0">
              <Node pos="l" depth="4" NCoef="0" IVar="0" Cut="9.7267471313476562e+01" cType="0" res="-9.9000000000000000e+01" rms="0.0000000000000000e+00" purity="6.8943285942077637e-01" nType="1"/>
              <Node pos="r" depth="4" NCoef="0" IVar="-1" Cut="0.0000000000000000e+00" cType="1" res="-9.9000000000000000e+01" rms="0.0000000000000000e+00" purity="2.6782009005546570e-01" nType="-1"/>
            </Node>
            <Node pos="r" depth="3" NCoef="0" IVar="3" Cut="1.7453536391258240e-01" cType="1" res="-9.9000000000000000e+01" rms="0.0000000000000000e+00" purity="2.7279788255691528e-01" nType="0">
              <Node pos="l" depth="4" NCoef="0" IVar="2" Cut="8.4533101320266724e-01" cType="1" res="-9.9000000000000000e+01" rms="0.0000000000000000e+00" purity="5.4402554035186768e-01" nType="0">
                <Node pos="l" depth="5" NCoef="0" IVar="-1" Cut="0.0000000000000000e+00" cType="1" res="-9.9000000000000000e+01" rms="0.0000000000000000e+00" purity="6.0908943414688110e-01" nType="1"/>
                <Node pos="r" depth="5" NCoef="0" IVar="-1" Cut="0.0000000000000000e+00" cType="1" res="-9.9000000000000000e+01" rms="0.0000000000000000e+00" purity="1.3681504130363464e-01" nType="-1"/>
              </Node>
              <Node pos="r" depth="4" NCoef="0" IVar="0" Cut="5.2217494964599609e+01" cType="0" res="-9.9000000000000000e+01" rms="0.0000000000000000e+00" purity="2.2108140587806702e-01" nType="-1"/>
            </Node>
          </Node>
        </Node>
        <Node pos="r" depth="1" NCoef="0" IVar="0" Cut="3.3254132080078125e+02" cType="0" res="-9.9000000000000000e+01" rms="0.0000000000000000e+00" purity="4.4066709280014038e-01" nType="0">
          <Node pos="l" depth="2" NCoef="0" IVar="2" Cut="-1.5522041320800781e+00" cType="0" res="-9.9000000000000000e+01" rms="0.0000000000000000e+00" purity="9.2426705360412598e-01" nType="1"/>
          <Node pos="r" depth="2" NCoef="0" IVar="1" Cut="2.1533644104003906e+02" cType="1" res="-9.9000000000000000e+01" rms="0.0000000000000000e+00" purity="2.7083066105842590e-01" nType="-1"/>
        </Node>
      </Node>
    </BinaryTree>
    <BinaryTree type="DecisionTree" boostWeight="5.9239553691634139e-02" itree="8">
      <Node pos="s" depth="0" NCoef="0" IVar="5" Cut="3.4820468139648438e+02" cType="1" res="-9.9000000000000000e+01" rms="0.0000000000000000e+00" purity="5.2798044681549072e-01" nType="0">
        <Node pos="l" depth="1" NCoef="0" IVar="3" Cut="-6.1272394657135010e-01" cType="0" res="-9.9000000000000000e+01" rms="0.0000000000000000e+00" purity="5.8480197191238403e-01" nType="0">
          <Node pos="l" depth="2" NCoef="0" IVar="5" Cut="1.6675640106201172e+01" cType="0" res="-9.9000000000000000e+01" rms="0.0000000000000000e+00" purity="5.8610868453979492e-01" nType="0">
            <Node pos="l" depth="3" NCoef="0" IVar="1" Cut="5.4598413085937500e+02" cType="1" res="-9.9000000000000000e+01" rms="0.0000000000000000e+00" purity="6.9141918420791626e-01" nType="0">
              <Node pos="l" depth="4" NCoef="0" IVar="4" Cut="1.7992028808593750e+03" cType="1" res="-9.9000000000000000e+01" rms="0.0000000000000000e+00" purity="7.1912765502929688e-01" nType="0">
                <Node pos="l" depth="5" NCoef="0" IVar="-1" Cut="0.0000000000000000e+00" cType="1" res="-9.9000000000000000e+01" rms="0.0000000000000000e+00" purity="7.3759466409683228e-01" nType="1"/>
                <Node pos="r" depth="5" NCoef="0" IVar="-1" Cut="0.0000000000000000e+00" cType="1" res="-9.9000000000000000e+01" rms="0.0000000000000000e+00" purity="4.2120651341974735e-03" nType="-1"/>
              </Node>
              <Node pos="r" depth="4" NCoef="0" IVar="0" Cut="2.5859567260742188e+02" cType="0" res="-9.9000000000000000e+01" rms="0.0000000000000000e+00" purity="2.4155044555664062e-01" nType="0">
                <Node pos="l" depth="5" NCoef="0" IVar="-1" Cut="0.0000000000000000e+00" cType="1" res="-9.9000000000000000e+01" rms="0.0000000000000000e+00" purity="7.3882973194122314e-01" nType="1"/>
                <Node pos="r" depth="5" NCoef="0" IVar="-1" Cut="0.0000000000000000e+00" cType="1" res="-9.9000000000000000e+01" rms="0.0000000000000000e+00" purity="1.1143468320369720e-01" nType="-1"/>
              </Node>
            </Node>
            <Node pos="r" depth="3" NCoef="0" IVar="0" Cut="4.2253427124023438e+02" cType="0" res="-9.9000000000000000e+01" rms="0.0000000000000000e+00" purity="6.8362787365913391e-02" nType="0">
              <Node pos="l" depth="4" NCoef="0" IVar="-1" Cut="0.0000000000000000e+00" cType="1" res="-9.9000000000000000e+01" rms="0.0000000000000000e+00" purity="6.1998361349105835e-01" nType="1"/>
              <Node pos="r" depth="4" NCoef="0" IVar="0" Cut="6.7531570434570312e+01" cType="0" res="-9.9000000000000000e+01" rms="0.0000000000000000e+00" purity="4.8502389341592789e-02" nType="-1"/>
            </Node>
          </Node>
          <Node pos="r" depth="2" NCoef="0" IVar="-1" Cut="0.0000000000000000e+00" cType="1" res="-9.9000000000000000e+01" rms="0.0000000000000000e+00" purity="2.5892204046249390e-01" nType="-1"/>
        </Node>
        <Node pos="r" depth="1" NCoef="0" IVar="1" Cut="2.1891281127929688e+02" cType="1" res="-9.9000000000000000e+01" rms="0.0000000000000000e+00" purity="3.0091831088066101e-01" nType="-1"/>
      </Node>
    </BinaryTree>
    <BinaryTree type="DecisionTree" boostWeight="6.3052040178820545e-02" itree="9">
      <Node pos="s" depth="0" NCoef="0" IVar="2" Cut="-1.0752863883972168e+00" cType="0" res="-9.9000000000000000e+01" rms="0.0000000000000000e+00" purity="5.2480179071426392e-01" nType="0">
        <Node pos="l" depth="1" NCoef="0" IVar="1" Cut="3.8066162109375000e+02" cType="1" res="-9.9000000000000000e+01" rms="0.0000000000000000e+00" purity="5.8186292648315430e-01" nType="0">
          <Node pos="l" depth="2" NCoef="0" IVar="0" Cut="3.3258651733398438e+02" cType="0" res="-9.9000000000000000e+01" rms="0.0000000000000000e+00" purity="7.0517557859420776e-01" nType="1"/>
          <Node pos="r" depth="2" NCoef="0" IVar="0" Cut="2.3628219604492188e+02" cType="0" res="-9.9000000000000000e+01" rms="0.0000000000000000e+00" purity="2.5284397602081299e-01" nType="0">
            <Node pos="l" depth="3" NCoef="0" IVar="4" Cut="1.7366973876953125e+03" cType="1" res="-9.9000000000000000e+01" rms="0.0000000000000000e+00" purity="7.3172491788864136e-01" nType="0">
              <Node pos="l" depth="4" NCoef="0" IVar="4" Cut="5.7480462646484375e+02" cType="1" res="-9.9000000000000000e+01" rms="0.0000000000000000e+00" purity="8.7325614690780640e-01" nType="1"/>
              <Node pos="r" depth="4" NCoef="0" IVar="-1" Cut="0.0000000000000000e+00" cType="1" res="-9.9000000000000000e+01" rms="0.0000000000000000e+00" purity="0.0000000000000000e+00" nType="-1"/>
            </Node>
            <Node pos="r" depth="3" NCoef="0" IVar="0" Cut="2.1799153137207031e+02" cType="0" res="-9.9000000000000000e+01" rms="0.0000000000000000e+00" purity="1.0015579313039780e-01" nType="0">
              <Node pos="l" depth="4" NCoef="0" IVar="-1" Cut="0.0000000000000000e+00" cType="1" res="-9.9000000000000000e+01" rms="0.0000000000000000e+00" purity="5.0588411092758179e-01" nType="1"/>
              <Node pos="r" depth="4" NCoef="0" IVar="2" Cut="-9.0784752368927002e-01" cType="1" res="-9.9000000000000000e+01" rms="0.0000000000000000e+00" purity="8.6346797645092010e-02" nType="-1"/>
            </Node>
          </Node>
        </Node>
        <Node pos="r" depth="1" NCoef="0" IVar="0" Cut="2.1899270629882812e+02" cType="0" res="-9.9000000000000000e+01" rms="0.0000000000000000e+00" purity="3.1529420614242554e-01" nType="0">
          <Node pos="l" depth="2" NCoef="0" IVar="4" Cut="1.2852189941406250e+03" cType="1" res="-9.9000000000000000e+01" rms="0.0000000000000000e+00" purity="8.1717485189437866e-01" nType="0">
            <Node pos="l" depth="3" NCoef="0" IVar="3" Cut="2.5405666232109070e-01" cType="0" res="-9.9000000000000000e+01" rms="0.0000000000000000e+00" purity="8.7066745758056641e-01" nType="1"/>
            <Node pos="r" depth="3" NCoef="0" IVar="-1" Cut="0.0000000000000000e+00" cType="1" res="-9.9000000000000000e+01" rms="0.0000000000000000e+00" purity="3.8823127746582031e-01" nType="-1"/>
          </Node>
          <Node pos="r" depth="2" NCoef="0" IVar="0" Cut="1.8647859191894531e+02" cType="0" res="-9.9000000000000000e+01" rms="0.0000000000000000e+00" purity="1.6236226260662079e-01" nType="0">
            <Node pos="l" depth="3" NCoef="0" IVar="4" Cut="8.2621160888671875e+02" cType="1" res="-9.9000000000000000e+01" rms="0.0000000000000000e+00" purity="5.7222998142242432e-01" nType="0">
              <Node pos="l" depth="4" NCoef="0" IVar="4" Cut="4.4041384887695312e+02" cType="1" res="-9.9000000000000000e+01" rms="0.0000000000000000e+00" purity="8.0024003982543945e-01" nType="1"/>
              <Node pos="r" depth="4" NCoef="0" IVar="-1" Cut="0.0000000000000000e+00" cType="1" res="-9.9000000000000000e+01" rms="0.0000000000000000e+00" purity="2.0772911608219147e-01" nType="-1"/>
            </Node>
            <Node pos="r" depth="3" NCoef="0" IVar="1" Cut="1.2974681091308594e+02" cType="1" res="-9.9000000000000000e+01" rms="0.0000000000000000e+00" purity="1.3340336084365845e-01" nType="-1"/>
          </Node>
        </Node>
      </Node>
    </BinaryTree>
    <BinaryTree type="DecisionTree" boostWeight="8.2965799503846083e-02" itree="10">
      <Node pos="s" depth="0" NCoef="0" IVar="2" Cut="1.0936293601989746e+00" cType="1" res="-9.9000000000000000e+01" rms="0.0000000000000000e+00" purity="5.1974296569824219e-01" nType="0">
        <Node pos="l" depth="1" NCoef="0" IVar="0" Cut="1.2419789886474609e+02" cType="0" res="-9.9000000000000000e+01" rms="0.0000000000000000e+00" purity="5.7513356208801270e-01" nType="0">
          <Node pos="l" depth="2" NCoef="0" IVar="1" Cut="7.0076159667968750e+02" cType="1" res="-9.9000000000000000e+01" rms="0.0000000000000000e+00" purity="7.7672076225280762e-01" nType="0">
            <Node pos="l" depth="3" NCoef="0" IVar="5" Cut="9.0689605712890625e+02" cType="1" res="-9.9000000000000000e+01" rms="0.0000000000000000e+00" purity="8.3919012546539307e-01" nType="0">
              <Node pos="l" depth="4" NCoef="0" IVar="4" Cut="1.6728073730468750e+03" cType="1" res="-9.9000000000000000e+01" rms="0.0000000000000000e+00" purity="8.4478849172592163e-01" nType="0">
                <Node pos="l" depth="5" NCoef="0" IVar="-1" Cut="0.0000000000000000e+00" cType="1" res="-9.9000000000000000e+01" rms="0.0000000000000000e+00" purity="8.6697787046432495e-01" nType="1"/>
                <Node pos="r" depth="5" NCoef="0" IVar="-1" Cut="0.0000000000000000e+00" cType="1" res="-9.9000000000000000e+01" rms="0.0000000000000000e+00" purity="2.1918619051575661e-02" nType="-1"/>
              </Node>
              <Node pos="r" depth="4" NCoef="0" IVar="-1" Cut="0.0000000000000000e+00" cType="1" res="-9.9000000000000000e+01" rms="0.0000000000000000e+00" purity="2.2943775355815887e-01" nType="-1"/>
            </Node>
            <Node pos="r" depth="3" NCoef="0" IVar="0" Cut="1.8290022277832031e+02" cType="0" res="-9.9000000000000000e+01" rms="0.0000000000000000e+00" purity="1.4028324186801910e-01" nType="-1"/>
          </Node>
          <Node pos="r" depth="2" NCoef="0" IVar="4" Cut="3.9104306030273438e+02" cType="1" res="-9.9000000000000000e+01" rms="0.0000000000000000e+00" purity="2.6333969831466675e-01" nType="0">
            <Node pos="l" depth="3" NCoef="0" IVar="2" Cut="-1.1442663669586182e+00" cType="0" res="-9.9000000000000000e+01" rms="0.0000000000000000e+00" purity="5.1508599519729614e-01" nType="0">
              <Node pos="l" depth="4" NCoef="0" IVar="0" Cut="5.7299533843994141e+01" cType="0" res="-9.9000000000000000e+01" rms="0.0000000000000000e+00" purity="7.0828837156295776e-01" nType="0">
                <Node pos="l" depth="5" NCoef="0" IVar="-1" Cut="0.0000000000000000e+00" cType="1" res="-9.9000000000000000e+01" rms="0.0000000000000000e+00" purity="7.3391437530517578e-01" nType="1"/>
                <Node pos="r" depth="5" NCoef="0" IVar="-1" Cut="0.0000000000000000e+00" cType="1" res="-9.9000000000000000e+01" rms="0.0000000000000000e+00" purity="4.4842252135276794e-01" nType="-1"/>
              </Node>
              <Node pos="r" depth="4" NCoef="0" IVar="0" Cut="9.9440048217773438e+01" cType="0" res="-9.9000000000000000e+01" rms="0.0000000000000000e+00" purity="2.0912943780422211e-01" nType="0">
                <Node pos="l" depth="5" NCoef="0" IVar="-1" Cut="0.0000000000000000e+00" cType="1" res="-9.9000000000000000e+01" rms="0.0000000000000000e+00" purity="5.0614529848098755e-01" nType="1"/>
                <Node pos="r" depth="5" NCoef="0" IVar="-1" Cut="0.0000000000000000e+00" cType="1" res="-9.9000000000000000e+01" rms="0.0000000000000000e+00" purity="1.1782944947481155e-01" nType="-1"/>
              </Node>
            </Node>
            <Node pos="r" depth="3" NCoef="0" IVar="0" Cut="5.3565189361572266e+01" cType="0" res="-9.9000000000000000e+01" rms="0.0000000000000000e+00" purity="1.9352360069751740e-01" nType="-1"/>
          </Node>
        </Node>
        <Node pos="r" depth="1" NCoef="0" IVar="0" Cut="3.3254202270507812e+02" cType="0" res="-9.9000000000000000e+01" rms="0.0000000000000000e+00" purity="3.2032901048660278e-01" nType="0">
          <Node pos="l" depth="2" NCoef="0" IVar="2" Cut="1.1593790054321289e+00" cType="1" res="-9.9000000000000000e+01" rms="0.0000000000000000e+00" purity="8.8346058130264282e-01" nType="1"/>
          <Node pos="r" depth="2" NCoef="0" IVar="0" Cut="1.8427790832519531e+02" cType="0" res="-9.9000000000000000e+01" rms="0.0000000000000000e+00" purity="2.5354129076004028e-01" nType="0">
            <Node pos="l" depth="3" NCoef="0" IVar="4" Cut="8.6749053955078125e+02" cType="1" res="-9.9000000000000000e+01" rms="0.0000000000000000e+00" purity="7.0019698143005371e-01" nType="0">
              <Node pos="l" depth="4" NCoef="0" IVar="0" Cut="2.0559037780761719e+02" cType="0" res="-9.9000000000000000e+01" rms="0.0000000000000000e+00" purity="8.5563480854034424e-01" nType="1"/>
              <Node pos="r" depth="4" NCoef="0" IVar="3" Cut="4.7355970740318298e-01" cType="0" res="-9.9000000000000000e+01" rms="0.0000000000000000e+00" purity="3.0642116069793701e-01" nType="-1"/>
            </Node>
            <Node pos="r" depth="3" NCoef="0" IVar="0" Cut="1.7787336730957031e+02" cType="0" res="-9.9000000000000000e+01" rms="0.0000000000000000e+00" purity="1.5507340431213379e-01" nType="0">
              <Node pos="l" depth="4" NCoef="0" IVar="-1" Cut="0.0000000000000000e+00" cType="1" res="-9.9000000000000000e+01" rms="0.0000000000000000e+00" purity="5.4747748374938965e-01" nType="1"/>
              <Node pos="r" depth="4" NCoef="0" IVar="0" Cut="5.6115818023681641e+01" cType="0" res="-9.9000000000000000e+01" rms="0.0000000000000000e+00" purity="1.4706152677536011e-01" nType="-1"/>
            </Node>
          </Node>
        </Node>
      </Node>
    </BinaryTree>
    <BinaryTree type="DecisionTree" boostWeight="7.4743182526739740e-02" itree="11">
      <Node pos="s" depth="0" NCoef="0" IVar="0" Cut="3.3254132080078125e+02" cType="0" res="-9.9000000000000000e+01" rms="0.0000000000000000e+00" purity="5.1979005336761475e-01" nType="0">
        <Node pos="l" depth="1" NCoef="0" IVar="4" Cut="1.8029112548828125e+03" cType="1" res="-9.9000000000000000e+01" rms="0.0000000000000000e+00" purity="9.3083006143569946e-01" nType="0">
          <Node pos="l" depth="2" NCoef="0" IVar="0" Cut="3.9326080322265625e+02" cType="0" res="-9.9000000000000000e+01" rms="0.0000000000000000e+00" purity="9.6460556983947754e-01" nType="1"/>
          <Node pos="r" depth="2" NCoef="0" IVar="1" Cut="1.6769599609375000e+03" cType="1" res="-9.9000000000000000e+01" rms="0.0000000000000000e+00" purity="1.0305829346179962e-02" nType="-1"/>
        </Node>
        <Node pos="r" depth="1" NCoef="0" IVar="0" Cut="1.4419021606445312e+02" cType="0" res="-9.9000000000000000e+01" rms="0.0000000000000000e+00" purity="4.1677412390708923e-01" nType="0">
          <Node pos="l" depth="2" NCoef="0" IVar="1" Cut="5.1627239990234375e+02" cType="1" res="-9.9000000000000000e+01" rms="0.0000000000000000e+00" purity="6.9792318344116211e-01" nType="0">
            <Node pos="l" depth="3" NCoef="0" IVar="5" Cut="8.2915313720703125e+02" cType="1" res="-9.9000000000000000e+01" rms="0.0000000000000000e+00" purity="7.8785312175750732e-01" nType="0">
              <Node pos="l" depth="4" NCoef="0" IVar="4" Cut="1.6188984375000000e+03" cType="1" res="-9.9000000000000000e+01" rms="0.0000000000000000e+00" purity="7.9391831159591675e-01" nType="0">
                <Node pos="l" depth="5" NCoef="0" IVar="-1" Cut="0.0000000000000000e+00" cType="1" res="-9.9000000000000000e+01" rms="0.0000000000000000e+00" purity="8.2382464408874512e-01" nType="1"/>
                <Node pos="r" depth="5" NCoef="0" IVar="-1" Cut="0.0000000000000000e+00" cType="1" res="-9.9000000000000000e+01" rms="0.0000000000000000e+00" purity="1.3654354959726334e-02" nType="-1"/>
              </Node>
              <Node pos="r" depth="4" NCoef="0" IVar="-1" Cut="0.0000000000000000e+00" cType="1" res="-9.9000000000000000e+01" rms="0.0000000000000000e+00" purity="2.8366059064865112e-01" nType="-1"/>
            </Node>
            <Node pos="r" depth="3" NCoef="0" IVar="4" Cut="8.1766137695312500e+02" cType="1" res="-9.9000000000000000e+01" rms="0.0000000000000000e+00" purity="2.2249269485473633e-01" nType="-1"/>
          </Node>
          <Node pos="r" depth="2" NCoef="0" IVar="2" Cut="-2.2802395820617676e+00" cType="0" res="-9.9000000000000000e+01" rms="0.0000000000000000e+00" purity="2.4534907937049866e-01" nType="-1"/>
        </Node>
      </Node>
    </BinaryTree>
    <BinaryTree type="DecisionTree" boostWeight="6.3461097626104648e-02" itree="12">
      <Node pos="s" depth="0" NCoef="0" IVar="1" Cut="3.8065631103515625e+02" cType="1" res="-9.9000000000000000e+01" rms="0.0000000000000000e+00" purity="5.2273058891296387e-01" nType="0">
        <Node pos="l" depth="1" NCoef="0" IVar="5" Cut="5.0310021972656250e+02" cType="1" res="-9.9000000000000000e+01" rms="0.0000000000000000e+00" purity="6.3418334722518921e-01" nType="0">
          <Node pos="l" depth="2" NCoef="0" IVar="4" Cut="1.7992028808593750e+03" cType="1" res="-9.9000000000000000e+01" rms="0.0000000000000000e+00" purity="6.6072839498519897e-01" nType="0">
            <Node pos="l" depth="3" NCoef="0" IVar="0" Cut="1.2420069122314453e+02" cType="0" res="-9.9000000000000000e+01" rms="0.0000000000000000e+00" purity="6.7734855413436890e-01" nType="0">
              <Node pos="l" depth="4" NCoef="0" IVar="2" Cut="-2.0192246437072754e+00" cType="0" res="-9.9000000000000000e+01" rms="0.0000000000000000e+00" purity="8.5031157732009888e-01" nType="0">
                <Node pos="l" depth="5" NCoef="0" IVar="-1" Cut="0.0000000000000000e+00" cType="1" res="-9.9000000000000000e+01" rms="0.0000000000000000e+00" purity="8.5923963785171509e-01" nType="1"/>
                <Node pos="r" depth="5" NCoef="0" IVar="-1" Cut="0.0000000000000000e+00" cType="1" res="-9.9000000000000000e+01" rms="0.0000000000000000e+00" purity="4.3881878256797791e-01" nType="-1"/>
              </Node>
              <Node pos="r" depth="4" NCoef="0" IVar="4" Cut="3.5166390991210938e+02" cType="1" res="-9.9000000000000000e+01" rms="0.0000000000000000e+00" purity="3.8734972476959229e-01" nType="0">
                <Node pos="l" depth="5" NCoef="0" IVar="-1" Cut="0.0000000000000000e+00" cType="1" res="-9.9000000000000000e+01" rms="0.0000000000000000e+00" purity="5.1434034109115601e-01" nType="1"/>
                <Node pos="r" depth="5" NCoef="0" IVar="-1" Cut="0.0000000000000000e+00" cType="1" res="-9.9000000000000000e+01" rms="0.0000000000000000e+00" purity="3.4009736776351929e-01" nType="-1"/>
              </Node>
            </Node>
            <Node pos="r" depth="3" NCoef="0" IVar="1" Cut="6.5333602905273438e+01" cType="1" res="-9.9000000000000000e+01" rms="0.0000000000000000e+00" purity="4.5818169601261616e-03" nType="-1"/>
          </Node>
          <Node pos="r" depth="2" NCoef="0" IVar="0" Cut="1.8477314758300781e+02" cType="0" res="-9.9000000000000000e+01" rms="0.0000000000000000e+00" purity="2.4293883144855499e-01" nType="0">
            <Node pos="l" depth="3" NCoef="0" IVar="0" Cut="2.6329116821289062e+02" cType="0" res="-9.9000000000000000e+01" rms="0.0000000000000000e+00" purity="7.8880667686462402e-01" nType="1"/>
            <Node pos="r" depth="3" NCoef="0" IVar="1" Cut="1.4922900390625000e+02" cType="1" res="-9.9000000000000000e+01" rms="0.0000000000000000e+00" purity="6.4756482839584351e-02" nType="-1"/>
          </Node>
        </Node>
        <Node pos="r" depth="1" NCoef="0" IVar="2" Cut="-2.0470497608184814e+00" cType="0" res="-9.9000000000000000e+01" rms="0.0000000000000000e+00" purity="2.1722865104675293e-01" nType="-1"/>
      </Node>
    </BinaryTree>
    <BinaryTree type="DecisionTree" boostWeight="6.0034808317522774e-02" itree="13">
      <Node pos="s" depth="0" NCoef="0" IVar="1" Cut="3.8065631103515625e+02" cType="1" res="-9.9000000000000000e+01" rms="0.0000000000000000e+00" purity="5.2348047494888306e-01" nType="0">
        <Node pos="l" depth="1" NCoef="0" IVar="2" Cut="1.3346199989318848e+00" cType="1" res="-9.9000000000000000e+01" rms="0.0000000000000000e+00" purity="6.3117897510528564e-01" nType="0">
          <Node pos="l" depth="2" NCoef="0" IVar="0" Cut="1.2420069122314453e+02" cType="0" res="-9.9000000000000000e+01" rms="0.0000000000000000e+00" purity="6.8405884504318237e-01" nType="0">
            <Node pos="l" depth="3" NCoef="0" IVar="4" Cut="1.6188465576171875e+03" cType="1" res="-9.9000000000000000e+01" rms="0.0000000000000000e+00" purity="8.3632957935333252e-01" nType="0">
              <Node pos="l" depth="4" NCoef="0" IVar="0" Cut="1.9483323669433594e+02" cType="0" res="-9.9000000000000000e+01" rms="0.0000000000000000e+00" purity="8.5804659128189087e-01" nType="1"/>
              <Node pos="r" depth="4" NCoef="0" IVar="3" Cut="1.8270774185657501e-01" cType="0" res="-9.9000000000000000e+01" rms="0.0000000000000000e+00" purity="4.8581603914499283e-02" nType="-1"/>
            </Node>
            <Node pos="r" depth="3" NCoef="0" IVar="4" Cut="3.8458200073242188e+02" cType="1" res="-9.9000000000000000e+01" rms="0.0000000000000000e+00" purity="4.1520237922668457e-01" nType="0">
              <Node pos="l" depth="4" NCoef="0" IVar="2" Cut="-1.0525838136672974e+00" cType="0" res="-9.9000000000000000e+01" rms="0.0000000000000000e+00" purity="5.3362441062927246e-01" nType="0">
                <Node pos="l" depth="5" NCoef="0" IVar="-1" Cut="0.0000000000000000e+00" cType="1" res="-9.9000000000000000e+01" rms="0.0000000000000000e+00" purity="6.9764620065689087e-01" nType="1"/>
                <Node pos="r" depth="5" NCoef="0" IVar="-1" Cut="0.0000000000000000e+00" cType="1" res="-9.9000000000000000e+01" rms="0.0000000000000000e+00" purity="2.5827208161354065e-01" nType="-1"/>
              </Node>
              <Node pos="r" depth="4" NCoef="0" IVar="0" Cut="1.1354311370849609e+02" cType="0" res="-9.9000000000000000e+01" rms="0.0000000000000000e+00" purity="3.6115917563438416e-01" nType="0">
                <Node pos="l" depth="5" NCoef="0" IVar="-1" Cut="0.0000000000000000e+00" cType="1" res="-9.9000000000000000e+01" rms="0.0000000000000000e+00" purity="5.3720998764038086e-01" nType="1"/>
                <Node pos="r" depth="5" NCoef="0" IVar="-1" Cut="0.0000000000000000e+00" cType="1" res="-9.9000000000000000e+01" rms="0.0000000000000000e+00" purity="3.3831423521041870e-01" nType="-1"/>
              </Node>
            </Node>
          </Node>
          <Node pos="r" depth="2" NCoef="0" IVar="4" Cut="5.9989666748046875e+02" cType="1" res="-9.9000000000000000e+01" rms="0.0000000000000000e+00" purity="3.5527315735816956e-01" nType="-1"/>
        </Node>
        <Node pos="r" depth="1" NCoef="0" IVar="2" Cut="-2.0470497608184814e+00" cType="0" res="-9.9000000000000000e+01" rms="0.0000000000000000e+00" purity="2.2821302711963654e-01" nType="-1"/>
      </Node>
    </BinaryTree>
    <BinaryTree type="DecisionTree" boostWeight="6.2062027279926185e-02" itree="14">
      <Node pos="s" depth="0" NCoef="0" IVar="1" Cut="3.8065631103515625e+02" cType="1" res="-9.9000000000000000e+01" rms="0.0000000000000000e+00" purity="5.2559709548950195e-01" nType="0">
        <Node pos="l" depth="1" NCoef="0" IVar="5" Cut="5.0310021972656250e+02" cType="1" res="-9.9000000000000000e+01" rms="0.0000000000000000e+00" purity="6.3012063503265381e-01" nType="0">
          <Node pos="l" depth="2" NCoef="0" IVar="2" Cut="-1.5439491271972656e+00" cType="0" res="-9.9000000000000000e+01" rms="0.0000000000000000e+00" purity="6.5572267770767212e-01" nType="0">
            <Node pos="l" depth="3" NCoef="0" IVar="4" Cut="1.7992028808593750e+03" cType="1" res="-9.9000000000000000e+01" rms="0.0000000000000000e+00" purity="6.9080930948257446e-01" nType="0">
              <Node pos="l" depth="4" NCoef="0" IVar="5" Cut="2.4045663833618164e+01" cType="0" res="-9.9000000000000000e+01" rms="0.0000000000000000e+00" purity="7.0678478479385376e-01" nType="0">
                <Node pos="l" depth="5" NCoef="0" IVar="-1" Cut="0.0000000000000000e+00" cType="1" res="-9.9000000000000000e+01" rms="0.0000000000000000e+00" purity="7.2885406017303467e-01" nType="1"/>
                <Node pos="r" depth="5" NCoef="0" IVar="-1" Cut="0.0000000000000000e+00" cType="1" res="-9.9000000000000000e+01" rms="0.0000000000000000e+00" purity="4.3352138996124268e-01" nType="-1"/>
              </Node>
              <Node pos="r" depth="4" NCoef="0" IVar="1" Cut="8.0535125732421875e+01" cType="1" res="-9.9000000000000000e+01" rms="0.0000000000000000e+00" purity="6.0353237204253674e-03" nType="-1"/>
            </Node>
            <Node pos="r" depth="3" NCoef="0" IVar="0" Cut="2.0830818176269531e+02" cType="0" res="-9.9000000000000000e+01" rms="0.0000000000000000e+00" purity="3.2590836286544800e-01" nType="0">
              <Node pos="l" depth="4" NCoef="0" IVar="0" Cut="2.4106123352050781e+02" cType="0" res="-9.9000000000000000e+01" rms="0.0000000000000000e+00" purity="7.6752793788909912e-01" nType="1"/>
              <Node pos="r" depth="4" NCoef="0" IVar="2" Cut="-2.3177886009216309e+00" cType="0" res="-9.9000000000000000e+01" rms="0.0000000000000000e+00" purity="1.8460236489772797e-01" nType="-1"/>
            </Node>
          </Node>
          <Node pos="r" depth="2" NCoef="0" IVar="4" Cut="4.0415527343750000e+02" cType="1" res="-9.9000000000000000e+01" rms="0.0000000000000000e+00" purity="2.4819217622280121e-01" nType="-1"/>
        </Node>
        <Node pos="r" depth="1" NCoef="0" IVar="0" Cut="2.3628219604492188e+02" cType="0" res="-9.9000000000000000e+01" rms="0.0000000000000000e+00" purity="2.3895919322967529e-01" nType="0">
          <Node pos="l" depth="2" NCoef="0" IVar="1" Cut="8.2173742675781250e+02" cType="1" res="-9.9000000000000000e+01" rms="0.0000000000000000e+00" purity="7.2393095493316650e-01" nType="0">
            <Node pos="l" depth="3" NCoef="0" IVar="0" Cut="2.7991015625000000e+02" cType="0" res="-9.9000000000000000e+01" rms="0.0000000000000000e+00" purity="8.7121254205703735e-01" nType="1"/>
            <Node pos="r" depth="3" NCoef="0" IVar="0" Cut="2.9051263427734375e+02" cType="0" res="-9.9000000000000000e+01" rms="0.0000000000000000e+00" purity="1.2741568684577942e-01" nType="-1"/>
          </Node>
          <Node pos="r" depth="2" NCoef="0" IVar="1" Cut="5.3049121093750000e+02" cType="1" res="-9.9000000000000000e+01" rms="0.0000000000000000e+00" purity="9.7499988973140717e-02" nType="-1"/>
        </Node>
      </Node>
    </BinaryTree>
    <BinaryTree type="DecisionTree" boostWeight="5.4601869320585354e-02" itree="15">
      <Node pos="s" depth="0" NCoef="0" IVar="1" Cut="3.8065631103515625e+02" cType="1" res="-9.9000000000000000e+01" rms="0.0000000000000000e+00" purity="5.2207732200622559e-01" nType="0">
        <Node pos="l" depth="1" NCoef="0" IVar="5" Cut="4.0250219726562500e+02" cType="1" res="-9.9000000000000000e+01" rms="0.0000000000000000e+00" purity="6.2296539545059204e-01" nType="0">
          <Node pos="l" depth="2" NCoef="0" IVar="2" Cut="-1.3037419319152832e+00" cType="0" res="-9.9000000000000000e+01" rms="0.0000000000000000e+00" purity="6.5382236242294312e-01" nType="0">
            <Node pos="l" depth="3" NCoef="0" IVar="4" Cut="1.7992028808593750e+03" cType="1" res="-9.9000000000000000e+01" rms="0.0000000000000000e+00" purity="6.9581520557403564e-01" nType="0">
              <Node pos="l" depth="4" NCoef="0" IVar="0" Cut="1.2424308013916016e+02" cType="0" res="-9.9000000000000000e+01" rms="0.0000000000000000e+00" purity="7.1102964878082275e-01" nType="0">
                <Node pos="l" depth="5" NCoef="0" IVar="-1" Cut="0.0000000000000000e+00" cType="1" res="-9.9000000000000000e+01" rms="0.0000000000000000e+00" purity="8.6100322008132935e-01" nType="1"/>
                <Node pos="r" depth="5" NCoef="0" IVar="-1" Cut="0.0000000000000000e+00" cType="1" res="-9.9000000000000000e+01" rms="0.0000000000000000e+00" purity="4.4793128967285156e-01" nType="-1"/>
              </Node>
              <Node pos="r" depth="4" NCoef="0" IVar="2" Cut="-3.9965429902076721e-01" cType="0" res="-9.9000000000000000e+01" rms="0.0000000000000000e+00" purity="7.2338106110692024e-03" nType="-1"/>
            </Node>
            <Node pos="r" depth="3" NCoef="0" IVar="0" Cut="2.1899270629882812e+02" cType="0" res="-9.9000000000000000e+01" rms="0.0000000000000000e+00" purity="3.8037604093551636e-01" nType="0">
              <Node pos="l" depth="4" NCoef="0" IVar="4" Cut="1.0794992675781250e+03" cType="1" res="-9.9000000000000000e+01" rms="0.0000000000000000e+00" purity="7.9955947399139404e-01" nType="0">
                <Node pos="l" depth="5" NCoef="0" IVar="-1" Cut="0.0000000000000000e+00" cType="1" res="-9.9000000000000000e+01" rms="0.0000000000000000e+00" purity="8.8312053680419922e-01" nType="1"/>
                <Node pos="r" depth="5" NCoef="0" IVar="-1" Cut="0.0000000000000000e+00" cType="1" res="-9.9000000000000000e+01" rms="0.0000000000000000e+00" purity="4.1525292396545410e-01" nType="-1"/>
              </Node>
              <Node pos="r" depth="4" NCoef="0" IVar="2" Cut="-2.2720921039581299e+00" cType="0" res="-9.9000000000000000e+01" rms="0.0000000000000000e+00" purity="2.5070348381996155e-01" nType="-1"/>
            </Node>
          </Node>
          <Node pos="r" depth="2" NCoef="0" IVar="1" Cut="1.1957715606689453e+02" cType="0" res="-9.9000000000000000e+01" rms="0.0000000000000000e+00" purity="3.4714612364768982e-01" nType="-1"/>
        </Node>
        <Node pos="r" depth="1" NCoef="0" IVar="1" Cut="5.3049121093750000e+02" cType="1" res="-9.9000000000000000e+01" rms="0.0000000000000000e+00" purity="2.4253417551517487e-01" nType="-1"/>
      </Node>
    </BinaryTree>
    <BinaryTree type="DecisionTree" boostWeight="6.8610041086355308e-02" itree="16">
      <Node pos="s" depth="0" NCoef="0" IVar="0" Cut="3.3254132080078125e+02" cType="0" res="-9.9000000000000000e+01" rms="0.0000000000000000e+00" purity="5.2586543560028076e-01" nType="0">
        <Node pos="l" depth="1" NCoef="0" IVar="4" Cut="1.8029112548828125e+03" cType="1" res="-9.9000000000000000e+01" rms="0.0000000000000000e+00" purity="9.2614930868148804e-01" nType="0">
          <Node pos="l" depth="2" NCoef="0" IVar="2" Cut="-1.7858625650405884e+00" cType="0" res="-9.9000000000000000e+01" rms="0.0000000000000000e+00" purity="9.5845174789428711e-01" nType="1"/>
          <Node pos="r" depth="2" NCoef="0" IVar="1" Cut="1.6769599609375000e+03" cType="1" res="-9.9000000000000000e+01" rms="0.0000000000000000e+00" purity="1.3965601101517677e-02" nType="-1"/>
        </Node>
        <Node pos="r" depth="1" NCoef="0" IVar="0" Cut="1.5764088439941406e+02" cType="0" res="-9.9000000000000000e+01" rms="0.0000000000000000e+00" purity="4.2869424819946289e-01" nType="0">
          <Node pos="l" depth="2" NCoef="0" IVar="5" Cut="8.7045709228515625e+02" cType="1" res="-9.9000000000000000e+01" rms="0.0000000000000000e+00" purity="7.0874536037445068e-01" nType="0">
            <Node pos="l" depth="3" NCoef="0" IVar="4" Cut="1.4624660644531250e+03" cType="1" res="-9.9000000000000000e+01" rms="0.0000000000000000e+00" purity="7.2475427389144897e-01" nType="0">
              <Node pos="l" depth="4" NCoef="0" IVar="2" Cut="2.0231325626373291e+00" cType="1" res="-9.9000000000000000e+01" rms="0.0000000000000000e+00" purity="7.7843213081359863e-01" nType="0">
                <Node pos="l" depth="5" NCoef="0" IVar="-1" Cut="0.0000000000000000e+00" cType="1" res="-9.9000000000000000e+01" rms="0.0000000000000000e+00" purity="7.8662979602813721e-01" nType="1"/>
                <Node pos="r" depth="5" NCoef="0" IVar="-1" Cut="0.0000000000000000e+00" cType="1" res="-9.9000000000000000e+01" rms="0.0000000000000000e+00" purity="4.8746269941329956e-01" nType="-1"/>
              </Node>
              <Node pos="r" depth="4" NCoef="0" IVar="0" Cut="1.7459133911132812e+02" cType="0" res="-9.9000000000000000e+01" rms="0.0000000000000000e+00" purity="1.1356731504201889e-01" nType="-1"/>
            </Node>
            <Node pos="r" depth="3" NCoef="0" IVar="0" Cut="1.9089851379394531e+02" cType="0" res="-9.9000000000000000e+01" rms="0.0000000000000000e+00" purity="1.7421019077301025e-01" nType="-1"/>
          </Node>
          <Node pos="r" depth="2" NCoef="0" IVar="4" Cut="3.9077511596679688e+02" cType="1" res="-9.9000000000000000e+01" rms="0.0000000000000000e+00" purity="2.9111295938491821e-01" nType="0">
            <Node pos="l" depth="3" NCoef="0" IVar="4" Cut="3.1809780883789062e+02" cType="1" res="-9.9000000000000000e+01" rms="0.0000000000000000e+00" purity="5.1082122325897217e-01" nType="0">
              <Node pos="l" depth="4" NCoef="0" IVar="2" Cut="-1.0949666500091553e+00" cType="0" res="-9.9000000000000000e+01" rms="0.0000000000000000e+00" purity="5.4238015413284302e-01" nType="0">
                <Node pos="l" depth="5" NCoef="0" IVar="-1" Cut="0.0000000000000000e+00" cType="1" res="-9.9000000000000000e+01" rms="0.0000000000000000e+00" purity="6.2083566188812256e-01" nType="1"/>
                <Node pos="r" depth="5" NCoef="0" IVar="-1" Cut="0.0000000000000000e+00" cType="1" res="-9.9000000000000000e+01" rms="0.0000000000000000e+00" purity="3.3180317282676697e-01" nType="-1"/>
              </Node>
              <Node pos="r" depth="4" NCoef="0" IVar="1" Cut="2.0085073852539062e+02" cType="1" res="-9.9000000000000000e+01" rms="0.0000000000000000e+00" purity="4.6343046426773071e-01" nType="0">
                <Node pos="l" depth="5" NCoef="0" IVar="-1" Cut="0.0000000000000000e+00" cType="1" res="-9.9000000000000000e+01" rms="0.0000000000000000e+00" purity="6.0124170780181885e-01" nType="1"/>
                <Node pos="r" depth="5" NCoef="0" IVar="-1" Cut="0.0000000000000000e+00" cType="1" res="-9.9000000000000000e+01" rms="0.0000000000000000e+00" purity="2.2523067891597748e-01" nType="-1"/>
              </Node>
            </Node>
            <Node pos="r" depth="3" NCoef="0" IVar="1" Cut="2.1533644104003906e+02" cType="1" res="-9.9000000000000000e+01" rms="0.0000000000000000e+00" purity="2.2882266342639923e-01" nType="-1"/>
          </Node>
        </Node>
      </Node>
    </BinaryTree>
    <BinaryTree type="DecisionTree" boostWeight="5.0654980997074904e-02" itree="17">
      <Node pos="s" depth="0" NCoef="0" IVar="1" Cut="3.8065631103515625e+02" cType="1" res="-9.9000000000000000e+01" rms="0.0000000000000000e+00" purity="5.2636706829071045e-01" nType="0">
        <Node pos="l" depth="1" NCoef="0" IVar="1" Cut="3.4915872192382812e+02" cType="1" res="-9.9000000000000000e+01" rms="0.0000000000000000e+00" purity="6.2398332357406616e-01" nType="0">
          <Node pos="l" depth="2" NCoef="0" IVar="2" Cut="1.3346199989318848e+00" cType="1" res="-9.9000000000000000e+01" rms="0.0000000000000000e+00" purity="6.3001447916030884e-01" nType="0">
            <Node pos="l" depth="3" NCoef="0" IVar="4" Cut="1.6188465576171875e+03" cType="1" res="-9.9000000000000000e+01" rms="0.0000000000000000e+00" purity="6.8066036701202393e-01" nType="0">
              <Node pos="l" depth="4" NCoef="0" IVar="2" Cut="-1.4197338819503784e+00" cType="0" res="-9.9000000000000000e+01" rms="0.0000000000000000e+00" purity="6.9716095924377441e-01" nType="0">
                <Node pos="l" depth="5" NCoef="0" IVar="-1" Cut="0.0000000000000000e+00" cType="1" res="-9.9000000000000000e+01" rms="0.0000000000000000e+00" purity="7.5714856386184692e-01" nType="1"/>
                <Node pos="r" depth="5" NCoef="0" IVar="-1" Cut="0.0000000000000000e+00" cType="1" res="-9.9000000000000000e+01" rms="0.0000000000000000e+00" purity="3.6223191022872925e-01" nType="-1"/>
              </Node>
              <Node pos="r" depth="4" NCoef="0" IVar="1" Cut="7.7538841247558594e+01" cType="0" res="-9.9000000000000000e+01" rms="0.0000000000000000e+00" purity="5.0693899393081665e-02" nType="-1"/>
            </Node>
            <Node pos="r" depth="3" NCoef="0" IVar="2" Cut="1.3921004533767700e+00" cType="1" res="-9.9000000000000000e+01" rms="0.0000000000000000e+00" purity="3.7135615944862366e-01" nType="0">
              <Node pos="l" depth="4" NCoef="0" IVar="0" Cut="1.3665490722656250e+02" cType="0" res="-9.9000000000000000e+01" rms="0.0000000000000000e+00" purity="5.9773838520050049e-01" nType="0">
                <Node pos="l" depth="5" NCoef="0" IVar="-1" Cut="0.0000000000000000e+00" cType="1" res="-9.9000000000000000e+01" rms="0.0000000000000000e+00" purity="8.3400344848632812e-01" nType="1"/>
                <Node pos="r" depth="5" NCoef="0" IVar="-1" Cut="0.0000000000000000e+00" cType="1" res="-9.9000000000000000e+01" rms="0.0000000000000000e+00" purity="3.2946982979774475e-01" nType="-1"/>
              </Node>
              <Node pos="r" depth="4" NCoef="0" IVar="1" Cut="6.4342987060546875e+01" cType="1" res="-9.9000000000000000e+01" rms="0.0000000000000000e+00" purity="3.5282915830612183e-01" nType="0">
                <Node pos="l" depth="5" NCoef="0" IVar="-1" Cut="0.0000000000000000e+00" cType="1" res="-9.9000000000000000e+01" rms="0.0000000000000000e+00" purity="5.1103162765502930e-01" nType="1"/>
                <Node pos="r" depth="5" NCoef="0" IVar="-1" Cut="0.0000000000000000e+00" cType="1" res="-9.9000000000000000e+01" rms="0.0000000000000000e+00" purity="3.3800742030143738e-01" nType="-1"/>
              </Node>
            </Node>
          </Node>
          <Node pos="r" depth="2" NCoef="0" IVar="5" Cut="9.3194297790527344e+01" cType="0" res="-9.9000000000000000e+01" rms="0.0000000000000000e+00" purity="4.5374375581741333e-01" nType="0">
            <Node pos="l" depth="3" NCoef="0" IVar="3" Cut="4.4049927592277527e-01" cType="1" res="-9.9000000000000000e+01" rms="0.0000000000000000e+00" purity="5.2643603086471558e-01" nType="0">
              <Node pos="l" depth="4" NCoef="0" IVar="2" Cut="-2.4969132244586945e-01" cType="0" res="-9.9000000000000000e+01" rms="0.0000000000000000e+00" purity="6.9523710012435913e-01" nType="1"/>
              <Node pos="r" depth="4" NCoef="0" IVar="5" Cut="5.3817352294921875e+02" cType="1" res="-9.9000000000000000e+01" rms="0.0000000000000000e+00" purity="4.0918353199958801e-01" nType="0">
                <Node pos="l" depth="5" NCoef="0" IVar="-1" Cut="0.0000000000000000e+00" cType="1" res="-9.9000000000000000e+01" rms="0.0000000000000000e+00" purity="5.2818393707275391e-01" nType="1"/>
                <Node pos="r" depth="5" NCoef="0" IVar="-1" Cut="0.0000000000000000e+00" cType="1" res="-9.9000000000000000e+01" rms="0.0000000000000000e+00" purity="1.8419021368026733e-01" nType="-1"/>
              </Node>
            </Node>
            <Node pos="r" depth="3" NCoef="0" IVar="5" Cut="1.7832021713256836e+01" cType="0" res="-9.9000000000000000e+01" rms="0.0000000000000000e+00" purity="2.6847207546234131e-01" nType="0">
              <Node pos="l" depth="4" NCoef="0" IVar="-1" Cut="0.0000000000000000e+00" cType="1" res="-9.9000000000000000e+01" rms="0.0000000000000000e+00" purity="5.8671259880065918e-01" nType="1"/>
              <Node pos="r" depth="4" NCoef="0" IVar="-1" Cut="0.0000000000000000e+00" cType="1" res="-9.9000000000000000e+01" rms="0.0000000000000000e+00" purity="0.0000000000000000e+00" nType="-1"/>
            </Node>
          </Node>
        </Node>
        <Node pos="r" depth="1" NCoef="0" IVar="2" Cut="-2.0470497608184814e+00" cType="0" res="-9.9000000000000000e+01" rms="0.0000000000000000e+00" purity="2.5361147522926331e-01" nType="-1"/>
      </Node>
    </BinaryTree>
    <BinaryTree type="DecisionTree" boostWeight="5.2824467313464317e-02" itree="18">
      <Node pos="s" depth="0" NCoef="0" IVar="3" Cut="4.6076497435569763e-01" cType="1" res="-9.9000000000000000e+01" rms="0.0000000000000000e+00" purity="5.2609044313430786e-01" nType="0">
        <Node pos="l" depth="1" NCoef="0" IVar="4" Cut="1.7992028808593750e+03" cType="1" res="-9.9000000000000000e+01" rms="0.0000000000000000e+00" purity="5.8915364742279053e-01" nType="0">
          <Node pos="l" depth="2" NCoef="0" IVar="0" Cut="1.1772938537597656e+02" cType="0" res="-9.9000000000000000e+01" rms="0.0000000000000000e+00" purity="6.2922322750091553e-01" nType="0">
            <Node pos="l" depth="3" NCoef="0" IVar="5" Cut="7.9501647949218750e+02" cType="1" res="-9.9000000000000000e+01" rms="0.0000000000000000e+00" purity="7.9141432046890259e-01" nType="0">
              <Node pos="l" depth="4" NCoef="0" IVar="1" Cut="8.9001287841796875e+02" cType="1" res="-9.9000000000000000e+01" rms="0.0000000000000000e+00" purity="8.0039250850677490e-01" nType="0">
                <Node pos="l" depth="5" NCoef="0" IVar="-1" Cut="0.0000000000000000e+00" cType="1" res="-9.9000000000000000e+01" rms="0.0000000000000000e+00" purity="8.1074947118759155e-01" nType="1"/>
                <Node pos="r" depth="5" NCoef="0" IVar="-1" Cut="0.0000000000000000e+00" cType="1" res="-9.9000000000000000e+01" rms="0.0000000000000000e+00" purity="2.1008357405662537e-01" nType="-1"/>
              </Node>
              <Node pos="r" depth="4" NCoef="0" IVar="4" Cut="8.9291607666015625e+02" cType="0" res="-9.9000000000000000e+01" rms="0.0000000000000000e+00" purity="3.1105443835258484e-01" nType="-1"/>
            </Node>
            <Node pos="r" depth="3" NCoef="0" IVar="0" Cut="1.1443698883056641e+02" cType="0" res="-9.9000000000000000e+01" rms="0.0000000000000000e+00" purity="3.5013958811759949e-01" nType="0">
              <Node pos="l" depth="4" NCoef="0" IVar="-1" Cut="0.0000000000000000e+00" cType="1" res="-9.9000000000000000e+01" rms="0.0000000000000000e+00" purity="5.4121041297912598e-01" nType="1"/>
              <Node pos="r" depth="4" NCoef="0" IVar="4" Cut="2.7701321411132812e+02" cType="1" res="-9.9000000000000000e+01" rms="0.0000000000000000e+00" purity="3.4294140338897705e-01" nType="0">
                <Node pos="l" depth="5" NCoef="0" IVar="-1" Cut="0.0000000000000000e+00" cType="1" res="-9.9000000000000000e+01" rms="0.0000000000000000e+00" purity="5.4803919792175293e-01" nType="1"/>
                <Node pos="r" depth="5" NCoef="0" IVar="-1" Cut="0.0000000000000000e+00" cType="1" res="-9.9000000000000000e+01" rms="0.0000000000000000e+00" purity="3.2207435369491577e-01" nType="-1"/>
              </Node>
            </Node>
          </Node>
          <Node pos="r" depth="2" NCoef="0" IVar="-1" Cut="0.0000000000000000e+00" cType="1" res="-9.9000000000000000e+01" rms="0.0000000000000000e+00" purity="0.0000000000000000e+00" nType="-1"/>
        </Node>
        <Node pos="r" depth="1" NCoef="0" IVar="1" Cut="1.9765856933593750e+02" cType="1" res="-9.9000000000000000e+01" rms="0.0000000000000000e+00" purity="4.6375370025634766e-01" nType="0">
          <Node pos="l" depth="2" NCoef="0" IVar="0" Cut="1.2420069122314453e+02" cType="0" res="-9.9000000000000000e+01" rms="0.0000000000000000e+00" purity="6.3023084402084351e-01" nType="0">
            <Node pos="l" depth="3" NCoef="0" IVar="1" Cut="5.7036506652832031e+01" cType="1" res="-9.9000000000000000e+01" rms="0.0000000000000000e+00" purity="7.9309999942779541e-01" nType="1"/>
            <Node pos="r" depth="3" NCoef="0" IVar="3" Cut="4.8724588751792908e-01" cType="1" res="-9.9000000000000000e+01" rms="0.0000000000000000e+00" purity="3.7282347679138184e-01" nType="-1"/>
          </Node>
          <Node pos="r" depth="2" NCoef="0" IVar="3" Cut="4.8642975091934204e-01" cType="1" res="-9.9000000000000000e+01" rms="0.0000000000000000e+00" purity="2.9962423443794250e-01" nType="-1"/>
        </Node>
      </Node>
    </BinaryTree>
    <BinaryTree type="DecisionTree" boostWeight="5.5033469667378015e-02" itree="19">
      <Node pos="s" depth="0" NCoef="0" IVar="4" Cut="5.9982263183593750e+02" cType="1" res="-9.9000000000000000e+01" rms="0.0000000000000000e+00" purity="5.2754265069961548e-01" nType="0">
        <Node pos="l" depth="1" NCoef="0" IVar="0" Cut="1.0077409362792969e+02" cType="0" res="-9.9000000000000000e+01" rms="0.0000000000000000e+00" purity="6.3928461074829102e-01" nType="0">
          <Node pos="l" depth="2" NCoef="0" IVar="1" Cut="5.1673052978515625e+02" cType="1" res="-9.9000000000000000e+01" rms="0.0000000000000000e+00" purity="8.1422275304794312e-01" nType="0">
            <Node pos="l" depth="3" NCoef="0" IVar="0" Cut="1.4909645080566406e+02" cType="0" res="-9.9000000000000000e+01" rms="0.0000000000000000e+00" purity="8.1884676218032837e-01" nType="1"/>
            <Node pos="r" depth="3" NCoef="0" IVar="-1" Cut="0.0000000000000000e+00" cType="1" res="-9.9000000000000000e+01" rms="0.0000000000000000e+00" purity="4.4349706172943115e-01" nType="-1"/>
          </Node>
          <Node pos="r" depth="2" NCoef="0" IVar="2" Cut="-2.2822492122650146e+00" cType="0" res="-9.9000000000000000e+01" rms="0.0000000000000000e+00" purity="3.4911000728607178e-01" nType="-1"/>
        </Node>
        <Node pos="r" depth="1" NCoef="0" IVar="0" Cut="3.3254132080078125e+02" cType="0" res="-9.9000000000000000e+01" rms="0.0000000000000000e+00" purity="4.5130673050880432e-01" nType="0">
          <Node pos="l" depth="2" NCoef="0" IVar="3" Cut="1.4803387224674225e-02" cType="0" res="-9.9000000000000000e+01" rms="0.0000000000000000e+00" purity="9.0462666749954224e-01" nType="1"/>
          <Node pos="r" depth="2" NCoef="0" IVar="4" Cut="7.9124926757812500e+02" cType="1" res="-9.9000000000000000e+01" rms="0.0000000000000000e+00" purity="3.0302911996841431e-01" nType="-1"/>
        </Node>
      </Node>
    </BinaryTree>
    <BinaryTree type="DecisionTree" boostWeight="6.4510540596466007e-02" itree="20">
      <Node pos="s" depth="0" NCoef="0" IVar="1" Cut="3.8065631103515625e+02" cType="1" res="-9.9000000000000000e+01" rms="0.0000000000000000e+00" purity="5.3081673383712769e-01" nType="0">
        <Node pos="l" depth="1" NCoef="0" IVar="2" Cut="1.3346199989318848e+00" cType="1" res="-9.9000000000000000e+01" rms="0.0000000000000000e+00" purity="6.2221270799636841e-01" nType="0">
          <Node pos="l" depth="2" NCoef="0" IVar="0" Cut="1.2420069122314453e+02" cType="0" res="-9.9000000000000000e+01" rms="0.0000000000000000e+00" purity="6.7044079303741455e-01" nType="0">
            <Node pos="l" depth="3" NCoef="0" IVar="4" Cut="1.6188465576171875e+03" cType="1" res="-9.9000000000000000e+01" rms="0.0000000000000000e+00" purity="8.0640912055969238e-01" nType="0">
              <Node pos="l" depth="4" NCoef="0" IVar="4" Cut="2.6756994628906250e+02" cType="1" res="-9.9000000000000000e+01" rms="0.0000000000000000e+00" purity="8.2654947042465210e-01" nType="1"/>
              <Node pos="r" depth="4" NCoef="0" IVar="2" Cut="-1.4085478782653809e+00" cType="0" res="-9.9000000000000000e+01" rms="0.0000000000000000e+00" purity="5.5392690002918243e-02" nType="-1"/>
            </Node>
            <Node pos="r" depth="3" NCoef="0" IVar="2" Cut="-8.6900305747985840e-01" cType="0" res="-9.9000000000000000e+01" rms="0.0000000000000000e+00" purity="4.4804653525352478e-01" nType="0">
              <Node pos="l" depth="4" NCoef="0" IVar="4" Cut="7.0229162597656250e+02" cType="1" res="-9.9000000000000000e+01" rms="0.0000000000000000e+00" purity="5.7444846630096436e-01" nType="0">
                <Node pos="l" depth="5" NCoef="0" IVar="-1" Cut="0.0000000000000000e+00" cType="1" res="-9.9000000000000000e+01" rms="0.0000000000000000e+00" purity="6.5778338909149170e-01" nType="1"/>
                <Node pos="r" depth="5" NCoef="0" IVar="-1" Cut="0.0000000000000000e+00" cType="1" res="-9.9000000000000000e+01" rms="0.0000000000000000e+00" purity="3.8058605790138245e-01" nType="-1"/>
              </Node>
              <Node pos="r" depth="4" NCoef="0" IVar="2" Cut="-9.4895607233047485e-01" cType="0" res="-9.9000000000000000e+01" rms="0.0000000000000000e+00" purity="2.4832244217395782e-01" nType="0">
                <Node pos="l" depth="5" NCoef="0" IVar="-1" Cut="0.0000000000000000e+00" cType="1" res="-9.9000000000000000e+01" rms="0.0000000000000000e+00" purity="5.7019090652465820e-01" nType="1"/>
                <Node pos="r" depth="5" NCoef="0" IVar="-1" Cut="0.0000000000000000e+00" cType="1" res="-9.9000000000000000e+01" rms="0.0000000000000000e+00" purity="2.2290737926959991e-01" nType="-1"/>
              </Node>
            </Node>
          </Node>
          <Node pos="r" depth="2" NCoef="0" IVar="1" Cut="6.5863616943359375e+01" cType="1" res="-9.9000000000000000e+01" rms="0.0000000000000000e+00" purity="3.7431958317756653e-01" nType="-1"/>
        </Node>
        <Node pos="r" depth="1" NCoef="0" IVar="0" Cut="2.3628219604492188e+02" cType="0" res="-9.9000000000000000e+01" rms="0.0000000000000000e+00" purity="2.7180323004722595e-01" nType="0">
          <Node pos="l" depth="2" NCoef="0" IVar="1" Cut="8.2173742675781250e+02" cType="1" res="-9.9000000000000000e+01" rms="0.0000000000000000e+00" purity="7.3582285642623901e-01" nType="0">
            <Node pos="l" depth="3" NCoef="0" IVar="0" Cut="2.7991015625000000e+02" cType="0" res="-9.9000000000000000e+01" rms="0.0000000000000000e+00" purity="8.7059873342514038e-01" nType="1"/>
            <Node pos="r" depth="3" NCoef="0" IVar="0" Cut="2.9051263427734375e+02" cType="0" res="-9.9000000000000000e+01" rms="0.0000000000000000e+00" purity="1.4975251257419586e-01" nType="-1"/>
          </Node>
          <Node pos="r" depth="2" NCoef="0" IVar="1" Cut="5.3049121093750000e+02" cType="1" res="-9.9000000000000000e+01" rms="0.0000000000000000e+00" purity="1.2340667843818665e-01" nType="-1"/>
        </Node>
      </Node>
    </BinaryTree>
    <BinaryTree type="DecisionTree" boostWeight="6.6159209962232249e-02" itree="21">
      <Node pos="s" depth="0" NCoef="0" IVar="4" Cut="5.9982263183593750e+02" cType="1" res="-9.9000000000000000e+01" rms="0.0000000000000000e+00" purity="5.3032195568084717e-01" nType="0">
        <Node pos="l" depth="1" NCoef="0" IVar="0" Cut="1.0077409362792969e+02" cType="0" res="-9.9000000000000000e+01" rms="0.0000000000000000e+00" purity="6.3587260246276855e-01" nType="0">
          <Node pos="l" depth="2" NCoef="0" IVar="5" Cut="8.0470465087890625e+02" cType="1" res="-9.9000000000000000e+01" rms="0.0000000000000000e+00" purity="8.0244201421737671e-01" nType="0">
            <Node pos="l" depth="3" NCoef="0" IVar="1" Cut="8.1047454833984375e+01" cType="1" res="-9.9000000000000000e+01" rms="0.0000000000000000e+00" purity="8.1132394075393677e-01" nType="1"/>
            <Node pos="r" depth="3" NCoef="0" IVar="-1" Cut="0.0000000000000000e+00" cType="1" res="-9.9000000000000000e+01" rms="0.0000000000000000e+00" purity="1.4092364907264709e-01" nType="-1"/>
          </Node>
          <Node pos="r" depth="2" NCoef="0" IVar="2" Cut="-2.2822492122650146e+00" cType="0" res="-9.9000000000000000e+01" rms="0.0000000000000000e+00" purity="3.6180013418197632e-01" nType="-1"/>
        </Node>
        <Node pos="r" depth="1" NCoef="0" IVar="0" Cut="3.3254132080078125e+02" cType="0" res="-9.9000000000000000e+01" rms="0.0000000000000000e+00" purity="4.5807224512100220e-01" nType="0">
          <Node pos="l" depth="2" NCoef="0" IVar="4" Cut="1.7423201904296875e+03" cType="1" res="-9.9000000000000000e+01" rms="0.0000000000000000e+00" purity="8.9791452884674072e-01" nType="0">
            <Node pos="l" depth="3" NCoef="0" IVar="3" Cut="1.4803387224674225e-02" cType="0" res="-9.9000000000000000e+01" rms="0.0000000000000000e+00" purity="9.4105982780456543e-01" nType="1"/>
            <Node pos="r" depth="3" NCoef="0" IVar="1" Cut="1.5142772216796875e+03" cType="1" res="-9.9000000000000000e+01" rms="0.0000000000000000e+00" purity="4.3677948415279388e-02" nType="-1"/>
          </Node>
          <Node pos="r" depth="2" NCoef="0" IVar="0" Cut="2.1131153869628906e+02" cType="0" res="-9.9000000000000000e+01" rms="0.0000000000000000e+00" purity="3.1708431243896484e-01" nType="0">
            <Node pos="l" depth="3" NCoef="0" IVar="4" Cut="1.5569284667968750e+03" cType="1" res="-9.9000000000000000e+01" rms="0.0000000000000000e+00" purity="6.8506050109863281e-01" nType="0">
              <Node pos="l" depth="4" NCoef="0" IVar="1" Cut="7.8234631347656250e+02" cType="1" res="-9.9000000000000000e+01" rms="0.0000000000000000e+00" purity="7.6105040311813354e-01" nType="0">
                <Node pos="l" depth="5" NCoef="0" IVar="-1" Cut="0.0000000000000000e+00" cType="1" res="-9.9000000000000000e+01" rms="0.0000000000000000e+00" purity="7.8357422351837158e-01" nType="1"/>
                <Node pos="r" depth="5" NCoef="0" IVar="-1" Cut="0.0000000000000000e+00" cType="1" res="-9.9000000000000000e+01" rms="0.0000000000000000e+00" purity="3.4760797023773193e-01" nType="-1"/>
              </Node>
              <Node pos="r" depth="4" NCoef="0" IVar="1" Cut="2.0311949157714844e+02" cType="1" res="-9.9000000000000000e+01" rms="0.0000000000000000e+00" purity="1.6064628958702087e-02" nType="-1"/>
            </Node>
            <Node pos="r" depth="3" NCoef="0" IVar="0" Cut="2.0343525695800781e+02" cType="0" res="-9.9000000000000000e+01" rms="0.0000000000000000e+00" purity="2.2632841765880585e-01" nType="0">
              <Node pos="l" depth="4" NCoef="0" IVar="5" Cut="1.0947629547119141e+02" cType="0" res="-9.9000000000000000e+01" rms="0.0000000000000000e+00" purity="5.3980076313018799e-01" nType="0">
                <Node pos="l" depth="5" NCoef="0" IVar="-1" Cut="0.0000000000000000e+00" cType="1" res="-9.9000000000000000e+01" rms="0.0000000000000000e+00" purity="5.8679342269897461e-01" nType="1"/>
                <Node pos="r" depth="5" NCoef="0" IVar="-1" Cut="0.0000000000000000e+00" cType="1" res="-9.9000000000000000e+01" rms="0.0000000000000000e+00" purity="4.8183715343475342e-01" nType="-1"/>
              </Node>
              <Node pos="r" depth="4" NCoef="0" IVar="0" Cut="5.7339733123779297e+01" cType="0" res="-9.9000000000000000e+01" rms="0.0000000000000000e+00" purity="2.1900475025177002e-01" nType="-1"/>
            </Node>
          </Node>
        </Node>
      </Node>
    </BinaryTree>
    <BinaryTree type="DecisionTree" boostWeight="6.1450143607172755e-02" itree="22">
      <Node pos="s" depth="0" NCoef="0" IVar="1" Cut="3.8065631103515625e+02" cType="1" res="-9.9000000000000000e+01" rms="0.0000000000000000e+00" purity="5.3203171491622925e-01" nType="0">
        <Node pos="l" depth="1" NCoef="0" IVar="2" Cut="-1.3162770271301270e+00" cType="0" res="-9.9000000000000000e+01" rms="0.0000000000000000e+00" purity="6.2003052234649658e-01" nType="0">
          <Node pos="l" depth="2" NCoef="0" IVar="2" Cut="1.4379802942276001e+00" cType="1" res="-9.9000000000000000e+01" rms="0.0000000000000000e+00" purity="6.6495823860168457e-01" nType="0">
            <Node pos="l" depth="3" NCoef="0" IVar="5" Cut="5.3753344726562500e+02" cType="1" res="-9.9000000000000000e+01" rms="0.0000000000000000e+00" purity="7.2547388076782227e-01" nType="0">
              <Node pos="l" depth="4" NCoef="0" IVar="0" Cut="1.2424308013916016e+02" cType="0" res="-9.9000000000000000e+01" rms="0.0000000000000000e+00" purity="7.2754502296447754e-01" nType="1"/>
              <Node pos="r" depth="4" NCoef="0" IVar="-1" Cut="0.0000000000000000e+00" cType="1" res="-9.9000000000000000e+01" rms="0.0000000000000000e+00" purity="4.6692672371864319e-01" nType="-1"/>
            </Node>
            <Node pos="r" depth="3" NCoef="0" IVar="0" Cut="3.3263888549804688e+02" cType="0" res="-9.9000000000000000e+01" rms="0.0000000000000000e+00" purity="3.5893937945365906e-01" nType="0">
              <Node pos="l" depth="4" NCoef="0" IVar="3" Cut="5.9538829326629639e-01" cType="0" res="-9.9000000000000000e+01" rms="0.0000000000000000e+00" purity="8.1452906131744385e-01" nType="1"/>
              <Node pos="r" depth="4" NCoef="0" IVar="0" Cut="1.8397430419921875e+02" cType="0" res="-9.9000000000000000e+01" rms="0.0000000000000000e+00" purity="3.1207066774368286e-01" nType="0">
                <Node pos="l" depth="5" NCoef="0" IVar="-1" Cut="0.0000000000000000e+00" cType="1" res="-9.9000000000000000e+01" rms="0.0000000000000000e+00" purity="7.2153836488723755e-01" nType="1"/>
                <Node pos="r" depth="5" NCoef="0" IVar="-1" Cut="0.0000000000000000e+00" cType="1" res="-9.9000000000000000e+01" rms="0.0000000000000000e+00" purity="2.0829692482948303e-01" nType="-1"/>
              </Node>
            </Node>
          </Node>
          <Node pos="r" depth="2" NCoef="0" IVar="0" Cut="2.1899270629882812e+02" cType="0" res="-9.9000000000000000e+01" rms="0.0000000000000000e+00" purity="3.7106052041053772e-01" nType="0">
            <Node pos="l" depth="3" NCoef="0" IVar="4" Cut="1.1054449462890625e+03" cType="1" res="-9.9000000000000000e+01" rms="0.0000000000000000e+00" purity="7.7386963367462158e-01" nType="0">
              <Node pos="l" depth="4" NCoef="0" IVar="1" Cut="6.5624725341796875e+01" cType="0" res="-9.9000000000000000e+01" rms="0.0000000000000000e+00" purity="8.5651075839996338e-01" nType="1"/>
              <Node pos="r" depth="4" NCoef="0" IVar="-1" Cut="0.0000000000000000e+00" cType="1" res="-9.9000000000000000e+01" rms="0.0000000000000000e+00" purity="3.8305449485778809e-01" nType="-1"/>
            </Node>
            <Node pos="r" depth="3" NCoef="0" IVar="0" Cut="1.8647859191894531e+02" cType="0" res="-9.9000000000000000e+01" rms="0.0000000000000000e+00" purity="2.4205112457275391e-01" nType="0">
              <Node pos="l" depth="4" NCoef="0" IVar="-1" Cut="0.0000000000000000e+00" cType="1" res="-9.9000000000000000e+01" rms="0.0000000000000000e+00" purity="5.9980797767639160e-01" nType="1"/>
              <Node pos="r" depth="4" NCoef="0" IVar="0" Cut="5.6535575866699219e+01" cType="0" res="-9.9000000000000000e+01" rms="0.0000000000000000e+00" purity="2.1288836002349854e-01" nType="-1"/>
            </Node>
          </Node>
        </Node>
        <Node pos="r" depth="1" NCoef="0" IVar="0" Cut="2.3628219604492188e+02" cType="0" res="-9.9000000000000000e+01" rms="0.0000000000000000e+00" purity="2.7863258123397827e-01" nType="0">
          <Node pos="l" depth="2" NCoef="0" IVar="4" Cut="1.5469984130859375e+03" cType="1" res="-9.9000000000000000e+01" rms="0.0000000000000000e+00" purity="7.2593945264816284e-01" nType="0">
            <Node pos="l" depth="3" NCoef="0" IVar="0" Cut="2.7991015625000000e+02" cType="0" res="-9.9000000000000000e+01" rms="0.0000000000000000e+00" purity="8.3204776048660278e-01" nType="1"/>
