<?xml version="1.0"?>
<MethodSetup Method="BDT::BDT">
  <GeneralInfo>
    <Info name="TMVA Release" value="4.1.4 [262404]"/>
    <Info name="ROOT Release" value="5.34/04 [336388]"/>
    <Info name="Creator" value="karavdia"/>
    <Info name="Date" value="Thu Oct 29 00:06:29 2015"/>
    <Info name="Host" value="Linux zitpcx5595 2.6.32-279.22.1.el6.x86_64 #1 SMP Tue Feb 5 14:33:39 CST 2013 x86_64 x86_64 x86_64 GNU/Linux"/>
    <Info name="Dir" value="/afs/desy.de/user/k/karavdia/xxl/af-cms/CMSSW_7_4_9/src/UHH2/ZprimeSemiLeptonic/qcd_rejection/tmva/test"/>
    <Info name="Training events" value="42747"/>
    <Info name="TrainingTime" value="1.88155198e+00"/>
    <Info name="AnalysisType" value="Classification"/>
  </GeneralInfo>
  <Options>
    <Option name="V" modified="Yes">False</Option>
    <Option name="VerbosityLevel" modified="No">Default</Option>
    <Option name="VarTransform" modified="No">None</Option>
    <Option name="H" modified="Yes">False</Option>
    <Option name="CreateMVAPdfs" modified="Yes">True</Option>
    <Option name="IgnoreNegWeightsInTraining" modified="No">False</Option>
    <Option name="NTrees" modified="Yes">30</Option>
    <Option name="RenormByClass" modified="No">False</Option>
    <Option name="BoostType" modified="Yes">AdaBoost</Option>
    <Option name="AdaBoostR2Loss" modified="No">quadratic</Option>
    <Option name="UseBaggedGrad" modified="No">False</Option>
    <Option name="GradBaggingFraction" modified="No">6.000000e-01</Option>
    <Option name="Shrinkage" modified="No">1.000000e+00</Option>
    <Option name="AdaBoostBeta" modified="Yes">5.000000e-01</Option>
    <Option name="UseRandomisedTrees" modified="Yes">True</Option>
    <Option name="UseNvars" modified="No">5</Option>
    <Option name="UsePoissonNvars" modified="No">True</Option>
    <Option name="UseNTrainEvents" modified="No">42747</Option>
    <Option name="UseWeightedTrees" modified="No">True</Option>
    <Option name="UseYesNoLeaf" modified="No">True</Option>
    <Option name="NodePurityLimit" modified="No">5.000000e-01</Option>
    <Option name="SeparationType" modified="Yes">misclassificationerror</Option>
    <Option name="nEventsMin" modified="No">40</Option>
    <Option name="nCuts" modified="No">20</Option>
    <Option name="UseFisherCuts" modified="No">False</Option>
    <Option name="MinLinCorrForFisher" modified="No">8.000000e-01</Option>
    <Option name="UseExclusiveVars" modified="No">False</Option>
    <Option name="PruneStrength" modified="No">0.000000e+00</Option>
    <Option name="PruneMethod" modified="Yes">nopruning</Option>
    <Option name="PruneBeforeBoost" modified="No">False</Option>
    <Option name="PruningValFraction" modified="No">5.000000e-01</Option>
    <Option name="NNodesMax" modified="No">100000</Option>
    <Option name="MaxDepth" modified="Yes">4</Option>
    <Option name="DoBoostMonitor" modified="No">False</Option>
    <Option name="NegWeightTreatment" modified="No">inverseboostnegweights</Option>
  </Options>
  <Variables NVar="20">
    <Variable VarIndex="0" Expression="met_pt" Label="met_pt" Title="missing E_{T}" Unit="GeV/c^{2}" Internal="met_pt" Type="F" Min="5.00362778e+01" Max="1.82268835e+03"/>
    <Variable VarIndex="1" Expression="lep_pt" Label="lep_pt" Title="lep p_{T}" Unit="GeV/c" Internal="lep_pt" Type="F" Min="5.00005989e+01" Max="3.85408081e+03"/>
    <Variable VarIndex="2" Expression="lep_eta" Label="lep_eta" Title="lep #eta" Unit="" Internal="lep_eta" Type="F" Min="-2.50991940e+00" Max="2.53957319e+00"/>
    <Variable VarIndex="3" Expression="ljet_pt" Label="ljet_pt" Title="lead jet p_{T}" Unit="GeV/c" Internal="ljet_pt" Type="F" Min="2.00001968e+02" Max="4.45648145e+03"/>
    <Variable VarIndex="4" Expression="ljet_eta" Label="ljet_eta" Title="lead jet #eta" Unit="" Internal="ljet_eta" Type="F" Min="-2.39862776e+00" Max="2.39573669e+00"/>
    <Variable VarIndex="5" Expression="cljet_pt" Label="cljet_pt" Title="close jet p_{T}" Unit="GeV/c" Internal="cljet_pt" Type="F" Min="3.00099163e+01" Max="3.98448657e+03"/>
    <Variable VarIndex="6" Expression="cljet_eta" Label="cljet_eta" Title="close jet #eta" Unit="" Internal="cljet_eta" Type="F" Min="-2.39969826e+00" Max="2.39954829e+00"/>
    <Variable VarIndex="7" Expression="dPhi_lep_cljet" Label="dPhi_lep_cljet" Title="#Delta#phi(lep, close jet)" Unit="rad" Internal="dPhi_lep_cljet" Type="F" Min="3.09944153e-06" Max="3.14156246e+00"/>
    <Variable VarIndex="8" Expression="dPhi_lep_ljet" Label="dPhi_lep_ljet" Title="#Delta#phi(lep, lead jet)" Unit="rad" Internal="dPhi_lep_ljet" Type="F" Min="4.17232513e-06" Max="3.14159179e+00"/>
    <Variable VarIndex="9" Expression="dPhi_met_lep" Label="dPhi_met_lep" Title="#Delta#phi(MET, lep)" Unit="rad" Internal="dPhi_met_lep" Type="F" Min="2.38418579e-05" Max="3.14154959e+00"/>
    <Variable VarIndex="10" Expression="dPhi_met_cljet" Label="dPhi_met_cljet" Title="#Delta#phi(MET, close jet)" Unit="rad" Internal="dPhi_met_cljet" Type="F" Min="3.15904617e-06" Max="3.14147878e+00"/>
    <Variable VarIndex="11" Expression="dPhi_met_ljet" Label="dPhi_met_ljet" Title="#Delta#phi(MET, lead jet)" Unit="rad" Internal="dPhi_met_ljet" Type="F" Min="1.52848661e-04" Max="3.14159036e+00"/>
    <Variable VarIndex="12" Expression="dR_lep_cljet" Label="dR_lep_cljet" Title="#Delta R(lep, close jet)" Unit="" Internal="dR_lep_cljet" Type="F" Min="1.82680989e-04" Max="5.27511740e+00"/>
    <Variable VarIndex="13" Expression="dR_lep_ljet" Label="dR_lep_ljet" Title="#Delta R(lep, lead jet)" Unit="" Internal="dR_lep_ljet" Type="F" Min="1.36963121e-04" Max="5.34935522e+00"/>
    <Variable VarIndex="14" Expression="dR_cljet_ljet" Label="dR_cljet_ljet" Title="#Delta R(close jet, lead jet)" Unit="" Internal="dR_cljet_ljet" Type="F" Min="2.26986647e-01" Max="5.34697247e+00"/>
    <Variable VarIndex="15" Expression="dPhi_cljet_ljet" Label="dPhi_cljet_ljet" Title="#Delta #phi(close jet, lead jet)" Unit="" Internal="dPhi_cljet_ljet" Type="F" Min="9.70363617e-05" Max="3.14158916e+00"/>
    <Variable VarIndex="16" Expression="lep_pt_cljet" Label="lep_pt_cljet" Title="p_{T, rel}(lep, close jet)" Unit="GeV/c" Internal="lep_pt_cljet" Type="F" Min="1.43225938e-02" Max="3.73928491e+03"/>
    <Variable VarIndex="17" Expression="lep_pt_ljet" Label="lep_pt_ljet" Title="p_{T, rel}(lep, lead jet)" Unit="GeV/c" Internal="lep_pt_ljet" Type="F" Min="1.10077105e-01" Max="3.40297778e+03"/>
    <Variable VarIndex="18" Expression="ljet_pt_cljet" Label="ljet_pt_cljet" Title="p_{T, rel}(lead jet, close jet)" Unit="GeV/c" Internal="ljet_pt_cljet" Type="F" Min="4.28116417e+00" Max="4.62407910e+03"/>
    <Variable VarIndex="19" Expression="cljet_pt_ljet" Label="cljet_pt_ljet" Title="p_{T, rel}(close jet, lead jet)" Unit="GeV/c" Internal="cljet_pt_ljet" Type="F" Min="4.40500945e-01" Max="4.09275146e+03"/>
  </Variables>
  <Spectators NSpec="2">
    <Spectator SpecIndex="0" Expression="jet_n" Label="jet_n" Title="number of jets in event" Unit="" Internal="jet_n" Type="F" Min="2.00000000e+00" Max="1.40000000e+01"/>
    <Spectator SpecIndex="1" Expression="met_phi" Label="met_phi" Title="MET #phi" Unit="rad" Internal="met_phi" Type="F" Min="-3.14158678e+00" Max="3.14146304e+00"/>
  </Spectators>
  <Classes NClass="2">
    <Class Name="Signal" Index="0"/>
    <Class Name="Background" Index="1"/>
  </Classes>
  <Transformations NTransformations="0"/>
  <MVAPdfs>
    <PDF Name="BDT_PDFSig" MinNSmooth="0" MaxNSmooth="0" InterpolMethod="2" KDE_type="1" KDE_iter="1" KDE_border="1" KDE_finefactor="1.0000000000000000e+00">
      <Histogram Name="BDT_tr_S_original" NBins="854" XMin="-9.2826002836227417e-01" XMax="1.0000000000000000e+00" HasEquidistantBins="1">
        0.00000000e+00 0.00000000e+00 0.00000000e+00 0.00000000e+00 0.00000000e+00 0.00000000e+00 0.00000000e+00 0.00000000e+00 0.00000000e+00 0.00000000e+00 0.00000000e+00 0.00000000e+00 0.00000000e+00 0.00000000e+00 0.00000000e+00 0.00000000e+00 0.00000000e+00 0.00000000e+00 0.00000000e+00 0.00000000e+00 0.00000000e+00 0.00000000e+00 0.00000000e+00 0.00000000e+00 0.00000000e+00 0.00000000e+00 0.00000000e+00 0.00000000e+00 0.00000000e+00 0.00000000e+00 0.00000000e+00 0.00000000e+00 0.00000000e+00 0.00000000e+00 0.00000000e+00 0.00000000e+00 0.00000000e+00 0.00000000e+00 0.00000000e+00 0.00000000e+00 0.00000000e+00 0.00000000e+00 0.00000000e+00 0.00000000e+00 0.00000000e+00 0.00000000e+00 0.00000000e+00 0.00000000e+00 0.00000000e+00 0.00000000e+00 0.00000000e+00 0.00000000e+00 0.00000000e+00 0.00000000e+00 0.00000000e+00 0.00000000e+00 0.00000000e+00 0.00000000e+00 0.00000000e+00 0.00000000e+00 0.00000000e+00 0.00000000e+00 0.00000000e+00 0.00000000e+00 0.00000000e+00 0.00000000e+00 0.00000000e+00 0.00000000e+00 0.00000000e+00 0.00000000e+00 0.00000000e+00 0.00000000e+00 0.00000000e+00 0.00000000e+00 0.00000000e+00 0.00000000e+00 0.00000000e+00 0.00000000e+00 0.00000000e+00 0.00000000e+00 0.00000000e+00 0.00000000e+00 0.00000000e+00 0.00000000e+00 0.00000000e+00 0.00000000e+00 0.00000000e+00 0.00000000e+00 0.00000000e+00 0.00000000e+00 0.00000000e+00 0.00000000e+00 0.00000000e+00 0.00000000e+00 0.00000000e+00 0.00000000e+00 0.00000000e+00 0.00000000e+00 0.00000000e+00 0.00000000e+00 0.00000000e+00 0.00000000e+00 0.00000000e+00 0.00000000e+00 0.00000000e+00 0.00000000e+00 0.00000000e+00 0.00000000e+00 0.00000000e+00 0.00000000e+00 0.00000000e+00 0.00000000e+00 0.00000000e+00 0.00000000e+00 0.00000000e+00 0.00000000e+00 0.00000000e+00 0.00000000e+00 0.00000000e+00 0.00000000e+00 0.00000000e+00 0.00000000e+00 0.00000000e+00 0.00000000e+00 0.00000000e+00 0.00000000e+00 0.00000000e+00 0.00000000e+00 0.00000000e+00 0.00000000e+00 0.00000000e+00 0.00000000e+00 0.00000000e+00 0.00000000e+00 0.00000000e+00 0.00000000e+00 0.00000000e+00 0.00000000e+00 0.00000000e+00 0.00000000e+00 0.00000000e+00 0.00000000e+00 0.00000000e+00 0.00000000e+00 0.00000000e+00 0.00000000e+00 0.00000000e+00 0.00000000e+00 0.00000000e+00 0.00000000e+00 0.00000000e+00 0.00000000e+00 0.00000000e+00 0.00000000e+00 0.00000000e+00 0.00000000e+00 0.00000000e+00 0.00000000e+00 0.00000000e+00 1.28291039e-02 0.00000000e+00 0.00000000e+00 0.00000000e+00 0.00000000e+00 0.00000000e+00 0.00000000e+00 0.00000000e+00 0.00000000e+00 0.00000000e+00 1.28291039e-02 0.00000000e+00 1.28291039e-02 1.28291039e-02 0.00000000e+00 0.00000000e+00 0.00000000e+00 0.00000000e+00 0.00000000e+00 0.00000000e+00 1.28291039e-02 0.00000000e+00 1.28291039e-02 0.00000000e+00 0.00000000e+00 0.00000000e+00 0.00000000e+00 0.00000000e+00 0.00000000e+00 2.56582079e-02 0.00000000e+00 0.00000000e+00 0.00000000e+00 0.00000000e+00 0.00000000e+00 0.00000000e+00 0.00000000e+00 0.00000000e+00 0.00000000e+00 0.00000000e+00 0.00000000e+00 0.00000000e+00 0.00000000e+00 0.00000000e+00 0.00000000e+00 0.00000000e+00 0.00000000e+00 0.00000000e+00 0.00000000e+00 0.00000000e+00 1.28291039e-02 1.28291039e-02 1.28291039e-02 1.28291039e-02 1.28291039e-02 1.28291039e-02 0.00000000e+00 0.00000000e+00 0.00000000e+00 0.00000000e+00 1.28291039e-02 0.00000000e+00 1.28291039e-02 1.28291039e-02 0.00000000e+00 1.28291039e-02 0.00000000e+00 2.56582079e-02 1.28291039e-02 2.56582079e-02 2.56582079e-02 2.56582079e-02 1.28291039e-02 0.00000000e+00 0.00000000e+00 3.84873118e-02 3.84873118e-02 1.28291039e-02 5.13164158e-02 6.41455197e-02 2.56582079e-02 2.56582079e-02 1.28291039e-02 1.28291039e-02 0.00000000e+00 0.00000000e+00 0.00000000e+00 2.56582079e-02 0.00000000e+00 1.28291039e-02 0.00000000e+00 2.56582079e-02 1.28291039e-02 0.00000000e+00 1.28291039e-02 1.28291039e-02 1.28291039e-02 1.28291039e-02 2.56582079e-02 3.84873118e-02 1.28291039e-02 1.28291039e-02 1.28291039e-02 1.28291039e-02 0.00000000e+00 2.56582079e-02 5.13164158e-02 1.28291039e-02 2.56582079e-02 2.56582079e-02 1.28291039e-02 6.41455197e-02 1.28291039e-02 8.98037276e-02 6.41455197e-02 3.84873118e-02 0.00000000e+00 7.69746236e-02 0.00000000e+00 2.56582079e-02 2.56582079e-02 2.56582079e-02 5.13164158e-02 5.13164158e-02 1.28291039e-02 2.56582079e-02 1.28291039e-02 0.00000000e+00 0.00000000e+00 1.28291039e-02 1.15461935e-01 2.56582079e-02 1.28291039e-02 1.28291039e-02 2.56582079e-02 3.84873118e-02 3.84873118e-02 8.98037276e-02 3.84873118e-02 3.84873118e-02 1.28291039e-02 1.28291039e-02 8.98037276e-02 3.84873118e-02 5.13164158e-02 6.41455197e-02 2.56582079e-02 1.28291039e-02 8.98037276e-02 3.84873118e-02 1.28291039e-02 2.56582079e-02 6.41455197e-02 0.00000000e+00 3.84873118e-02 1.28291039e-02 6.41455197e-02 5.13164158e-02 6.41455197e-02 5.13164158e-02 1.02632832e-01 2.56582079e-02 2.56582079e-02 2.56582079e-02 1.02632832e-01 5.13164158e-02 2.56582079e-02 6.41455197e-02 3.84873118e-02 5.13164158e-02 5.13164158e-02 2.56582079e-02 7.69746236e-02 3.84873118e-02 0.00000000e+00 1.15461935e-01 3.84873118e-02 3.84873118e-02 6.41455197e-02 7.69746236e-02 2.56582079e-02 1.28291039e-02 3.84873118e-02 6.41455197e-02 1.28291039e-01 7.69746236e-02 5.13164158e-02 5.13164158e-02 3.84873118e-02 5.13164158e-02 7.69746236e-02 5.13164158e-02 3.84873118e-02 1.02632832e-01 5.13164158e-02 7.69746236e-02 3.84873118e-02 8.98037276e-02 1.02632832e-01 7.69746236e-02 5.13164158e-02 6.41455197e-02 1.28291039e-02 5.13164158e-02 5.13164158e-02 3.84873118e-02 6.41455197e-02 1.15461935e-01 2.30923871e-01 5.13164158e-02 6.41455197e-02 1.79607455e-01 8.98037276e-02 8.98037276e-02 7.69746236e-02 1.02632832e-01 8.98037276e-02 6.41455197e-02 1.15461935e-01 7.69746236e-02 1.02632832e-01 1.02632832e-01 1.28291039e-01 1.41120143e-01 1.15461935e-01 1.66778351e-01 1.15461935e-01 5.13164158e-02 1.02632832e-01 1.15461935e-01 1.02632832e-01 1.53949247e-01 1.92436559e-01 1.41120143e-01 1.28291039e-01 1.92436559e-01 1.28291039e-01 1.41120143e-01 2.05265663e-01 8.98037276e-02 1.28291039e-01 2.69411183e-01 1.53949247e-01 1.66778351e-01 2.30923871e-01 1.28291039e-01 2.18094767e-01 1.41120143e-01 1.28291039e-01 7.69746236e-02 1.53949247e-01 2.30923871e-01 1.66778351e-01 1.66778351e-01 2.69411183e-01 1.79607455e-01 1.79607455e-01 1.79607455e-01 1.92436559e-01 2.95069391e-01 1.15461935e-01 2.30923871e-01 1.02632832e-01 2.69411183e-01 2.05265663e-01 1.79607455e-01 3.33556702e-01 2.18094767e-01 2.18094767e-01 1.41120143e-01 1.79607455e-01 2.56582079e-01 2.95069391e-01 2.69411183e-01 2.18094767e-01 2.43752975e-01 2.18094767e-01 1.53949247e-01 1.79607455e-01 2.30923871e-01 2.56582079e-01 2.05265663e-01 2.95069391e-01 2.56582079e-01 2.18094767e-01 2.05265663e-01 1.66778351e-01 3.20727599e-01 2.43752975e-01 2.82240287e-01 3.59214910e-01 3.07898495e-01 3.07898495e-01 3.07898495e-01 2.95069391e-01 2.18094767e-01 2.95069391e-01 3.59214910e-01 2.18094767e-01 2.69411183e-01 3.07898495e-01 3.33556702e-01 3.20727599e-01 2.43752975e-01 3.59214910e-01 4.10531326e-01 3.20727599e-01 3.72044014e-01 3.72044014e-01 2.95069391e-01 4.23360430e-01 4.36189534e-01 3.84873118e-01 3.20727599e-01 2.30923871e-01 3.20727599e-01 4.61847742e-01 3.07898495e-01 2.43752975e-01 4.74676846e-01 2.82240287e-01 3.46385806e-01 4.74676846e-01 4.74676846e-01 5.25993262e-01 4.36189534e-01 4.36189534e-01 3.59214910e-01 3.84873118e-01 4.87505950e-01 3.72044014e-01 3.07898495e-01 3.97702222e-01 3.20727599e-01 3.33556702e-01 4.49018638e-01 2.95069391e-01 4.23360430e-01 2.95069391e-01 2.69411183e-01 4.61847742e-01 4.49018638e-01 5.38822366e-01 3.07898495e-01 2.95069391e-01 4.23360430e-01 4.61847742e-01 4.10531326e-01 5.25993262e-01 5.00335054e-01 6.15796989e-01 6.67113405e-01 3.97702222e-01 5.77309677e-01 4.74676846e-01 5.00335054e-01 4.36189534e-01 4.23360430e-01 3.84873118e-01 4.61847742e-01 5.00335054e-01 5.38822366e-01 5.00335054e-01 4.74676846e-01 5.51651469e-01 4.87505950e-01 6.15796989e-01 5.25993262e-01 4.74676846e-01 6.54284301e-01 5.51651469e-01 6.41455197e-01 5.25993262e-01 7.44088029e-01 5.77309677e-01 7.56917133e-01 5.38822366e-01 5.25993262e-01 6.92771613e-01 7.18429821e-01 5.90138781e-01 5.25993262e-01 7.95404444e-01 8.33891756e-01 7.82575340e-01 8.85208172e-01 6.67113405e-01 8.08233548e-01 8.85208172e-01 6.02967885e-01 7.31258925e-01 7.05600717e-01 7.05600717e-01 5.90138781e-01 1.02632832e+00 7.44088029e-01 6.54284301e-01 7.69746236e-01 6.41455197e-01 8.33891756e-01 5.90138781e-01 9.49353692e-01 6.92771613e-01 9.75011899e-01 7.82575340e-01 6.79942509e-01 7.69746236e-01 5.25993262e-01 7.69746236e-01 7.95404444e-01 9.62182796e-01 8.21062652e-01 9.62182796e-01 8.08233548e-01 8.33891756e-01 7.56917133e-01 1.02632832e+00 7.44088029e-01 7.18429821e-01 7.69746236e-01 7.31258925e-01 8.59549964e-01 6.41455197e-01 9.23695484e-01 6.54284301e-01 9.87841003e-01 8.08233548e-01 9.87841003e-01 6.92771613e-01 8.85208172e-01 8.85208172e-01 1.23159398e+00 7.31258925e-01 8.72379068e-01 9.62182796e-01 1.10330294e+00 9.36524588e-01 6.79942509e-01 8.72379068e-01 9.75011899e-01 9.23695484e-01 9.23695484e-01 6.54284301e-01 7.69746236e-01 1.10330294e+00 1.10330294e+00 8.72379068e-01 8.08233548e-01 6.41455197e-01 1.03915742e+00 1.03915742e+00 9.62182796e-01 7.31258925e-01 9.87841003e-01 1.15461935e+00 1.23159398e+00 9.23695484e-01 8.72379068e-01 1.03915742e+00 8.72379068e-01 9.87841003e-01 8.46720860e-01 9.10866380e-01 1.06481563e+00 7.44088029e-01 9.75011899e-01 9.87841003e-01 9.36524588e-01 1.24442308e+00 1.07764473e+00 9.36524588e-01 9.23695484e-01 9.10866380e-01 1.14179025e+00 8.72379068e-01 9.10866380e-01 1.11613204e+00 9.10866380e-01 9.75011899e-01 1.06481563e+00 1.03915742e+00 1.21876487e+00 8.72379068e-01 7.95404444e-01 9.62182796e-01 1.03915742e+00 1.12896115e+00 9.10866380e-01 1.19310667e+00 8.21062652e-01 1.02632832e+00 9.36524588e-01 1.12896115e+00 1.27008129e+00 9.23695484e-01 1.10330294e+00 1.21876487e+00 1.19310667e+00 9.10866380e-01 1.25725219e+00 1.07764473e+00 8.85208172e-01 1.33422681e+00 1.23159398e+00 1.01349921e+00 1.33422681e+00 1.12896115e+00 1.50100516e+00 9.36524588e-01 9.87841003e-01 1.03915742e+00 1.64212530e+00 1.11613204e+00 1.01349921e+00 1.09047383e+00 1.33422681e+00 1.15461935e+00 1.20593577e+00 1.01349921e+00 1.21876487e+00 1.23159398e+00 1.27008129e+00 9.87841003e-01 1.23159398e+00 1.24442308e+00 1.47534695e+00 1.37271412e+00 8.33891756e-01 1.14179025e+00 1.65495441e+00 1.09047383e+00 1.60363799e+00 1.19310667e+00 1.48817606e+00 1.15461935e+00 1.59080889e+00 1.33422681e+00 1.07764473e+00 1.32139771e+00 1.28291039e+00 1.09047383e+00 1.50100516e+00 1.38554323e+00 1.44968875e+00 1.65495441e+00 1.21876487e+00 1.11613204e+00 1.27008129e+00 1.84739097e+00 1.25725219e+00 1.28291039e+00 1.44968875e+00 9.23695484e-01 1.16744846e+00 1.75758724e+00 1.12896115e+00 1.29573950e+00 1.78324545e+00 1.30856860e+00 1.05198652e+00 1.48817606e+00 1.34705591e+00 1.42403054e+00 1.39837233e+00 1.57797978e+00 1.14179025e+00 1.25725219e+00 1.30856860e+00 1.34705591e+00 1.59080889e+00 1.52666337e+00 1.68061262e+00 1.47534695e+00 1.25725219e+00 1.43685964e+00 1.57797978e+00 1.32139771e+00 1.29573950e+00 1.55232158e+00 1.69344172e+00 1.64212530e+00 9.10866380e-01 1.52666337e+00 1.46251785e+00 1.75758724e+00 1.55232158e+00 1.42403054e+00 1.43685964e+00 1.50100516e+00 1.79607455e+00 1.39837233e+00 1.14179025e+00 9.87841003e-01 1.57797978e+00 1.92436559e+00 1.33422681e+00 1.56515068e+00 1.11613204e+00 1.69344172e+00 1.53949247e+00 1.53949247e+00 1.55232158e+00 1.12896115e+00 1.61646710e+00 1.75758724e+00 1.12896115e+00 1.60363799e+00 2.24509319e+00 1.48817606e+00 1.07764473e+00 1.02632832e+00 2.02699842e+00 1.87304918e+00 1.86022007e+00 1.16744846e+00 1.28291039e+00 2.19377677e+00 1.96285290e+00 1.50100516e+00 1.98851111e+00 1.37271412e+00 1.03915742e+00 1.33422681e+00 1.55232158e+00 1.19310667e+00 1.74475814e+00 1.03915742e+00 2.45035885e+00 1.21876487e+00 1.91153649e+00 1.55232158e+00 2.96352301e+00 1.62929620e+00 1.07764473e+00 1.46251785e+00 2.16811857e+00 9.49353692e-01 1.18027756e+00 1.55232158e+00 1.14179025e+00 2.36055513e+00 2.19377677e+00 2.57864989e+00 9.23695484e-01 1.56515068e+00 7.69746236e-01 1.03915742e+00 2.62996631e+00 2.82240287e+00 1.74475814e+00 4.01550953e+00 1.37271412e+00 1.18027756e+00 1.41120143e+00 8.33891756e-01 5.13164158e-01 2.03982753e+00 1.89870738e+00 1.68061262e+00 1.98851111e+00 2.23226409e+00 1.02632832e+00 1.23159398e+00 3.47668717e+00 4.23360430e-01 2.16811857e+00 1.70627082e+00 2.69411183e-01 1.02632832e-01 2.91220659e+00 3.33556702e-01 5.77309677e-01 3.47668717e+00 7.87706982e+00 3.84873118e-02 6.15796989e-01 5.13164158e-01 0.00000000e+00 5.77309677e-01 5.13164158e-02 0.00000000e+00 2.56582079e-02 1.31241733e+01 0.00000000e+00 1.92436559e-01 8.85208172e-01 1.59080889e+00 0.00000000e+00 0.00000000e+00 0.00000000e+00 0.00000000e+00 0.00000000e+00 0.00000000e+00 0.00000000e+00 0.00000000e+00 
      </Histogram>
    </PDF>
    <PDF Name="BDT_PDFBkg" MinNSmooth="0" MaxNSmooth="0" InterpolMethod="2" KDE_type="1" KDE_iter="1" KDE_border="1" KDE_finefactor="1.0000000000000000e+00">
      <Histogram Name="BDT_tr_B_original" NBins="854" XMin="-9.2826002836227417e-01" XMax="1.0000000000000000e+00" HasEquidistantBins="1">
        5.52778740e-02 0.00000000e+00 0.00000000e+00 0.00000000e+00 0.00000000e+00 0.00000000e+00 0.00000000e+00 0.00000000e+00 0.00000000e+00 0.00000000e+00 0.00000000e+00 0.00000000e+00 0.00000000e+00 0.00000000e+00 0.00000000e+00 0.00000000e+00 0.00000000e+00 0.00000000e+00 5.52778740e-02 1.10555748e-01 0.00000000e+00 1.10555748e-01 0.00000000e+00 0.00000000e+00 0.00000000e+00 0.00000000e+00 0.00000000e+00 0.00000000e+00 0.00000000e+00 5.52778740e-02 0.00000000e+00 0.00000000e+00 0.00000000e+00 5.52778740e-02 5.52778740e-02 0.00000000e+00 2.76389370e-01 0.00000000e+00 0.00000000e+00 0.00000000e+00 0.00000000e+00 0.00000000e+00 0.00000000e+00 0.00000000e+00 0.00000000e+00 2.21111496e-01 1.10555748e-01 0.00000000e+00 5.52778740e-02 1.10555748e-01 5.52778740e-02 5.52778740e-02 1.65833622e-01 3.31667244e-01 0.00000000e+00 0.00000000e+00 5.52778740e-02 5.52778740e-02 0.00000000e+00 1.65833622e-01 0.00000000e+00 5.52778740e-02 1.65833622e-01 2.76389370e-01 1.10555748e-01 5.52778740e-02 1.10555748e-01 5.52778740e-02 3.31667244e-01 5.52778740e-02 5.52778740e-02 3.31667244e-01 1.10555748e-01 5.52778740e-02 3.31667244e-01 1.65833622e-01 4.42222992e-01 0.00000000e+00 5.52778740e-01 5.52778740e-02 1.65833622e-01 1.65833622e-01 0.00000000e+00 7.18612362e-01 2.21111496e-01 3.31667244e-01 5.52778740e-02 1.65833622e-01 0.00000000e+00 9.39723857e-01 1.10555748e-01 0.00000000e+00 5.52778740e-01 4.42222992e-01 5.52778740e-02 2.21111496e-01 2.21111496e-01 2.76389370e-01 3.86945118e-01 0.00000000e+00 1.10555748e-01 7.73890236e-01 4.97500866e-01 6.63334488e-01 2.76389370e-01 6.08056614e-01 3.86945118e-01 3.31667244e-01 2.76389370e-01 3.31667244e-01 5.52778740e-01 3.86945118e-01 8.84445984e-01 4.97500866e-01 4.97500866e-01 8.84445984e-01 4.97500866e-01 6.08056614e-01 2.76389370e-01 4.97500866e-01 3.31667244e-01 9.39723857e-01 6.63334488e-01 2.76389370e-01 6.08056614e-01 6.08056614e-01 4.42222992e-01 1.05027961e+00 7.18612362e-01 4.97500866e-01 6.08056614e-01 6.08056614e-01 5.52778740e-01 6.08056614e-01 4.97500866e-01 1.10555748e+00 1.10555748e+00 8.84445984e-01 8.84445984e-01 5.52778740e-01 4.97500866e-01 1.21611323e+00 7.73890236e-01 6.63334488e-01 6.63334488e-01 4.42222992e-01 7.73890236e-01 1.10555748e+00 2.21111496e-01 7.73890236e-01 1.16083535e+00 1.16083535e+00 8.29168110e-01 7.73890236e-01 1.21611323e+00 8.29168110e-01 1.32666898e+00 5.52778740e-01 8.29168110e-01 7.18612362e-01 1.49250260e+00 9.39723857e-01 7.73890236e-01 1.16083535e+00 9.39723857e-01 1.71361409e+00 1.99000346e+00 6.63334488e-01 1.38194685e+00 1.10555748e+00 1.16083535e+00 9.39723857e-01 1.21611323e+00 1.27139110e+00 1.32666898e+00 1.54778047e+00 9.39723857e-01 1.43722472e+00 4.97500866e-01 1.87944771e+00 9.39723857e-01 1.99000346e+00 4.97500866e-01 1.05027961e+00 1.21611323e+00 1.16083535e+00 1.60305835e+00 1.38194685e+00 1.16083535e+00 1.32666898e+00 1.05027961e+00 9.95001731e-01 1.27139110e+00 1.65833622e+00 8.84445984e-01 8.84445984e-01 7.18612362e-01 2.92972732e+00 2.10055921e+00 1.21611323e+00 1.43722472e+00 1.38194685e+00 1.54778047e+00 1.38194685e+00 9.39723857e-01 9.95001731e-01 9.95001731e-01 1.16083535e+00 7.73890236e-01 1.10555748e+00 1.16083535e+00 3.26139456e+00 1.43722472e+00 1.76889197e+00 9.39723857e-01 2.87444945e+00 1.10555748e+00 1.76889197e+00 1.43722472e+00 1.16083535e+00 1.32666898e+00 9.95001731e-01 1.65833622e+00 1.10555748e+00 1.99000346e+00 1.16083535e+00 2.21111496e+00 1.43722472e+00 1.43722472e+00 1.93472559e+00 2.04528134e+00 1.93472559e+00 1.10555748e+00 1.27139110e+00 1.54778047e+00 1.21611323e+00 1.27139110e+00 1.10555748e+00 1.27139110e+00 1.54778047e+00 1.87944771e+00 1.87944771e+00 1.27139110e+00 1.27139110e+00 1.87944771e+00 1.32666898e+00 1.32666898e+00 1.87944771e+00 1.43722472e+00 1.10555748e+00 1.71361409e+00 1.82416984e+00 1.38194685e+00 8.29168110e-01 2.04528134e+00 1.27139110e+00 1.16083535e+00 9.95001731e-01 1.38194685e+00 1.60305835e+00 1.49250260e+00 1.16083535e+00 1.54778047e+00 1.60305835e+00 1.65833622e+00 1.10555748e+00 1.87944771e+00 1.54778047e+00 1.60305835e+00 1.27139110e+00 1.10555748e+00 1.93472559e+00 1.27139110e+00 2.48750433e+00 2.81917157e+00 1.65833622e+00 1.54778047e+00 1.32666898e+00 2.15583708e+00 1.65833622e+00 1.43722472e+00 1.38194685e+00 1.21611323e+00 1.54778047e+00 8.29168110e-01 9.39723857e-01 1.54778047e+00 1.87944771e+00 1.27139110e+00 1.32666898e+00 1.49250260e+00 1.27139110e+00 1.32666898e+00 1.54778047e+00 1.27139110e+00 1.38194685e+00 8.84445984e-01 1.49250260e+00 1.76889197e+00 1.21611323e+00 1.27139110e+00 8.84445984e-01 1.38194685e+00 1.54778047e+00 1.43722472e+00 1.16083535e+00 1.27139110e+00 1.32666898e+00 1.16083535e+00 1.65833622e+00 1.54778047e+00 1.21611323e+00 1.60305835e+00 1.49250260e+00 1.21611323e+00 1.10555748e+00 1.10555748e+00 1.16083535e+00 9.39723857e-01 1.16083535e+00 1.49250260e+00 1.82416984e+00 1.93472559e+00 1.10555748e+00 1.05027961e+00 1.05027961e+00 1.05027961e+00 1.32666898e+00 1.27139110e+00 1.49250260e+00 9.39723857e-01 1.38194685e+00 6.08056614e-01 1.21611323e+00 1.05027961e+00 9.39723857e-01 1.76889197e+00 1.16083535e+00 1.49250260e+00 1.16083535e+00 8.84445984e-01 9.39723857e-01 1.27139110e+00 1.21611323e+00 1.71361409e+00 5.52778740e-01 9.95001731e-01 7.73890236e-01 8.84445984e-01 1.49250260e+00 8.29168110e-01 1.05027961e+00 1.21611323e+00 7.73890236e-01 1.05027961e+00 9.39723857e-01 7.18612362e-01 1.05027961e+00 8.84445984e-01 1.38194685e+00 8.29168110e-01 8.29168110e-01 7.18612362e-01 9.95001731e-01 9.95001731e-01 9.95001731e-01 7.73890236e-01 1.32666898e+00 8.84445984e-01 1.05027961e+00 1.16083535e+00 1.10555748e+00 8.84445984e-01 8.29168110e-01 8.29168110e-01 7.18612362e-01 8.29168110e-01 1.05027961e+00 9.95001731e-01 1.05027961e+00 9.39723857e-01 8.84445984e-01 6.63334488e-01 1.16083535e+00 9.95001731e-01 1.16083535e+00 1.05027961e+00 1.16083535e+00 7.18612362e-01 9.39723857e-01 1.10555748e+00 1.05027961e+00 7.18612362e-01 8.29168110e-01 4.97500866e-01 8.29168110e-01 1.21611323e+00 8.29168110e-01 7.73890236e-01 6.08056614e-01 1.10555748e+00 9.95001731e-01 4.97500866e-01 9.95001731e-01 3.86945118e-01 6.08056614e-01 6.63334488e-01 6.08056614e-01 7.18612362e-01 8.29168110e-01 8.84445984e-01 8.29168110e-01 2.76389370e-01 8.84445984e-01 7.73890236e-01 4.42222992e-01 6.63334488e-01 8.84445984e-01 6.63334488e-01 9.39723857e-01 6.08056614e-01 3.31667244e-01 6.08056614e-01 6.08056614e-01 6.08056614e-01 6.08056614e-01 8.84445984e-01 3.31667244e-01 6.08056614e-01 5.52778740e-01 7.18612362e-01 6.63334488e-01 6.63334488e-01 1.10555748e+00 4.42222992e-01 8.29168110e-01 4.97500866e-01 6.08056614e-01 6.63334488e-01 5.52778740e-01 4.97500866e-01 7.18612362e-01 5.52778740e-01 5.52778740e-01 7.18612362e-01 5.52778740e-01 5.52778740e-01 4.97500866e-01 4.42222992e-01 4.97500866e-01 4.42222992e-01 5.52778740e-01 2.76389370e-01 3.86945118e-01 3.31667244e-01 6.63334488e-01 3.86945118e-01 3.31667244e-01 6.63334488e-01 3.31667244e-01 7.18612362e-01 7.18612362e-01 4.97500866e-01 4.42222992e-01 6.63334488e-01 7.18612362e-01 2.76389370e-01 3.31667244e-01 4.42222992e-01 6.08056614e-01 3.86945118e-01 6.63334488e-01 6.08056614e-01 5.52778740e-01 6.63334488e-01 4.42222992e-01 4.42222992e-01 3.31667244e-01 2.76389370e-01 4.42222992e-01 3.86945118e-01 5.52778740e-01 5.52778740e-01 2.21111496e-01 3.86945118e-01 4.42222992e-01 3.86945118e-01 3.86945118e-01 3.31667244e-01 2.21111496e-01 5.52778740e-01 3.86945118e-01 2.21111496e-01 2.76389370e-01 5.52778740e-01 2.21111496e-01 3.86945118e-01 2.21111496e-01 2.76389370e-01 2.21111496e-01 4.42222992e-01 2.76389370e-01 3.31667244e-01 7.18612362e-01 3.86945118e-01 6.63334488e-01 1.10555748e-01 4.97500866e-01 1.10555748e-01 5.52778740e-01 4.97500866e-01 3.31667244e-01 6.08056614e-01 4.97500866e-01 1.65833622e-01 6.08056614e-01 1.10555748e-01 4.97500866e-01 5.52778740e-02 5.52778740e-01 3.86945118e-01 2.76389370e-01 2.76389370e-01 4.42222992e-01 4.42222992e-01 3.86945118e-01 3.86945118e-01 2.21111496e-01 2.21111496e-01 2.76389370e-01 3.86945118e-01 4.97500866e-01 4.97500866e-01 1.65833622e-01 3.31667244e-01 2.76389370e-01 2.76389370e-01 4.42222992e-01 2.76389370e-01 2.76389370e-01 2.21111496e-01 1.65833622e-01 2.76389370e-01 1.65833622e-01 0.00000000e+00 1.10555748e-01 1.65833622e-01 1.10555748e-01 2.21111496e-01 3.31667244e-01 2.76389370e-01 2.76389370e-01 1.65833622e-01 2.76389370e-01 1.65833622e-01 5.52778740e-02 5.52778740e-02 1.65833622e-01 1.10555748e-01 4.42222992e-01 2.76389370e-01 2.21111496e-01 5.52778740e-02 2.76389370e-01 3.31667244e-01 3.31667244e-01 1.65833622e-01 2.21111496e-01 5.52778740e-02 2.21111496e-01 2.21111496e-01 2.21111496e-01 1.10555748e-01 1.65833622e-01 1.10555748e-01 2.76389370e-01 1.10555748e-01 1.10555748e-01 1.10555748e-01 3.31667244e-01 1.65833622e-01 5.52778740e-02 2.21111496e-01 2.21111496e-01 5.52778740e-02 3.31667244e-01 5.52778740e-02 5.52778740e-02 1.65833622e-01 1.65833622e-01 0.00000000e+00 0.00000000e+00 1.65833622e-01 0.00000000e+00 5.52778740e-02 5.52778740e-02 1.10555748e-01 1.65833622e-01 0.00000000e+00 1.10555748e-01 2.21111496e-01 1.10555748e-01 0.00000000e+00 0.00000000e+00 1.65833622e-01 1.65833622e-01 5.52778740e-02 1.10555748e-01 5.52778740e-02 1.10555748e-01 1.65833622e-01 2.76389370e-01 5.52778740e-02 1.65833622e-01 1.65833622e-01 5.52778740e-02 5.52778740e-02 5.52778740e-02 5.52778740e-02 1.10555748e-01 5.52778740e-02 0.00000000e+00 1.65833622e-01 5.52778740e-02 5.52778740e-02 1.10555748e-01 1.10555748e-01 0.00000000e+00 5.52778740e-02 0.00000000e+00 5.52778740e-02 1.10555748e-01 5.52778740e-02 1.65833622e-01 5.52778740e-02 0.00000000e+00 5.52778740e-02 0.00000000e+00 5.52778740e-02 0.00000000e+00 1.10555748e-01 1.65833622e-01 1.65833622e-01 1.10555748e-01 1.10555748e-01 0.00000000e+00 5.52778740e-02 0.00000000e+00 5.52778740e-02 0.00000000e+00 5.52778740e-02 0.00000000e+00 1.10555748e-01 1.65833622e-01 1.10555748e-01 1.10555748e-01 5.52778740e-02 5.52778740e-02 0.00000000e+00 1.65833622e-01 1.10555748e-01 5.52778740e-02 5.52778740e-02 0.00000000e+00 5.52778740e-02 0.00000000e+00 0.00000000e+00 0.00000000e+00 0.00000000e+00 0.00000000e+00 5.52778740e-02 1.10555748e-01 1.65833622e-01 0.00000000e+00 1.10555748e-01 5.52778740e-02 5.52778740e-02 0.00000000e+00 0.00000000e+00 0.00000000e+00 5.52778740e-02 0.00000000e+00 5.52778740e-02 5.52778740e-02 0.00000000e+00 5.52778740e-02 0.00000000e+00 0.00000000e+00 5.52778740e-02 0.00000000e+00 5.52778740e-02 0.00000000e+00 0.00000000e+00 0.00000000e+00 5.52778740e-02 0.00000000e+00 1.10555748e-01 5.52778740e-02 0.00000000e+00 0.00000000e+00 0.00000000e+00 0.00000000e+00 5.52778740e-02 0.00000000e+00 0.00000000e+00 5.52778740e-02 0.00000000e+00 0.00000000e+00 0.00000000e+00 0.00000000e+00 0.00000000e+00 0.00000000e+00 0.00000000e+00 5.52778740e-02 5.52778740e-02 5.52778740e-02 0.00000000e+00 0.00000000e+00 0.00000000e+00 0.00000000e+00 0.00000000e+00 5.52778740e-02 0.00000000e+00 0.00000000e+00 0.00000000e+00 0.00000000e+00 0.00000000e+00 0.00000000e+00 5.52778740e-02 0.00000000e+00 0.00000000e+00 0.00000000e+00 0.00000000e+00 0.00000000e+00 0.00000000e+00 0.00000000e+00 0.00000000e+00 0.00000000e+00 5.52778740e-02 0.00000000e+00 5.52778740e-02 0.00000000e+00 0.00000000e+00 0.00000000e+00 0.00000000e+00 0.00000000e+00 0.00000000e+00 0.00000000e+00 0.00000000e+00 0.00000000e+00 0.00000000e+00 0.00000000e+00 0.00000000e+00 0.00000000e+00 0.00000000e+00 0.00000000e+00 0.00000000e+00 0.00000000e+00 0.00000000e+00 0.00000000e+00 0.00000000e+00 0.00000000e+00 0.00000000e+00 0.00000000e+00 0.00000000e+00 5.52778740e-02 0.00000000e+00 0.00000000e+00 0.00000000e+00 0.00000000e+00 0.00000000e+00 0.00000000e+00 0.00000000e+00 0.00000000e+00 0.00000000e+00 0.00000000e+00 0.00000000e+00 0.00000000e+00 0.00000000e+00 0.00000000e+00 0.00000000e+00 0.00000000e+00 0.00000000e+00 0.00000000e+00 0.00000000e+00 0.00000000e+00 0.00000000e+00 0.00000000e+00 0.00000000e+00 0.00000000e+00 0.00000000e+00 0.00000000e+00 0.00000000e+00 0.00000000e+00 0.00000000e+00 0.00000000e+00 0.00000000e+00 0.00000000e+00 0.00000000e+00 0.00000000e+00 0.00000000e+00 0.00000000e+00 0.00000000e+00 0.00000000e+00 0.00000000e+00 0.00000000e+00 0.00000000e+00 0.00000000e+00 0.00000000e+00 0.00000000e+00 0.00000000e+00 0.00000000e+00 0.00000000e+00 0.00000000e+00 0.00000000e+00 0.00000000e+00 0.00000000e+00 0.00000000e+00 0.00000000e+00 0.00000000e+00 0.00000000e+00 0.00000000e+00 0.00000000e+00 0.00000000e+00 0.00000000e+00 0.00000000e+00 0.00000000e+00 0.00000000e+00 0.00000000e+00 0.00000000e+00 0.00000000e+00 0.00000000e+00 0.00000000e+00 0.00000000e+00 0.00000000e+00 0.00000000e+00 0.00000000e+00 0.00000000e+00 0.00000000e+00 0.00000000e+00 0.00000000e+00 0.00000000e+00 0.00000000e+00 0.00000000e+00 0.00000000e+00 0.00000000e+00 0.00000000e+00 0.00000000e+00 0.00000000e+00 0.00000000e+00 0.00000000e+00 0.00000000e+00 0.00000000e+00 0.00000000e+00 
      </Histogram>
    </PDF>
  </MVAPdfs>
  <Weights NTrees="30" AnalysisType="0">
    <BinaryTree type="DecisionTree" boostWeight="9.9044084184060288e-01" itree="0">
      <Node pos="s" depth="0" NCoef="0" IVar="8" Cut="1.4960357546806335e-01" cType="0" res="-9.9000000000000000e+01" rms="0.0000000000000000e+00" purity="8.1257164478302002e-01" nType="0">
        <Node pos="l" depth="1" NCoef="0" IVar="17" Cut="9.7299157714843750e+02" cType="1" res="-9.9000000000000000e+01" rms="0.0000000000000000e+00" purity="8.6132270097732544e-01" nType="0">
          <Node pos="l" depth="2" NCoef="0" IVar="13" Cut="4.8541913032531738e+00" cType="1" res="-9.9000000000000000e+01" rms="0.0000000000000000e+00" purity="8.7783056497573853e-01" nType="0">
            <Node pos="l" depth="3" NCoef="0" IVar="0" Cut="1.3444992065429688e+02" cType="0" res="-9.9000000000000000e+01" rms="0.0000000000000000e+00" purity="8.7851309776306152e-01" nType="1"/>
            <Node pos="r" depth="3" NCoef="0" IVar="-1" Cut="0.0000000000000000e+00" cType="1" res="-9.9000000000000000e+01" rms="0.0000000000000000e+00" purity="4.4999998807907104e-01" nType="-1"/>
          </Node>
          <Node pos="r" depth="2" NCoef="0" IVar="0" Cut="2.1167869567871094e+02" cType="0" res="-9.9000000000000000e+01" rms="0.0000000000000000e+00" purity="3.3921074867248535e-01" nType="0">
            <Node pos="l" depth="3" NCoef="0" IVar="12" Cut="1.8090134859085083e-01" cType="0" res="-9.9000000000000000e+01" rms="0.0000000000000000e+00" purity="7.8838175535202026e-01" nType="0">
              <Node pos="l" depth="4" NCoef="0" IVar="-1" Cut="0.0000000000000000e+00" cType="1" res="-9.9000000000000000e+01" rms="0.0000000000000000e+00" purity="9.7058820724487305e-01" nType="1"/>
              <Node pos="r" depth="4" NCoef="0" IVar="-1" Cut="0.0000000000000000e+00" cType="1" res="-9.9000000000000000e+01" rms="0.0000000000000000e+00" purity="3.5211268067359924e-01" nType="-1"/>
            </Node>
            <Node pos="r" depth="3" NCoef="0" IVar="1" Cut="3.2647436523437500e+02" cType="1" res="-9.9000000000000000e+01" rms="0.0000000000000000e+00" purity="2.2526316344738007e-01" nType="-1"/>
          </Node>
        </Node>
        <Node pos="r" depth="1" NCoef="0" IVar="13" Cut="1.5349677205085754e-01" cType="0" res="-9.9000000000000000e+01" rms="0.0000000000000000e+00" purity="3.2518652081489563e-01" nType="0">
          <Node pos="l" depth="2" NCoef="0" IVar="2" Cut="-1.7723740339279175e+00" cType="0" res="-9.9000000000000000e+01" rms="0.0000000000000000e+00" purity="9.0146338939666748e-01" nType="1"/>
          <Node pos="r" depth="2" NCoef="0" IVar="13" Cut="7.3155127465724945e-02" cType="0" res="-9.9000000000000000e+01" rms="0.0000000000000000e+00" purity="1.1879803985357285e-01" nType="0">
            <Node pos="l" depth="3" NCoef="0" IVar="4" Cut="1.2856844663619995e+00" cType="1" res="-9.9000000000000000e+01" rms="0.0000000000000000e+00" purity="7.0762711763381958e-01" nType="0">
              <Node pos="l" depth="4" NCoef="0" IVar="-1" Cut="0.0000000000000000e+00" cType="1" res="-9.9000000000000000e+01" rms="0.0000000000000000e+00" purity="7.6190477609634399e-01" nType="1"/>
              <Node pos="r" depth="4" NCoef="0" IVar="-1" Cut="0.0000000000000000e+00" cType="1" res="-9.9000000000000000e+01" rms="0.0000000000000000e+00" purity="4.8936170339584351e-01" nType="-1"/>
            </Node>
            <Node pos="r" depth="3" NCoef="0" IVar="1" Cut="2.4340950012207031e+02" cType="1" res="-9.9000000000000000e+01" rms="0.0000000000000000e+00" purity="6.5879665315151215e-02" nType="-1"/>
          </Node>
        </Node>
      </Node>
    </BinaryTree>
    <BinaryTree type="DecisionTree" boostWeight="7.8379615303067296e-01" itree="1">
      <Node pos="s" depth="0" NCoef="0" IVar="2" Cut="1.5777651071548462e+00" cType="1" res="-9.9000000000000000e+01" rms="0.0000000000000000e+00" purity="6.8941926956176758e-01" nType="0">
        <Node pos="l" depth="1" NCoef="0" IVar="5" Cut="9.7156182861328125e+02" cType="1" res="-9.9000000000000000e+01" rms="0.0000000000000000e+00" purity="7.1515983343124390e-01" nType="0">
          <Node pos="l" depth="2" NCoef="0" IVar="12" Cut="2.3832207918167114e-01" cType="0" res="-9.9000000000000000e+01" rms="0.0000000000000000e+00" purity="7.3751926422119141e-01" nType="0">
            <Node pos="l" depth="3" NCoef="0" IVar="13" Cut="2.5199061632156372e-01" cType="0" res="-9.9000000000000000e+01" rms="0.0000000000000000e+00" purity="8.3276671171188354e-01" nType="0">
              <Node pos="l" depth="4" NCoef="0" IVar="-1" Cut="0.0000000000000000e+00" cType="1" res="-9.9000000000000000e+01" rms="0.0000000000000000e+00" purity="8.8558655977249146e-01" nType="1"/>
              <Node pos="r" depth="4" NCoef="0" IVar="-1" Cut="0.0000000000000000e+00" cType="1" res="-9.9000000000000000e+01" rms="0.0000000000000000e+00" purity="2.8779843449592590e-01" nType="-1"/>
            </Node>
            <Node pos="r" depth="3" NCoef="0" IVar="9" Cut="4.4864320755004883e-01" cType="1" res="-9.9000000000000000e+01" rms="0.0000000000000000e+00" purity="4.2263597249984741e-01" nType="0">
              <Node pos="l" depth="4" NCoef="0" IVar="-1" Cut="0.0000000000000000e+00" cType="1" res="-9.9000000000000000e+01" rms="0.0000000000000000e+00" purity="6.7024958133697510e-01" nType="1"/>
              <Node pos="r" depth="4" NCoef="0" IVar="-1" Cut="0.0000000000000000e+00" cType="1" res="-9.9000000000000000e+01" rms="0.0000000000000000e+00" purity="2.2981609404087067e-01" nType="-1"/>
            </Node>
          </Node>
          <Node pos="r" depth="2" NCoef="0" IVar="13" Cut="2.1715670824050903e-01" cType="0" res="-9.9000000000000000e+01" rms="0.0000000000000000e+00" purity="2.1000318229198456e-01" nType="-1"/>
        </Node>
        <Node pos="r" depth="1" NCoef="0" IVar="7" Cut="1.4958423376083374e-01" cType="0" res="-9.9000000000000000e+01" rms="0.0000000000000000e+00" purity="4.5122069120407104e-01" nType="0">
          <Node pos="l" depth="2" NCoef="0" IVar="8" Cut="2.3935971260070801e+00" cType="0" res="-9.9000000000000000e+01" rms="0.0000000000000000e+00" purity="5.6650561094284058e-01" nType="0">
            <Node pos="l" depth="3" NCoef="0" IVar="5" Cut="5.0736944580078125e+02" cType="1" res="-9.9000000000000000e+01" rms="0.0000000000000000e+00" purity="7.2188520431518555e-01" nType="0">
              <Node pos="l" depth="4" NCoef="0" IVar="-1" Cut="0.0000000000000000e+00" cType="1" res="-9.9000000000000000e+01" rms="0.0000000000000000e+00" purity="7.6679563522338867e-01" nType="1"/>
              <Node pos="r" depth="4" NCoef="0" IVar="-1" Cut="0.0000000000000000e+00" cType="1" res="-9.9000000000000000e+01" rms="0.0000000000000000e+00" purity="2.9294583201408386e-01" nType="-1"/>
            </Node>
            <Node pos="r" depth="3" NCoef="0" IVar="0" Cut="1.7700657653808594e+02" cType="0" res="-9.9000000000000000e+01" rms="0.0000000000000000e+00" purity="3.7591552734375000e-01" nType="0">
              <Node pos="l" depth="4" NCoef="0" IVar="-1" Cut="0.0000000000000000e+00" cType="1" res="-9.9000000000000000e+01" rms="0.0000000000000000e+00" purity="7.1096754074096680e-01" nType="1"/>
              <Node pos="r" depth="4" NCoef="0" IVar="-1" Cut="0.0000000000000000e+00" cType="1" res="-9.9000000000000000e+01" rms="0.0000000000000000e+00" purity="2.9299134016036987e-01" nType="-1"/>
            </Node>
          </Node>
          <Node pos="r" depth="2" NCoef="0" IVar="0" Cut="2.1168017578125000e+02" cType="0" res="-9.9000000000000000e+01" rms="0.0000000000000000e+00" purity="2.7270388603210449e-01" nType="0">
            <Node pos="l" depth="3" NCoef="0" IVar="3" Cut="8.5590484619140625e+02" cType="1" res="-9.9000000000000000e+01" rms="0.0000000000000000e+00" purity="7.2134172916412354e-01" nType="0">
              <Node pos="l" depth="4" NCoef="0" IVar="-1" Cut="0.0000000000000000e+00" cType="1" res="-9.9000000000000000e+01" rms="0.0000000000000000e+00" purity="8.7352776527404785e-01" nType="1"/>
              <Node pos="r" depth="4" NCoef="0" IVar="-1" Cut="0.0000000000000000e+00" cType="1" res="-9.9000000000000000e+01" rms="0.0000000000000000e+00" purity="4.5913571119308472e-01" nType="-1"/>
            </Node>
            <Node pos="r" depth="3" NCoef="0" IVar="3" Cut="3.6853378295898438e+02" cType="1" res="-9.9000000000000000e+01" rms="0.0000000000000000e+00" purity="2.0176725089550018e-01" nType="-1"/>
          </Node>
        </Node>
      </Node>
    </BinaryTree>
    <BinaryTree type="DecisionTree" boostWeight="5.4614702779007285e-01" itree="2">
      <Node pos="s" depth="0" NCoef="0" IVar="10" Cut="2.0943202972412109e+00" cType="1" res="-9.9000000000000000e+01" rms="0.0000000000000000e+00" purity="6.3668441772460938e-01" nType="0">
        <Node pos="l" depth="1" NCoef="0" IVar="9" Cut="1.1967049837112427e+00" cType="1" res="-9.9000000000000000e+01" rms="0.0000000000000000e+00" purity="7.0007038116455078e-01" nType="0">
          <Node pos="l" depth="2" NCoef="0" IVar="19" Cut="1.7274729003906250e+03" cType="1" res="-9.9000000000000000e+01" rms="0.0000000000000000e+00" purity="7.6805710792541504e-01" nType="0">
            <Node pos="l" depth="3" NCoef="0" IVar="0" Cut="1.2419859313964844e+02" cType="0" res="-9.9000000000000000e+01" rms="0.0000000000000000e+00" purity="7.7063941955566406e-01" nType="0">
              <Node pos="l" depth="4" NCoef="0" IVar="-1" Cut="0.0000000000000000e+00" cType="1" res="-9.9000000000000000e+01" rms="0.0000000000000000e+00" purity="9.0880465507507324e-01" nType="1"/>
              <Node pos="r" depth="4" NCoef="0" IVar="-1" Cut="0.0000000000000000e+00" cType="1" res="-9.9000000000000000e+01" rms="0.0000000000000000e+00" purity="4.8140048980712891e-01" nType="-1"/>
            </Node>
            <Node pos="r" depth="3" NCoef="0" IVar="0" Cut="1.1499617004394531e+02" cType="0" res="-9.9000000000000000e+01" rms="0.0000000000000000e+00" purity="4.7860398888587952e-01" nType="0">
              <Node pos="l" depth="4" NCoef="0" IVar="-1" Cut="0.0000000000000000e+00" cType="1" res="-9.9000000000000000e+01" rms="0.0000000000000000e+00" purity="6.5604197978973389e-01" nType="1"/>
              <Node pos="r" depth="4" NCoef="0" IVar="-1" Cut="0.0000000000000000e+00" cType="1" res="-9.9000000000000000e+01" rms="0.0000000000000000e+00" purity="2.6539522409439087e-01" nType="-1"/>
            </Node>
          </Node>
          <Node pos="r" depth="2" NCoef="0" IVar="3" Cut="5.6010559082031250e+02" cType="1" res="-9.9000000000000000e+01" rms="0.0000000000000000e+00" purity="4.1539615392684937e-01" nType="0">
            <Node pos="l" depth="3" NCoef="0" IVar="0" Cut="1.0849195098876953e+02" cType="0" res="-9.9000000000000000e+01" rms="0.0000000000000000e+00" purity="6.3028132915496826e-01" nType="0">
              <Node pos="l" depth="4" NCoef="0" IVar="-1" Cut="0.0000000000000000e+00" cType="1" res="-9.9000000000000000e+01" rms="0.0000000000000000e+00" purity="8.5157495737075806e-01" nType="1"/>
              <Node pos="r" depth="4" NCoef="0" IVar="-1" Cut="0.0000000000000000e+00" cType="1" res="-9.9000000000000000e+01" rms="0.0000000000000000e+00" purity="4.4409435987472534e-01" nType="-1"/>
            </Node>
            <Node pos="r" depth="3" NCoef="0" IVar="8" Cut="2.8411853313446045e+00" cType="0" res="-9.9000000000000000e+01" rms="0.0000000000000000e+00" purity="2.7440696954727173e-01" nType="0">
              <Node pos="l" depth="4" NCoef="0" IVar="-1" Cut="0.0000000000000000e+00" cType="1" res="-9.9000000000000000e+01" rms="0.0000000000000000e+00" purity="5.4065877199172974e-01" nType="1"/>
              <Node pos="r" depth="4" NCoef="0" IVar="-1" Cut="0.0000000000000000e+00" cType="1" res="-9.9000000000000000e+01" rms="0.0000000000000000e+00" purity="2.4127531051635742e-01" nType="-1"/>
            </Node>
          </Node>
        </Node>
        <Node pos="r" depth="1" NCoef="0" IVar="9" Cut="1.4960865974426270e+00" cType="1" res="-9.9000000000000000e+01" rms="0.0000000000000000e+00" purity="4.4190418720245361e-01" nType="0">
          <Node pos="l" depth="2" NCoef="0" IVar="4" Cut="-1.9054102897644043e+00" cType="1" res="-9.9000000000000000e+01" rms="0.0000000000000000e+00" purity="7.7300357818603516e-01" nType="1"/>
          <Node pos="r" depth="2" NCoef="0" IVar="3" Cut="3.8582763671875000e+02" cType="1" res="-9.9000000000000000e+01" rms="0.0000000000000000e+00" purity="3.7736925482749939e-01" nType="0">
            <Node pos="l" depth="3" NCoef="0" IVar="11" Cut="4.4911974668502808e-01" cType="0" res="-9.9000000000000000e+01" rms="0.0000000000000000e+00" purity="5.8760660886764526e-01" nType="0">
              <Node pos="l" depth="4" NCoef="0" IVar="-1" Cut="0.0000000000000000e+00" cType="1" res="-9.9000000000000000e+01" rms="0.0000000000000000e+00" purity="6.8778997659683228e-01" nType="1"/>
              <Node pos="r" depth="4" NCoef="0" IVar="-1" Cut="0.0000000000000000e+00" cType="1" res="-9.9000000000000000e+01" rms="0.0000000000000000e+00" purity="4.3759512901306152e-01" nType="-1"/>
            </Node>
            <Node pos="r" depth="3" NCoef="0" IVar="1" Cut="2.0030760192871094e+02" cType="0" res="-9.9000000000000000e+01" rms="0.0000000000000000e+00" purity="3.2368248701095581e-01" nType="-1"/>
          </Node>
        </Node>
      </Node>
    </BinaryTree>
    <BinaryTree type="DecisionTree" boostWeight="4.0710667397308209e-01" itree="3">
      <Node pos="s" depth="0" NCoef="0" IVar="17" Cut="4.8623403930664062e+02" cType="1" res="-9.9000000000000000e+01" rms="0.0000000000000000e+00" purity="6.5370923280715942e-01" nType="0">
        <Node pos="l" depth="1" NCoef="0" IVar="13" Cut="4.3304567337036133e+00" cType="1" res="-9.9000000000000000e+01" rms="0.0000000000000000e+00" purity="6.8735539913177490e-01" nType="0">
          <Node pos="l" depth="2" NCoef="0" IVar="16" Cut="3.5613534545898438e+02" cType="1" res="-9.9000000000000000e+01" rms="0.0000000000000000e+00" purity="6.9154512882232666e-01" nType="0">
            <Node pos="l" depth="3" NCoef="0" IVar="8" Cut="1.4961084723472595e-01" cType="1" res="-9.9000000000000000e+01" rms="0.0000000000000000e+00" purity="7.2190696001052856e-01" nType="1"/>
            <Node pos="r" depth="3" NCoef="0" IVar="18" Cut="4.5657965087890625e+02" cType="1" res="-9.9000000000000000e+01" rms="0.0000000000000000e+00" purity="3.6060529947280884e-01" nType="0">
              <Node pos="l" depth="4" NCoef="0" IVar="-1" Cut="0.0000000000000000e+00" cType="1" res="-9.9000000000000000e+01" rms="0.0000000000000000e+00" purity="5.3989940881729126e-01" nType="1"/>
              <Node pos="r" depth="4" NCoef="0" IVar="-1" Cut="0.0000000000000000e+00" cType="1" res="-9.9000000000000000e+01" rms="0.0000000000000000e+00" purity="3.3989465236663818e-01" nType="-1"/>
            </Node>
          </Node>
          <Node pos="r" depth="2" NCoef="0" IVar="9" Cut="1.1964223384857178e+00" cType="1" res="-9.9000000000000000e+01" rms="0.0000000000000000e+00" purity="4.6763548254966736e-01" nType="0">
            <Node pos="l" depth="3" NCoef="0" IVar="5" Cut="3.0782192993164062e+02" cType="1" res="-9.9000000000000000e+01" rms="0.0000000000000000e+00" purity="5.6526404619216919e-01" nType="0">
              <Node pos="l" depth="4" NCoef="0" IVar="-1" Cut="0.0000000000000000e+00" cType="1" res="-9.9000000000000000e+01" rms="0.0000000000000000e+00" purity="6.5621089935302734e-01" nType="1"/>
              <Node pos="r" depth="4" NCoef="0" IVar="-1" Cut="0.0000000000000000e+00" cType="1" res="-9.9000000000000000e+01" rms="0.0000000000000000e+00" purity="1.6548049449920654e-01" nType="-1"/>
            </Node>
            <Node pos="r" depth="3" NCoef="0" IVar="9" Cut="2.5869557857513428e+00" cType="1" res="-9.9000000000000000e+01" rms="0.0000000000000000e+00" purity="2.0140148699283600e-01" nType="-1"/>
          </Node>
        </Node>
        <Node pos="r" depth="1" NCoef="0" IVar="4" Cut="-1.6797045469284058e+00" cType="0" res="-9.9000000000000000e+01" rms="0.0000000000000000e+00" purity="4.4673132896423340e-01" nType="-1"/>
      </Node>
    </BinaryTree>
    <BinaryTree type="DecisionTree" boostWeight="4.9511022148138029e-01" itree="4">
      <Node pos="s" depth="0" NCoef="0" IVar="0" Cut="1.3444828796386719e+02" cType="0" res="-9.9000000000000000e+01" rms="0.0000000000000000e+00" purity="6.0348480939865112e-01" nType="0">
        <Node pos="l" depth="1" NCoef="0" IVar="3" Cut="1.6188284912109375e+03" cType="1" res="-9.9000000000000000e+01" rms="0.0000000000000000e+00" purity="7.7927994728088379e-01" nType="0">
          <Node pos="l" depth="2" NCoef="0" IVar="1" Cut="9.3083282470703125e+02" cType="1" res="-9.9000000000000000e+01" rms="0.0000000000000000e+00" purity="8.2693225145339966e-01" nType="0">
            <Node pos="l" depth="3" NCoef="0" IVar="1" Cut="9.1871299743652344e+01" cType="0" res="-9.9000000000000000e+01" rms="0.0000000000000000e+00" purity="8.3280247449874878e-01" nType="1"/>
            <Node pos="r" depth="3" NCoef="0" IVar="4" Cut="-7.6744186878204346e-01" cType="0" res="-9.9000000000000000e+01" rms="0.0000000000000000e+00" purity="3.3664724230766296e-01" nType="-1"/>
          </Node>
          <Node pos="r" depth="2" NCoef="0" IVar="0" Cut="2.1494850158691406e+02" cType="0" res="-9.9000000000000000e+01" rms="0.0000000000000000e+00" purity="6.4068324863910675e-02" nType="-1"/>
        </Node>
        <Node pos="r" depth="1" NCoef="0" IVar="3" Cut="3.8577883911132812e+02" cType="1" res="-9.9000000000000000e+01" rms="0.0000000000000000e+00" purity="4.4211527705192566e-01" nType="0">
          <Node pos="l" depth="2" NCoef="0" IVar="15" Cut="1.5222248435020447e-01" cType="0" res="-9.9000000000000000e+01" rms="0.0000000000000000e+00" purity="6.4079123735427856e-01" nType="1"/>
          <Node pos="r" depth="2" NCoef="0" IVar="0" Cut="5.4055889129638672e+01" cType="0" res="-9.9000000000000000e+01" rms="0.0000000000000000e+00" purity="3.7399578094482422e-01" nType="-1"/>
        </Node>
      </Node>
    </BinaryTree>
    <BinaryTree type="DecisionTree" boostWeight="3.4907491125029438e-01" itree="5">
      <Node pos="s" depth="0" NCoef="0" IVar="9" Cut="1.1967955827713013e+00" cType="1" res="-9.9000000000000000e+01" rms="0.0000000000000000e+00" purity="5.9554040431976318e-01" nType="0">
        <Node pos="l" depth="1" NCoef="0" IVar="3" Cut="1.6188284912109375e+03" cType="1" res="-9.9000000000000000e+01" rms="0.0000000000000000e+00" purity="6.9594526290893555e-01" nType="0">
          <Node pos="l" depth="2" NCoef="0" IVar="1" Cut="8.3590863037109375e+02" cType="1" res="-9.9000000000000000e+01" rms="0.0000000000000000e+00" purity="7.2057777643203735e-01" nType="0">
            <Node pos="l" depth="3" NCoef="0" IVar="13" Cut="4.3304915428161621e+00" cType="1" res="-9.9000000000000000e+01" rms="0.0000000000000000e+00" purity="7.2909247875213623e-01" nType="0">
              <Node pos="l" depth="4" NCoef="0" IVar="-1" Cut="0.0000000000000000e+00" cType="1" res="-9.9000000000000000e+01" rms="0.0000000000000000e+00" purity="7.3488670587539673e-01" nType="1"/>
              <Node pos="r" depth="4" NCoef="0" IVar="-1" Cut="0.0000000000000000e+00" cType="1" res="-9.9000000000000000e+01" rms="0.0000000000000000e+00" purity="4.6640524268150330e-01" nType="-1"/>
            </Node>
            <Node pos="r" depth="3" NCoef="0" IVar="12" Cut="1.8927584588527679e-01" cType="0" res="-9.9000000000000000e+01" rms="0.0000000000000000e+00" purity="2.9519149661064148e-01" nType="0">
              <Node pos="l" depth="4" NCoef="0" IVar="-1" Cut="0.0000000000000000e+00" cType="1" res="-9.9000000000000000e+01" rms="0.0000000000000000e+00" purity="6.1559957265853882e-01" nType="1"/>
              <Node pos="r" depth="4" NCoef="0" IVar="-1" Cut="0.0000000000000000e+00" cType="1" res="-9.9000000000000000e+01" rms="0.0000000000000000e+00" purity="9.5451682806015015e-02" nType="-1"/>
            </Node>
          </Node>
          <Node pos="r" depth="2" NCoef="0" IVar="2" Cut="-1.2959728240966797e+00" cType="0" res="-9.9000000000000000e+01" rms="0.0000000000000000e+00" purity="9.0428203344345093e-02" nType="-1"/>
        </Node>
        <Node pos="r" depth="1" NCoef="0" IVar="5" Cut="2.1236979675292969e+02" cType="0" res="-9.9000000000000000e+01" rms="0.0000000000000000e+00" purity="4.4125211238861084e-01" nType="-1"/>
      </Node>
    </BinaryTree>
    <BinaryTree type="DecisionTree" boostWeight="5.1087812608573824e-01" itree="6">
      <Node pos="s" depth="0" NCoef="0" IVar="7" Cut="1.4960116147994995e-01" cType="0" res="-9.9000000000000000e+01" rms="0.0000000000000000e+00" purity="5.8991134166717529e-01" nType="0">
        <Node pos="l" depth="1" NCoef="0" IVar="18" Cut="2.2046916503906250e+03" cType="1" res="-9.9000000000000000e+01" rms="0.0000000000000000e+00" purity="6.6950720548629761e-01" nType="0">
          <Node pos="l" depth="2" NCoef="0" IVar="5" Cut="7.5936737060546875e+02" cType="1" res="-9.9000000000000000e+01" rms="0.0000000000000000e+00" purity="6.7746376991271973e-01" nType="0">
            <Node pos="l" depth="3" NCoef="0" IVar="8" Cut="1.4960345625877380e-01" cType="0" res="-9.9000000000000000e+01" rms="0.0000000000000000e+00" purity="7.0205718278884888e-01" nType="1"/>
            <Node pos="r" depth="3" NCoef="0" IVar="8" Cut="2.8403179645538330e+00" cType="0" res="-9.9000000000000000e+01" rms="0.0000000000000000e+00" purity="3.9192840456962585e-01" nType="0">
              <Node pos="l" depth="4" NCoef="0" IVar="-1" Cut="0.0000000000000000e+00" cType="1" res="-9.9000000000000000e+01" rms="0.0000000000000000e+00" purity="6.3805168867111206e-01" nType="1"/>
              <Node pos="r" depth="4" NCoef="0" IVar="-1" Cut="0.0000000000000000e+00" cType="1" res="-9.9000000000000000e+01" rms="0.0000000000000000e+00" purity="2.6597687602043152e-01" nType="-1"/>
            </Node>
          </Node>
          <Node pos="r" depth="2" NCoef="0" IVar="13" Cut="2.9170575141906738e+00" cType="0" res="-9.9000000000000000e+01" rms="0.0000000000000000e+00" purity="3.8107931613922119e-01" nType="0">
            <Node pos="l" depth="3" NCoef="0" IVar="12" Cut="7.4280416965484619e-01" cType="1" res="-9.9000000000000000e+01" rms="0.0000000000000000e+00" purity="7.0436316728591919e-01" nType="0">
              <Node pos="l" depth="4" NCoef="0" IVar="-1" Cut="0.0000000000000000e+00" cType="1" res="-9.9000000000000000e+01" rms="0.0000000000000000e+00" purity="9.3383514881134033e-01" nType="1"/>
              <Node pos="r" depth="4" NCoef="0" IVar="-1" Cut="0.0000000000000000e+00" cType="1" res="-9.9000000000000000e+01" rms="0.0000000000000000e+00" purity="1.2851522862911224e-01" nType="-1"/>
            </Node>
            <Node pos="r" depth="3" NCoef="0" IVar="12" Cut="7.7205777168273926e-01" cType="1" res="-9.9000000000000000e+01" rms="0.0000000000000000e+00" purity="1.6668385267257690e-01" nType="0">
              <Node pos="l" depth="4" NCoef="0" IVar="-1" Cut="0.0000000000000000e+00" cType="1" res="-9.9000000000000000e+01" rms="0.0000000000000000e+00" purity="5.9433370828628540e-01" nType="1"/>
              <Node pos="r" depth="4" NCoef="0" IVar="-1" Cut="0.0000000000000000e+00" cType="1" res="-9.9000000000000000e+01" rms="0.0000000000000000e+00" purity="1.3495817780494690e-01" nType="-1"/>
            </Node>
          </Node>
        </Node>
        <Node pos="r" depth="1" NCoef="0" IVar="12" Cut="1.8803368508815765e-01" cType="0" res="-9.9000000000000000e+01" rms="0.0000000000000000e+00" purity="4.6015384793281555e-01" nType="0">
          <Node pos="l" depth="2" NCoef="0" IVar="7" Cut="7.1309632621705532e-03" cType="0" res="-9.9000000000000000e+01" rms="0.0000000000000000e+00" purity="7.7453029155731201e-01" nType="1"/>
          <Node pos="r" depth="2" NCoef="0" IVar="12" Cut="1.2539000809192657e-01" cType="0" res="-9.9000000000000000e+01" rms="0.0000000000000000e+00" purity="2.6985821127891541e-01" nType="0">
            <Node pos="l" depth="3" NCoef="0" IVar="4" Cut="-1.4121813774108887e+00" cType="0" res="-9.9000000000000000e+01" rms="0.0000000000000000e+00" purity="6.7008960247039795e-01" nType="0">
              <Node pos="l" depth="4" NCoef="0" IVar="-1" Cut="0.0000000000000000e+00" cType="1" res="-9.9000000000000000e+01" rms="0.0000000000000000e+00" purity="6.9282478094100952e-01" nType="1"/>
              <Node pos="r" depth="4" NCoef="0" IVar="-1" Cut="0.0000000000000000e+00" cType="1" res="-9.9000000000000000e+01" rms="0.0000000000000000e+00" purity="3.4428730607032776e-01" nType="-1"/>
            </Node>
            <Node pos="r" depth="3" NCoef="0" IVar="14" Cut="5.9786224365234375e-01" cType="1" res="-9.9000000000000000e+01" rms="0.0000000000000000e+00" purity="1.9983263313770294e-01" nType="0">
              <Node pos="l" depth="4" NCoef="0" IVar="-1" Cut="0.0000000000000000e+00" cType="1" res="-9.9000000000000000e+01" rms="0.0000000000000000e+00" purity="5.9467631578445435e-01" nType="1"/>
              <Node pos="r" depth="4" NCoef="0" IVar="-1" Cut="0.0000000000000000e+00" cType="1" res="-9.9000000000000000e+01" rms="0.0000000000000000e+00" purity="1.9284208118915558e-01" nType="-1"/>
            </Node>
          </Node>
        </Node>
      </Node>
    </BinaryTree>
    <BinaryTree type="DecisionTree" boostWeight="3.6538269632129494e-01" itree="7">
      <Node pos="s" depth="0" NCoef="0" IVar="8" Cut="2.5431940555572510e+00" cType="0" res="-9.9000000000000000e+01" rms="0.0000000000000000e+00" purity="5.2913528680801392e-01" nType="0">
        <Node pos="l" depth="1" NCoef="0" IVar="12" Cut="2.4297274649143219e-01" cType="0" res="-9.9000000000000000e+01" rms="0.0000000000000000e+00" purity="5.7697272300720215e-01" nType="0">
          <Node pos="l" depth="2" NCoef="0" IVar="10" Cut="2.0943315029144287e+00" cType="1" res="-9.9000000000000000e+01" rms="0.0000000000000000e+00" purity="6.5319675207138062e-01" nType="0">
            <Node pos="l" depth="3" NCoef="0" IVar="5" Cut="1.2059464111328125e+03" cType="1" res="-9.9000000000000000e+01" rms="0.0000000000000000e+00" purity="7.1255403757095337e-01" nType="0">
              <Node pos="l" depth="4" NCoef="0" IVar="-1" Cut="0.0000000000000000e+00" cType="1" res="-9.9000000000000000e+01" rms="0.0000000000000000e+00" purity="7.2099626064300537e-01" nType="1"/>
              <Node pos="r" depth="4" NCoef="0" IVar="-1" Cut="0.0000000000000000e+00" cType="1" res="-9.9000000000000000e+01" rms="0.0000000000000000e+00" purity="1.3106101751327515e-01" nType="-1"/>
            </Node>
            <Node pos="r" depth="3" NCoef="0" IVar="17" Cut="8.1622515869140625e+02" cType="0" res="-9.9000000000000000e+01" rms="0.0000000000000000e+00" purity="4.6144130825996399e-01" nType="0">
              <Node pos="l" depth="4" NCoef="0" IVar="-1" Cut="0.0000000000000000e+00" cType="1" res="-9.9000000000000000e+01" rms="0.0000000000000000e+00" purity="6.5983980894088745e-01" nType="1"/>
              <Node pos="r" depth="4" NCoef="0" IVar="-1" Cut="0.0000000000000000e+00" cType="1" res="-9.9000000000000000e+01" rms="0.0000000000000000e+00" purity="4.4190320372581482e-01" nType="-1"/>
            </Node>
          </Node>
          <Node pos="r" depth="2" NCoef="0" IVar="19" Cut="3.9018438720703125e+02" cType="0" res="-9.9000000000000000e+01" rms="0.0000000000000000e+00" purity="4.5365929603576660e-01" nType="0">
            <Node pos="l" depth="3" NCoef="0" IVar="14" Cut="3.3707752227783203e+00" cType="1" res="-9.9000000000000000e+01" rms="0.0000000000000000e+00" purity="5.7718914747238159e-01" nType="0">
              <Node pos="l" depth="4" NCoef="0" IVar="-1" Cut="0.0000000000000000e+00" cType="1" res="-9.9000000000000000e+01" rms="0.0000000000000000e+00" purity="6.3554525375366211e-01" nType="1"/>
              <Node pos="r" depth="4" NCoef="0" IVar="-1" Cut="0.0000000000000000e+00" cType="1" res="-9.9000000000000000e+01" rms="0.0000000000000000e+00" purity="4.2801496386528015e-01" nType="-1"/>
            </Node>
            <Node pos="r" depth="3" NCoef="0" IVar="16" Cut="3.9919101715087891e+01" cType="0" res="-9.9000000000000000e+01" rms="0.0000000000000000e+00" purity="3.8802739977836609e-01" nType="0">
              <Node pos="l" depth="4" NCoef="0" IVar="-1" Cut="0.0000000000000000e+00" cType="1" res="-9.9000000000000000e+01" rms="0.0000000000000000e+00" purity="6.0334610939025879e-01" nType="1"/>
              <Node pos="r" depth="4" NCoef="0" IVar="-1" Cut="0.0000000000000000e+00" cType="1" res="-9.9000000000000000e+01" rms="0.0000000000000000e+00" purity="2.9024058580398560e-01" nType="-1"/>
            </Node>
          </Node>
        </Node>
        <Node pos="r" depth="1" NCoef="0" IVar="0" Cut="2.1886636352539062e+02" cType="0" res="-9.9000000000000000e+01" rms="0.0000000000000000e+00" purity="4.4287663698196411e-01" nType="0">
          <Node pos="l" depth="2" NCoef="0" IVar="16" Cut="9.4914044189453125e+02" cType="1" res="-9.9000000000000000e+01" rms="0.0000000000000000e+00" purity="7.2615635395050049e-01" nType="0">
            <Node pos="l" depth="3" NCoef="0" IVar="3" Cut="1.4876472167968750e+03" cType="1" res="-9.9000000000000000e+01" rms="0.0000000000000000e+00" purity="7.4358844757080078e-01" nType="0">
              <Node pos="l" depth="4" NCoef="0" IVar="-1" Cut="0.0000000000000000e+00" cType="1" res="-9.9000000000000000e+01" rms="0.0000000000000000e+00" purity="8.0524307489395142e-01" nType="1"/>
              <Node pos="r" depth="4" NCoef="0" IVar="-1" Cut="0.0000000000000000e+00" cType="1" res="-9.9000000000000000e+01" rms="0.0000000000000000e+00" purity="9.2314094305038452e-02" nType="-1"/>
            </Node>
            <Node pos="r" depth="3" NCoef="0" IVar="1" Cut="9.8986956787109375e+02" cType="1" res="-9.9000000000000000e+01" rms="0.0000000000000000e+00" purity="2.7007907629013062e-01" nType="-1"/>
          </Node>
          <Node pos="r" depth="2" NCoef="0" IVar="18" Cut="2.2149577331542969e+02" cType="1" res="-9.9000000000000000e+01" rms="0.0000000000000000e+00" purity="3.7480306625366211e-01" nType="0">
            <Node pos="l" depth="3" NCoef="0" IVar="3" Cut="3.8006665039062500e+02" cType="1" res="-9.9000000000000000e+01" rms="0.0000000000000000e+00" purity="5.2584737539291382e-01" nType="0">
              <Node pos="l" depth="4" NCoef="0" IVar="-1" Cut="0.0000000000000000e+00" cType="1" res="-9.9000000000000000e+01" rms="0.0000000000000000e+00" purity="6.3540697097778320e-01" nType="1"/>
              <Node pos="r" depth="4" NCoef="0" IVar="-1" Cut="0.0000000000000000e+00" cType="1" res="-9.9000000000000000e+01" rms="0.0000000000000000e+00" purity="3.0681881308555603e-01" nType="-1"/>
            </Node>
            <Node pos="r" depth="3" NCoef="0" IVar="5" Cut="2.1236979675292969e+02" cType="1" res="-9.9000000000000000e+01" rms="0.0000000000000000e+00" purity="3.5848325490951538e-01" nType="-1"/>
          </Node>
        </Node>
      </Node>
    </BinaryTree>
    <BinaryTree type="DecisionTree" boostWeight="2.8745023217474513e-01" itree="8">
      <Node pos="s" depth="0" NCoef="0" IVar="17" Cut="1.6215139770507812e+02" cType="1" res="-9.9000000000000000e+01" rms="0.0000000000000000e+00" purity="5.3138041496276855e-01" nType="0">
        <Node pos="l" depth="1" NCoef="0" IVar="18" Cut="1.4912641601562500e+03" cType="1" res="-9.9000000000000000e+01" rms="0.0000000000000000e+00" purity="6.0087525844573975e-01" nType="0">
          <Node pos="l" depth="2" NCoef="0" IVar="16" Cut="8.5322583007812500e+02" cType="1" res="-9.9000000000000000e+01" rms="0.0000000000000000e+00" purity="6.1802148818969727e-01" nType="0">
            <Node pos="l" depth="3" NCoef="0" IVar="3" Cut="1.8246038818359375e+03" cType="1" res="-9.9000000000000000e+01" rms="0.0000000000000000e+00" purity="6.2437665462493896e-01" nType="0">
              <Node pos="l" depth="4" NCoef="0" IVar="-1" Cut="0.0000000000000000e+00" cType="1" res="-9.9000000000000000e+01" rms="0.0000000000000000e+00" purity="6.3057249784469604e-01" nType="1"/>
              <Node pos="r" depth="4" NCoef="0" IVar="-1" Cut="0.0000000000000000e+00" cType="1" res="-9.9000000000000000e+01" rms="0.0000000000000000e+00" purity="1.5406076796352863e-02" nType="-1"/>
            </Node>
            <Node pos="r" depth="3" NCoef="0" IVar="17" Cut="2.2058002471923828e+01" cType="0" res="-9.9000000000000000e+01" rms="0.0000000000000000e+00" purity="1.9612388312816620e-01" nType="0">
              <Node pos="l" depth="4" NCoef="0" IVar="-1" Cut="0.0000000000000000e+00" cType="1" res="-9.9000000000000000e+01" rms="0.0000000000000000e+00" purity="6.2985491752624512e-01" nType="1"/>
              <Node pos="r" depth="4" NCoef="0" IVar="-1" Cut="0.0000000000000000e+00" cType="1" res="-9.9000000000000000e+01" rms="0.0000000000000000e+00" purity="1.1537627875804901e-01" nType="-1"/>
            </Node>
          </Node>
          <Node pos="r" depth="2" NCoef="0" IVar="12" Cut="8.1302618980407715e-01" cType="1" res="-9.9000000000000000e+01" rms="0.0000000000000000e+00" purity="4.2917063832283020e-01" nType="0">
            <Node pos="l" depth="3" NCoef="0" IVar="3" Cut="1.7554904785156250e+03" cType="1" res="-9.9000000000000000e+01" rms="0.0000000000000000e+00" purity="5.8758229017257690e-01" nType="0">
              <Node pos="l" depth="4" NCoef="0" IVar="-1" Cut="0.0000000000000000e+00" cType="1" res="-9.9000000000000000e+01" rms="0.0000000000000000e+00" purity="6.8987739086151123e-01" nType="1"/>
              <Node pos="r" depth="4" NCoef="0" IVar="-1" Cut="0.0000000000000000e+00" cType="1" res="-9.9000000000000000e+01" rms="0.0000000000000000e+00" purity="4.1513238102197647e-02" nType="-1"/>
            </Node>
            <Node pos="r" depth="3" NCoef="0" IVar="8" Cut="1.4944255352020264e-01" cType="1" res="-9.9000000000000000e+01" rms="0.0000000000000000e+00" purity="3.4038743376731873e-01" nType="-1"/>
          </Node>
        </Node>
        <Node pos="r" depth="1" NCoef="0" IVar="8" Cut="2.8424148559570312e+00" cType="0" res="-9.9000000000000000e+01" rms="0.0000000000000000e+00" purity="4.5633339881896973e-01" nType="0">
          <Node pos="l" depth="2" NCoef="0" IVar="0" Cut="1.7996537780761719e+02" cType="0" res="-9.9000000000000000e+01" rms="0.0000000000000000e+00" purity="5.2970099449157715e-01" nType="0">
            <Node pos="l" depth="3" NCoef="0" IVar="2" Cut="-2.2292959690093994e+00" cType="1" res="-9.9000000000000000e+01" rms="0.0000000000000000e+00" purity="7.7873533964157104e-01" nType="1"/>
            <Node pos="r" depth="3" NCoef="0" IVar="2" Cut="-2.2664811611175537e+00" cType="0" res="-9.9000000000000000e+01" rms="0.0000000000000000e+00" purity="4.4308790564537048e-01" nType="-1"/>
          </Node>
          <Node pos="r" depth="2" NCoef="0" IVar="0" Cut="3.9309814453125000e+02" cType="0" res="-9.9000000000000000e+01" rms="0.0000000000000000e+00" purity="3.4703180193901062e-01" nType="0">
            <Node pos="l" depth="3" NCoef="0" IVar="8" Cut="1.6346582174301147e+00" cType="0" res="-9.9000000000000000e+01" rms="0.0000000000000000e+00" purity="7.0899420976638794e-01" nType="0">
              <Node pos="l" depth="4" NCoef="0" IVar="-1" Cut="0.0000000000000000e+00" cType="1" res="-9.9000000000000000e+01" rms="0.0000000000000000e+00" purity="8.0512970685958862e-01" nType="1"/>
              <Node pos="r" depth="4" NCoef="0" IVar="-1" Cut="0.0000000000000000e+00" cType="1" res="-9.9000000000000000e+01" rms="0.0000000000000000e+00" purity="4.4505202770233154e-01" nType="-1"/>
            </Node>
            <Node pos="r" depth="3" NCoef="0" IVar="19" Cut="2.0600195312500000e+03" cType="0" res="-9.9000000000000000e+01" rms="0.0000000000000000e+00" purity="3.3145809173583984e-01" nType="0">
              <Node pos="l" depth="4" NCoef="0" IVar="-1" Cut="0.0000000000000000e+00" cType="1" res="-9.9000000000000000e+01" rms="0.0000000000000000e+00" purity="5.9717965126037598e-01" nType="1"/>
              <Node pos="r" depth="4" NCoef="0" IVar="-1" Cut="0.0000000000000000e+00" cType="1" res="-9.9000000000000000e+01" rms="0.0000000000000000e+00" purity="3.2847523689270020e-01" nType="-1"/>
            </Node>
          </Node>
        </Node>
      </Node>
    </BinaryTree>
    <BinaryTree type="DecisionTree" boostWeight="2.4787697062239378e-01" itree="9">
      <Node pos="s" depth="0" NCoef="0" IVar="10" Cut="1.4959724247455597e-01" cType="0" res="-9.9000000000000000e+01" rms="0.0000000000000000e+00" purity="5.2408200502395630e-01" nType="0">
        <Node pos="l" depth="1" NCoef="0" IVar="12" Cut="9.7134292125701904e-01" cType="1" res="-9.9000000000000000e+01" rms="0.0000000000000000e+00" purity="5.3513723611831665e-01" nType="0">
          <Node pos="l" depth="2" NCoef="0" IVar="3" Cut="1.5342885742187500e+03" cType="1" res="-9.9000000000000000e+01" rms="0.0000000000000000e+00" purity="5.7038843631744385e-01" nType="0">
            <Node pos="l" depth="3" NCoef="0" IVar="1" Cut="1.0189102172851562e+03" cType="1" res="-9.9000000000000000e+01" rms="0.0000000000000000e+00" purity="5.8561313152313232e-01" nType="0">
              <Node pos="l" depth="4" NCoef="0" IVar="-1" Cut="0.0000000000000000e+00" cType="1" res="-9.9000000000000000e+01" rms="0.0000000000000000e+00" purity="5.8704805374145508e-01" nType="1"/>
              <Node pos="r" depth="4" NCoef="0" IVar="-1" Cut="0.0000000000000000e+00" cType="1" res="-9.9000000000000000e+01" rms="0.0000000000000000e+00" purity="3.0847314000129700e-01" nType="-1"/>
            </Node>
            <Node pos="r" depth="3" NCoef="0" IVar="1" Cut="2.0548197937011719e+02" cType="1" res="-9.9000000000000000e+01" rms="0.0000000000000000e+00" purity="1.3708811998367310e-01" nType="-1"/>
          </Node>
          <Node pos="r" depth="2" NCoef="0" IVar="0" Cut="2.1886029052734375e+02" cType="0" res="-9.9000000000000000e+01" rms="0.0000000000000000e+00" purity="4.5148214697837830e-01" nType="0">
            <Node pos="l" depth="3" NCoef="0" IVar="3" Cut="1.6459971923828125e+03" cType="1" res="-9.9000000000000000e+01" rms="0.0000000000000000e+00" purity="7.0913511514663696e-01" nType="0">
              <Node pos="l" depth="4" NCoef="0" IVar="-1" Cut="0.0000000000000000e+00" cType="1" res="-9.9000000000000000e+01" rms="0.0000000000000000e+00" purity="7.6426911354064941e-01" nType="1"/>
              <Node pos="r" depth="4" NCoef="0" IVar="-1" Cut="0.0000000000000000e+00" cType="1" res="-9.9000000000000000e+01" rms="0.0000000000000000e+00" purity="1.4427204616367817e-02" nType="-1"/>
            </Node>
            <Node pos="r" depth="3" NCoef="0" IVar="8" Cut="7.4791491031646729e-01" cType="1" res="-9.9000000000000000e+01" rms="0.0000000000000000e+00" purity="3.9772996306419373e-01" nType="0">
              <Node pos="l" depth="4" NCoef="0" IVar="-1" Cut="0.0000000000000000e+00" cType="1" res="-9.9000000000000000e+01" rms="0.0000000000000000e+00" purity="5.2640581130981445e-01" nType="1"/>
              <Node pos="r" depth="4" NCoef="0" IVar="-1" Cut="0.0000000000000000e+00" cType="1" res="-9.9000000000000000e+01" rms="0.0000000000000000e+00" purity="2.6853683590888977e-01" nType="-1"/>
            </Node>
          </Node>
        </Node>
        <Node pos="r" depth="1" NCoef="0" IVar="2" Cut="-1.0600156784057617e+00" cType="0" res="-9.9000000000000000e+01" rms="0.0000000000000000e+00" purity="4.6896302700042725e-01" nType="0">
          <Node pos="l" depth="2" NCoef="0" IVar="7" Cut="1.4957579970359802e-01" cType="0" res="-9.9000000000000000e+01" rms="0.0000000000000000e+00" purity="5.1855415105819702e-01" nType="0">
            <Node pos="l" depth="3" NCoef="0" IVar="9" Cut="6.0410881042480469e-01" cType="1" res="-9.9000000000000000e+01" rms="0.0000000000000000e+00" purity="5.9284359216690063e-01" nType="0">
              <Node pos="l" depth="4" NCoef="0" IVar="-1" Cut="0.0000000000000000e+00" cType="1" res="-9.9000000000000000e+01" rms="0.0000000000000000e+00" purity="7.1427232027053833e-01" nType="1"/>
              <Node pos="r" depth="4" NCoef="0" IVar="-1" Cut="0.0000000000000000e+00" cType="1" res="-9.9000000000000000e+01" rms="0.0000000000000000e+00" purity="3.7612563371658325e-01" nType="-1"/>
            </Node>
            <Node pos="r" depth="3" NCoef="0" IVar="2" Cut="1.6826722621917725e+00" cType="0" res="-9.9000000000000000e+01" rms="0.0000000000000000e+00" purity="4.2430338263511658e-01" nType="0">
              <Node pos="l" depth="4" NCoef="0" IVar="-1" Cut="0.0000000000000000e+00" cType="1" res="-9.9000000000000000e+01" rms="0.0000000000000000e+00" purity="6.4230793714523315e-01" nType="1"/>
              <Node pos="r" depth="4" NCoef="0" IVar="-1" Cut="0.0000000000000000e+00" cType="1" res="-9.9000000000000000e+01" rms="0.0000000000000000e+00" purity="4.0761643648147583e-01" nType="-1"/>
            </Node>
          </Node>
          <Node pos="r" depth="2" NCoef="0" IVar="4" Cut="-1.7065918445587158e+00" cType="0" res="-9.9000000000000000e+01" rms="0.0000000000000000e+00" purity="2.9167991876602173e-01" nType="-1"/>
        </Node>
      </Node>
    </BinaryTree>
    <BinaryTree type="DecisionTree" boostWeight="2.9935316043666238e-01" itree="10">
      <Node pos="s" depth="0" NCoef="0" IVar="12" Cut="2.5137004256248474e-01" cType="0" res="-9.9000000000000000e+01" rms="0.0000000000000000e+00" purity="4.9229362607002258e-01" nType="0">
        <Node pos="l" depth="1" NCoef="0" IVar="12" Cut="9.6907806396484375e-01" cType="1" res="-9.9000000000000000e+01" rms="0.0000000000000000e+00" purity="5.2762722969055176e-01" nType="0">
          <Node pos="l" depth="2" NCoef="0" IVar="1" Cut="8.2690289306640625e+02" cType="1" res="-9.9000000000000000e+01" rms="0.0000000000000000e+00" purity="6.0011297464370728e-01" nType="0">
            <Node pos="l" depth="3" NCoef="0" IVar="11" Cut="2.9957896471023560e-01" cType="0" res="-9.9000000000000000e+01" rms="0.0000000000000000e+00" purity="6.0411304235458374e-01" nType="0">
              <Node pos="l" depth="4" NCoef="0" IVar="-1" Cut="0.0000000000000000e+00" cType="1" res="-9.9000000000000000e+01" rms="0.0000000000000000e+00" purity="6.2082129716873169e-01" nType="1"/>
              <Node pos="r" depth="4" NCoef="0" IVar="-1" Cut="0.0000000000000000e+00" cType="1" res="-9.9000000000000000e+01" rms="0.0000000000000000e+00" purity="4.8076751828193665e-01" nType="-1"/>
            </Node>
            <Node pos="r" depth="3" NCoef="0" IVar="7" Cut="2.7626538276672363e-01" cType="1" res="-9.9000000000000000e+01" rms="0.0000000000000000e+00" purity="3.6335647106170654e-01" nType="0">
              <Node pos="l" depth="4" NCoef="0" IVar="-1" Cut="0.0000000000000000e+00" cType="1" res="-9.9000000000000000e+01" rms="0.0000000000000000e+00" purity="5.1438713073730469e-01" nType="1"/>
              <Node pos="r" depth="4" NCoef="0" IVar="-1" Cut="0.0000000000000000e+00" cType="1" res="-9.9000000000000000e+01" rms="0.0000000000000000e+00" purity="2.5906452536582947e-01" nType="-1"/>
            </Node>
          </Node>
          <Node pos="r" depth="2" NCoef="0" IVar="5" Cut="2.1236979675292969e+02" cType="1" res="-9.9000000000000000e+01" rms="0.0000000000000000e+00" purity="4.2499518394470215e-01" nType="0">
            <Node pos="l" depth="3" NCoef="0" IVar="3" Cut="6.0538098144531250e+02" cType="1" res="-9.9000000000000000e+01" rms="0.0000000000000000e+00" purity="5.0298959016799927e-01" nType="0">
              <Node pos="l" depth="4" NCoef="0" IVar="-1" Cut="0.0000000000000000e+00" cType="1" res="-9.9000000000000000e+01" rms="0.0000000000000000e+00" purity="5.9331643581390381e-01" nType="1"/>
              <Node pos="r" depth="4" NCoef="0" IVar="-1" Cut="0.0000000000000000e+00" cType="1" res="-9.9000000000000000e+01" rms="0.0000000000000000e+00" purity="3.7646335363388062e-01" nType="-1"/>
            </Node>
            <Node pos="r" depth="3" NCoef="0" IVar="1" Cut="1.0869688720703125e+03" cType="0" res="-9.9000000000000000e+01" rms="0.0000000000000000e+00" purity="2.8020673990249634e-01" nType="0">
              <Node pos="l" depth="4" NCoef="0" IVar="-1" Cut="0.0000000000000000e+00" cType="1" res="-9.9000000000000000e+01" rms="0.0000000000000000e+00" purity="5.0435894727706909e-01" nType="1"/>
              <Node pos="r" depth="4" NCoef="0" IVar="-1" Cut="0.0000000000000000e+00" cType="1" res="-9.9000000000000000e+01" rms="0.0000000000000000e+00" purity="2.7378955483436584e-01" nType="-1"/>
            </Node>
          </Node>
        </Node>
        <Node pos="r" depth="1" NCoef="0" IVar="5" Cut="4.0663845825195312e+02" cType="0" res="-9.9000000000000000e+01" rms="0.0000000000000000e+00" purity="4.1784632205963135e-01" nType="0">
          <Node pos="l" depth="2" NCoef="0" IVar="12" Cut="3.6061175167560577e-02" cType="0" res="-9.9000000000000000e+01" rms="0.0000000000000000e+00" purity="5.5271619558334351e-01" nType="0">
            <Node pos="l" depth="3" NCoef="0" IVar="2" Cut="-1.5025753974914551e+00" cType="0" res="-9.9000000000000000e+01" rms="0.0000000000000000e+00" purity="7.4838179349899292e-01" nType="1"/>
            <Node pos="r" depth="3" NCoef="0" IVar="12" Cut="1.8881554715335369e-03" cType="1" res="-9.9000000000000000e+01" rms="0.0000000000000000e+00" purity="1.4338162541389465e-01" nType="-1"/>
          </Node>
          <Node pos="r" depth="2" NCoef="0" IVar="17" Cut="9.9834973144531250e+02" cType="0" res="-9.9000000000000000e+01" rms="0.0000000000000000e+00" purity="3.6317059397697449e-01" nType="0">
            <Node pos="l" depth="3" NCoef="0" IVar="13" Cut="3.0206296443939209e+00" cType="0" res="-9.9000000000000000e+01" rms="0.0000000000000000e+00" purity="6.1202824115753174e-01" nType="0">
              <Node pos="l" depth="4" NCoef="0" IVar="-1" Cut="0.0000000000000000e+00" cType="1" res="-9.9000000000000000e+01" rms="0.0000000000000000e+00" purity="6.2497061491012573e-01" nType="1"/>
              <Node pos="r" depth="4" NCoef="0" IVar="-1" Cut="0.0000000000000000e+00" cType="1" res="-9.9000000000000000e+01" rms="0.0000000000000000e+00" purity="4.6587046980857849e-01" nType="-1"/>
            </Node>
            <Node pos="r" depth="3" NCoef="0" IVar="17" Cut="9.5051879882812500e+02" cType="0" res="-9.9000000000000000e+01" rms="0.0000000000000000e+00" purity="3.4866994619369507e-01" nType="0">
              <Node pos="l" depth="4" NCoef="0" IVar="-1" Cut="0.0000000000000000e+00" cType="1" res="-9.9000000000000000e+01" rms="0.0000000000000000e+00" purity="5.9944272041320801e-01" nType="1"/>
              <Node pos="r" depth="4" NCoef="0" IVar="-1" Cut="0.0000000000000000e+00" cType="1" res="-9.9000000000000000e+01" rms="0.0000000000000000e+00" purity="3.4625333547592163e-01" nType="-1"/>
            </Node>
          </Node>
        </Node>
      </Node>
    </BinaryTree>
    <BinaryTree type="DecisionTree" boostWeight="2.9770084930447505e-01" itree="11">
      <Node pos="s" depth="0" NCoef="0" IVar="9" Cut="7.4800616502761841e-01" cType="1" res="-9.9000000000000000e+01" rms="0.0000000000000000e+00" purity="4.8689129948616028e-01" nType="0">
        <Node pos="l" depth="1" NCoef="0" IVar="3" Cut="9.6368981933593750e+02" cType="1" res="-9.9000000000000000e+01" rms="0.0000000000000000e+00" purity="5.2147662639617920e-01" nType="0">
          <Node pos="l" depth="2" NCoef="0" IVar="5" Cut="4.6630108642578125e+02" cType="1" res="-9.9000000000000000e+01" rms="0.0000000000000000e+00" purity="5.6506317853927612e-01" nType="0">
            <Node pos="l" depth="3" NCoef="0" IVar="0" Cut="1.1864865112304688e+02" cType="0" res="-9.9000000000000000e+01" rms="0.0000000000000000e+00" purity="5.9910196065902710e-01" nType="0">
              <Node pos="l" depth="4" NCoef="0" IVar="-1" Cut="0.0000000000000000e+00" cType="1" res="-9.9000000000000000e+01" rms="0.0000000000000000e+00" purity="7.3645180463790894e-01" nType="1"/>
              <Node pos="r" depth="4" NCoef="0" IVar="-1" Cut="0.0000000000000000e+00" cType="1" res="-9.9000000000000000e+01" rms="0.0000000000000000e+00" purity="4.4670882821083069e-01" nType="-1"/>
            </Node>
            <Node pos="r" depth="3" NCoef="0" IVar="19" Cut="1.3910104980468750e+03" cType="0" res="-9.9000000000000000e+01" rms="0.0000000000000000e+00" purity="3.7568670511245728e-01" nType="0">
              <Node pos="l" depth="4" NCoef="0" IVar="-1" Cut="0.0000000000000000e+00" cType="1" res="-9.9000000000000000e+01" rms="0.0000000000000000e+00" purity="6.9694638252258301e-01" nType="1"/>
              <Node pos="r" depth="4" NCoef="0" IVar="-1" Cut="0.0000000000000000e+00" cType="1" res="-9.9000000000000000e+01" rms="0.0000000000000000e+00" purity="3.4913355112075806e-01" nType="-1"/>
            </Node>
          </Node>
          <Node pos="r" depth="2" NCoef="0" IVar="0" Cut="2.7275967407226562e+02" cType="0" res="-9.9000000000000000e+01" rms="0.0000000000000000e+00" purity="4.1895380616188049e-01" nType="0">
            <Node pos="l" depth="3" NCoef="0" IVar="3" Cut="1.8596739501953125e+03" cType="1" res="-9.9000000000000000e+01" rms="0.0000000000000000e+00" purity="7.9248887300491333e-01" nType="0">
              <Node pos="l" depth="4" NCoef="0" IVar="-1" Cut="0.0000000000000000e+00" cType="1" res="-9.9000000000000000e+01" rms="0.0000000000000000e+00" purity="8.5862553119659424e-01" nType="1"/>
              <Node pos="r" depth="4" NCoef="0" IVar="-1" Cut="0.0000000000000000e+00" cType="1" res="-9.9000000000000000e+01" rms="0.0000000000000000e+00" purity="6.6534467041492462e-02" nType="-1"/>
            </Node>
            <Node pos="r" depth="3" NCoef="0" IVar="13" Cut="2.3304687440395355e-01" cType="1" res="-9.9000000000000000e+01" rms="0.0000000000000000e+00" purity="2.7536779642105103e-01" nType="0">
              <Node pos="l" depth="4" NCoef="0" IVar="-1" Cut="0.0000000000000000e+00" cType="1" res="-9.9000000000000000e+01" rms="0.0000000000000000e+00" purity="5.1475083827972412e-01" nType="1"/>
              <Node pos="r" depth="4" NCoef="0" IVar="-1" Cut="0.0000000000000000e+00" cType="1" res="-9.9000000000000000e+01" rms="0.0000000000000000e+00" purity="2.6875761151313782e-01" nType="-1"/>
            </Node>
          </Node>
        </Node>
        <Node pos="r" depth="1" NCoef="0" IVar="0" Cut="2.1886184692382812e+02" cType="0" res="-9.9000000000000000e+01" rms="0.0000000000000000e+00" purity="4.5592105388641357e-01" nType="0">
          <Node pos="l" depth="2" NCoef="0" IVar="3" Cut="1.1200167236328125e+03" cType="1" res="-9.9000000000000000e+01" rms="0.0000000000000000e+00" purity="6.7481124401092529e-01" nType="0">
            <Node pos="l" depth="3" NCoef="0" IVar="9" Cut="1.4332395792007446e+00" cType="0" res="-9.9000000000000000e+01" rms="0.0000000000000000e+00" purity="7.4661982059478760e-01" nType="0">
              <Node pos="l" depth="4" NCoef="0" IVar="-1" Cut="0.0000000000000000e+00" cType="1" res="-9.9000000000000000e+01" rms="0.0000000000000000e+00" purity="7.7551418542861938e-01" nType="1"/>
              <Node pos="r" depth="4" NCoef="0" IVar="-1" Cut="0.0000000000000000e+00" cType="1" res="-9.9000000000000000e+01" rms="0.0000000000000000e+00" purity="4.4196617603302002e-01" nType="-1"/>
            </Node>
            <Node pos="r" depth="3" NCoef="0" IVar="0" Cut="4.4810726928710938e+02" cType="0" res="-9.9000000000000000e+01" rms="0.0000000000000000e+00" purity="3.1130620837211609e-01" nType="0">
              <Node pos="l" depth="4" NCoef="0" IVar="-1" Cut="0.0000000000000000e+00" cType="1" res="-9.9000000000000000e+01" rms="0.0000000000000000e+00" purity="6.6647988557815552e-01" nType="1"/>
              <Node pos="r" depth="4" NCoef="0" IVar="-1" Cut="0.0000000000000000e+00" cType="1" res="-9.9000000000000000e+01" rms="0.0000000000000000e+00" purity="1.7569337785243988e-01" nType="-1"/>
            </Node>
          </Node>
          <Node pos="r" depth="2" NCoef="0" IVar="17" Cut="9.7236358642578125e+02" cType="0" res="-9.9000000000000000e+01" rms="0.0000000000000000e+00" purity="4.2435905337333679e-01" nType="0">
            <Node pos="l" depth="3" NCoef="0" IVar="15" Cut="2.2545268535614014e+00" cType="1" res="-9.9000000000000000e+01" rms="0.0000000000000000e+00" purity="6.3124525547027588e-01" nType="1"/>
            <Node pos="r" depth="3" NCoef="0" IVar="6" Cut="-2.1712434291839600e+00" cType="0" res="-9.9000000000000000e+01" rms="0.0000000000000000e+00" purity="4.1482681035995483e-01" nType="-1"/>
          </Node>
        </Node>
      </Node>
    </BinaryTree>
    <BinaryTree type="DecisionTree" boostWeight="2.4140676615215295e-01" itree="12">
      <Node pos="s" depth="0" NCoef="0" IVar="0" Cut="2.1886029052734375e+02" cType="0" res="-9.9000000000000000e+01" rms="0.0000000000000000e+00" purity="5.2268922328948975e-01" nType="0">
        <Node pos="l" depth="1" NCoef="0" IVar="3" Cut="1.9155906982421875e+03" cType="1" res="-9.9000000000000000e+01" rms="0.0000000000000000e+00" purity="7.3071819543838501e-01" nType="0">
          <Node pos="l" depth="2" NCoef="0" IVar="16" Cut="1.1803547363281250e+03" cType="1" res="-9.9000000000000000e+01" rms="0.0000000000000000e+00" purity="7.5928884744644165e-01" nType="0">
            <Node pos="l" depth="3" NCoef="0" IVar="11" Cut="1.4974494278430939e-01" cType="0" res="-9.9000000000000000e+01" rms="0.0000000000000000e+00" purity="7.6101911067962646e-01" nType="1"/>
            <Node pos="r" depth="3" NCoef="0" IVar="-1" Cut="0.0000000000000000e+00" cType="1" res="-9.9000000000000000e+01" rms="0.0000000000000000e+00" purity="2.8539583086967468e-01" nType="-1"/>
          </Node>
          <Node pos="r" depth="2" NCoef="0" IVar="0" Cut="2.9649404907226562e+02" cType="0" res="-9.9000000000000000e+01" rms="0.0000000000000000e+00" purity="3.8857001811265945e-02" nType="-1"/>
        </Node>
        <Node pos="r" depth="1" NCoef="0" IVar="1" Cut="2.3114727783203125e+02" cType="0" res="-9.9000000000000000e+01" rms="0.0000000000000000e+00" purity="4.7617724537849426e-01" nType="0">
          <Node pos="l" depth="2" NCoef="0" IVar="1" Cut="5.7623156738281250e+02" cType="1" res="-9.9000000000000000e+01" rms="0.0000000000000000e+00" purity="5.1145637035369873e-01" nType="0">
            <Node pos="l" depth="3" NCoef="0" IVar="12" Cut="7.1139687299728394e-01" cType="1" res="-9.9000000000000000e+01" rms="0.0000000000000000e+00" purity="5.4035311937332153e-01" nType="0">
              <Node pos="l" depth="4" NCoef="0" IVar="-1" Cut="0.0000000000000000e+00" cType="1" res="-9.9000000000000000e+01" rms="0.0000000000000000e+00" purity="5.7584327459335327e-01" nType="1"/>
              <Node pos="r" depth="4" NCoef="0" IVar="-1" Cut="0.0000000000000000e+00" cType="1" res="-9.9000000000000000e+01" rms="0.0000000000000000e+00" purity="4.4878450036048889e-01" nType="-1"/>
            </Node>
            <Node pos="r" depth="3" NCoef="0" IVar="19" Cut="9.7529968261718750e+02" cType="0" res="-9.9000000000000000e+01" rms="0.0000000000000000e+00" purity="4.3294247984886169e-01" nType="0">
              <Node pos="l" depth="4" NCoef="0" IVar="-1" Cut="0.0000000000000000e+00" cType="1" res="-9.9000000000000000e+01" rms="0.0000000000000000e+00" purity="5.8142280578613281e-01" nType="1"/>
              <Node pos="r" depth="4" NCoef="0" IVar="-1" Cut="0.0000000000000000e+00" cType="1" res="-9.9000000000000000e+01" rms="0.0000000000000000e+00" purity="4.1440168023109436e-01" nType="-1"/>
            </Node>
          </Node>
          <Node pos="r" depth="2" NCoef="0" IVar="18" Cut="4.2929321289062500e+02" cType="1" res="-9.9000000000000000e+01" rms="0.0000000000000000e+00" purity="4.5275643467903137e-01" nType="0">
            <Node pos="l" depth="3" NCoef="0" IVar="0" Cut="8.2189384460449219e+01" cType="0" res="-9.9000000000000000e+01" rms="0.0000000000000000e+00" purity="5.1156818866729736e-01" nType="0">
              <Node pos="l" depth="4" NCoef="0" IVar="-1" Cut="0.0000000000000000e+00" cType="1" res="-9.9000000000000000e+01" rms="0.0000000000000000e+00" purity="5.5874270200729370e-01" nType="1"/>
              <Node pos="r" depth="4" NCoef="0" IVar="-1" Cut="0.0000000000000000e+00" cType="1" res="-9.9000000000000000e+01" rms="0.0000000000000000e+00" purity="4.1372260451316833e-01" nType="-1"/>
            </Node>
            <Node pos="r" depth="3" NCoef="0" IVar="3" Cut="6.0543188476562500e+02" cType="1" res="-9.9000000000000000e+01" rms="0.0000000000000000e+00" purity="4.0912047028541565e-01" nType="0">
              <Node pos="l" depth="4" NCoef="0" IVar="-1" Cut="0.0000000000000000e+00" cType="1" res="-9.9000000000000000e+01" rms="0.0000000000000000e+00" purity="5.2679437398910522e-01" nType="1"/>
              <Node pos="r" depth="4" NCoef="0" IVar="-1" Cut="0.0000000000000000e+00" cType="1" res="-9.9000000000000000e+01" rms="0.0000000000000000e+00" purity="3.3983835577964783e-01" nType="-1"/>
            </Node>
          </Node>
        </Node>
      </Node>
    </BinaryTree>
    <BinaryTree type="DecisionTree" boostWeight="2.2470989418425860e-01" itree="13">
      <Node pos="s" depth="0" NCoef="0" IVar="0" Cut="2.1886029052734375e+02" cType="0" res="-9.9000000000000000e+01" rms="0.0000000000000000e+00" purity="5.1074099540710449e-01" nType="0">
        <Node pos="l" depth="1" NCoef="0" IVar="3" Cut="1.7249913330078125e+03" cType="1" res="-9.9000000000000000e+01" rms="0.0000000000000000e+00" purity="6.8798011541366577e-01" nType="0">
          <Node pos="l" depth="2" NCoef="0" IVar="2" Cut="1.7902752161026001e+00" cType="1" res="-9.9000000000000000e+01" rms="0.0000000000000000e+00" purity="7.1483981609344482e-01" nType="0">
            <Node pos="l" depth="3" NCoef="0" IVar="0" Cut="2.8498898315429688e+02" cType="0" res="-9.9000000000000000e+01" rms="0.0000000000000000e+00" purity="7.3505604267120361e-01" nType="1"/>
            <Node pos="r" depth="3" NCoef="0" IVar="7" Cut="2.3726444244384766e+00" cType="0" res="-9.9000000000000000e+01" rms="0.0000000000000000e+00" purity="3.6666730046272278e-01" nType="0">
              <Node pos="l" depth="4" NCoef="0" IVar="-1" Cut="0.0000000000000000e+00" cType="1" res="-9.9000000000000000e+01" rms="0.0000000000000000e+00" purity="9.5484679937362671e-01" nType="1"/>
              <Node pos="r" depth="4" NCoef="0" IVar="-1" Cut="0.0000000000000000e+00" cType="1" res="-9.9000000000000000e+01" rms="0.0000000000000000e+00" purity="3.3951312303543091e-01" nType="-1"/>
            </Node>
          </Node>
          <Node pos="r" depth="2" NCoef="0" IVar="3" Cut="1.9614914550781250e+03" cType="1" res="-9.9000000000000000e+01" rms="0.0000000000000000e+00" purity="1.0714925825595856e-01" nType="-1"/>
        </Node>
        <Node pos="r" depth="1" NCoef="0" IVar="10" Cut="4.4878429174423218e-01" cType="0" res="-9.9000000000000000e+01" rms="0.0000000000000000e+00" purity="4.7290131449699402e-01" nType="0">
          <Node pos="l" depth="2" NCoef="0" IVar="15" Cut="2.3936147689819336e+00" cType="0" res="-9.9000000000000000e+01" rms="0.0000000000000000e+00" purity="5.1046973466873169e-01" nType="0">
            <Node pos="l" depth="3" NCoef="0" IVar="3" Cut="1.5364556884765625e+03" cType="1" res="-9.9000000000000000e+01" rms="0.0000000000000000e+00" purity="5.3574341535568237e-01" nType="0">
              <Node pos="l" depth="4" NCoef="0" IVar="-1" Cut="0.0000000000000000e+00" cType="1" res="-9.9000000000000000e+01" rms="0.0000000000000000e+00" purity="5.4593545198440552e-01" nType="1"/>
              <Node pos="r" depth="4" NCoef="0" IVar="-1" Cut="0.0000000000000000e+00" cType="1" res="-9.9000000000000000e+01" rms="0.0000000000000000e+00" purity="9.6855558454990387e-02" nType="-1"/>
            </Node>
            <Node pos="r" depth="3" NCoef="0" IVar="13" Cut="1.0004394054412842e+00" cType="1" res="-9.9000000000000000e+01" rms="0.0000000000000000e+00" purity="4.5874688029289246e-01" nType="0">
              <Node pos="l" depth="4" NCoef="0" IVar="-1" Cut="0.0000000000000000e+00" cType="1" res="-9.9000000000000000e+01" rms="0.0000000000000000e+00" purity="5.5495387315750122e-01" nType="1"/>
              <Node pos="r" depth="4" NCoef="0" IVar="-1" Cut="0.0000000000000000e+00" cType="1" res="-9.9000000000000000e+01" rms="0.0000000000000000e+00" purity="3.6450541019439697e-01" nType="-1"/>
            </Node>
          </Node>
          <Node pos="r" depth="2" NCoef="0" IVar="15" Cut="2.3942468166351318e+00" cType="1" res="-9.9000000000000000e+01" rms="0.0000000000000000e+00" purity="3.9845934510231018e-01" nType="0">
            <Node pos="l" depth="3" NCoef="0" IVar="2" Cut="-1.5487153530120850e+00" cType="0" res="-9.9000000000000000e+01" rms="0.0000000000000000e+00" purity="5.7627147436141968e-01" nType="0">
              <Node pos="l" depth="4" NCoef="0" IVar="-1" Cut="0.0000000000000000e+00" cType="1" res="-9.9000000000000000e+01" rms="0.0000000000000000e+00" purity="6.2525856494903564e-01" nType="1"/>
              <Node pos="r" depth="4" NCoef="0" IVar="-1" Cut="0.0000000000000000e+00" cType="1" res="-9.9000000000000000e+01" rms="0.0000000000000000e+00" purity="3.2450902462005615e-01" nType="-1"/>
            </Node>
            <Node pos="r" depth="3" NCoef="0" IVar="10" Cut="2.1400371566414833e-02" cType="1" res="-9.9000000000000000e+01" rms="0.0000000000000000e+00" purity="3.8756114244461060e-01" nType="-1"/>
          </Node>
        </Node>
      </Node>
    </BinaryTree>
    <BinaryTree type="DecisionTree" boostWeight="2.2500883047534775e-01" itree="14">
      <Node pos="s" depth="0" NCoef="0" IVar="2" Cut="-1.0672072172164917e+00" cType="0" res="-9.9000000000000000e+01" rms="0.0000000000000000e+00" purity="4.9710804224014282e-01" nType="0">
        <Node pos="l" depth="1" NCoef="0" IVar="2" Cut="8.2208687067031860e-01" cType="1" res="-9.9000000000000000e+01" rms="0.0000000000000000e+00" purity="5.3068053722381592e-01" nType="0">
          <Node pos="l" depth="2" NCoef="0" IVar="1" Cut="1.1368806152343750e+03" cType="1" res="-9.9000000000000000e+01" rms="0.0000000000000000e+00" purity="5.9197592735290527e-01" nType="0">
            <Node pos="l" depth="3" NCoef="0" IVar="18" Cut="2.8021147460937500e+03" cType="1" res="-9.9000000000000000e+01" rms="0.0000000000000000e+00" purity="6.0331445932388306e-01" nType="0">
              <Node pos="l" depth="4" NCoef="0" IVar="-1" Cut="0.0000000000000000e+00" cType="1" res="-9.9000000000000000e+01" rms="0.0000000000000000e+00" purity="6.0440975427627563e-01" nType="1"/>
              <Node pos="r" depth="4" NCoef="0" IVar="-1" Cut="0.0000000000000000e+00" cType="1" res="-9.9000000000000000e+01" rms="0.0000000000000000e+00" purity="4.5961388945579529e-01" nType="-1"/>
            </Node>
            <Node pos="r" depth="3" NCoef="0" IVar="1" Cut="1.2682540283203125e+03" cType="1" res="-9.9000000000000000e+01" rms="0.0000000000000000e+00" purity="1.0541597753763199e-01" nType="-1"/>
          </Node>
          <Node pos="r" depth="2" NCoef="0" IVar="17" Cut="4.5535867309570312e+02" cType="0" res="-9.9000000000000000e+01" rms="0.0000000000000000e+00" purity="4.4213122129440308e-01" nType="0">
            <Node pos="l" depth="3" NCoef="0" IVar="9" Cut="1.0467708110809326e+00" cType="1" res="-9.9000000000000000e+01" rms="0.0000000000000000e+00" purity="5.4101228713989258e-01" nType="0">
              <Node pos="l" depth="4" NCoef="0" IVar="-1" Cut="0.0000000000000000e+00" cType="1" res="-9.9000000000000000e+01" rms="0.0000000000000000e+00" purity="6.3161283731460571e-01" nType="1"/>
              <Node pos="r" depth="4" NCoef="0" IVar="-1" Cut="0.0000000000000000e+00" cType="1" res="-9.9000000000000000e+01" rms="0.0000000000000000e+00" purity="4.4313219189643860e-01" nType="-1"/>
            </Node>
            <Node pos="r" depth="3" NCoef="0" IVar="3" Cut="3.7298925781250000e+02" cType="1" res="-9.9000000000000000e+01" rms="0.0000000000000000e+00" purity="4.1310480237007141e-01" nType="-1"/>
          </Node>
        </Node>
        <Node pos="r" depth="1" NCoef="0" IVar="0" Cut="3.0658285522460938e+02" cType="0" res="-9.9000000000000000e+01" rms="0.0000000000000000e+00" purity="3.9250567555427551e-01" nType="0">
          <Node pos="l" depth="2" NCoef="0" IVar="3" Cut="1.2850711669921875e+03" cType="1" res="-9.9000000000000000e+01" rms="0.0000000000000000e+00" purity="7.1275067329406738e-01" nType="0">
            <Node pos="l" depth="3" NCoef="0" IVar="1" Cut="4.7753247070312500e+02" cType="1" res="-9.9000000000000000e+01" rms="0.0000000000000000e+00" purity="7.8354912996292114e-01" nType="0">
              <Node pos="l" depth="4" NCoef="0" IVar="-1" Cut="0.0000000000000000e+00" cType="1" res="-9.9000000000000000e+01" rms="0.0000000000000000e+00" purity="8.3875828981399536e-01" nType="1"/>
              <Node pos="r" depth="4" NCoef="0" IVar="-1" Cut="0.0000000000000000e+00" cType="1" res="-9.9000000000000000e+01" rms="0.0000000000000000e+00" purity="4.3350315093994141e-01" nType="-1"/>
            </Node>
            <Node pos="r" depth="3" NCoef="0" IVar="1" Cut="1.6222363281250000e+02" cType="0" res="-9.9000000000000000e+01" rms="0.0000000000000000e+00" purity="3.1535601615905762e-01" nType="0">
              <Node pos="l" depth="4" NCoef="0" IVar="-1" Cut="0.0000000000000000e+00" cType="1" res="-9.9000000000000000e+01" rms="0.0000000000000000e+00" purity="6.9088286161422729e-01" nType="1"/>
              <Node pos="r" depth="4" NCoef="0" IVar="-1" Cut="0.0000000000000000e+00" cType="1" res="-9.9000000000000000e+01" rms="0.0000000000000000e+00" purity="1.5769007802009583e-01" nType="-1"/>
            </Node>
          </Node>
          <Node pos="r" depth="2" NCoef="0" IVar="19" Cut="2.0602221679687500e+03" cType="0" res="-9.9000000000000000e+01" rms="0.0000000000000000e+00" purity="3.7242370843887329e-01" nType="0">
            <Node pos="l" depth="3" NCoef="0" IVar="-1" Cut="0.0000000000000000e+00" cType="1" res="-9.9000000000000000e+01" rms="0.0000000000000000e+00" purity="5.2766305208206177e-01" nType="1"/>
            <Node pos="r" depth="3" NCoef="0" IVar="6" Cut="-2.1714296340942383e+00" cType="1" res="-9.9000000000000000e+01" rms="0.0000000000000000e+00" purity="3.7018913030624390e-01" nType="-1"/>
          </Node>
        </Node>
      </Node>
    </BinaryTree>
    <BinaryTree type="DecisionTree" boostWeight="2.1486689297437708e-01" itree="15">
      <Node pos="s" depth="0" NCoef="0" IVar="2" Cut="-8.2675522565841675e-01" cType="0" res="-9.9000000000000000e+01" rms="0.0000000000000000e+00" purity="4.9878579378128052e-01" nType="0">
