<?xml version="1.0"?>
<MethodSetup Method="MLP::MLPBNN">
  <GeneralInfo>
    <Info name="TMVA Release" value="4.2.1 [262657]"/>
    <Info name="ROOT Release" value="6.05/02 [394498]"/>
    <Info name="Creator" value="karavdia"/>
    <Info name="Date" value="Sun Jan 24 11:24:36 2016"/>
    <Info name="Host" value="Linux lcgapp-slc6-x86-64-21.cern.ch 2.6.32-504.23.4.el6.x86_64 #1 SMP Wed Jun 10 07:47:59 CEST 2015 x86_64 x86_64 x86_64 GNU/Linux"/>
    <Info name="Dir" value="/afs/desy.de/user/k/karavdia/xxl/af-cms/HomemadeTTbarMVA"/>
    <Info name="Training events" value="30000"/>
    <Info name="TrainingTime" value="7.46547696e+02"/>
    <Info name="AnalysisType" value="Classification"/>
  </GeneralInfo>
  <Options>
    <Option name="NCycles" modified="Yes">600</Option>
    <Option name="HiddenLayers" modified="Yes">N-2,N+4</Option>
    <Option name="NeuronType" modified="Yes">tanh</Option>
    <Option name="RandomSeed" modified="No">1</Option>
    <Option name="EstimatorType" modified="No">CE</Option>
    <Option name="NeuronInputType" modified="Yes">sum</Option>
    <Option name="V" modified="Yes">False</Option>
    <Option name="VerbosityLevel" modified="No">Default</Option>
    <Option name="VarTransform" modified="Yes">N</Option>
    <Option name="H" modified="Yes">True</Option>
    <Option name="CreateMVAPdfs" modified="No">False</Option>
    <Option name="IgnoreNegWeightsInTraining" modified="No">False</Option>
    <Option name="TrainingMethod" modified="Yes">BFGS</Option>
    <Option name="LearningRate" modified="Yes">2.000000e-02</Option>
    <Option name="DecayRate" modified="No">1.000000e-02</Option>
    <Option name="TestRate" modified="Yes">5</Option>
    <Option name="EpochMonitoring" modified="No">False</Option>
    <Option name="Sampling" modified="No">1.000000e+00</Option>
    <Option name="SamplingEpoch" modified="No">1.000000e+00</Option>
    <Option name="SamplingImportance" modified="No">1.000000e+00</Option>
    <Option name="SamplingTraining" modified="No">True</Option>
    <Option name="SamplingTesting" modified="No">False</Option>
    <Option name="ResetStep" modified="No">50</Option>
    <Option name="Tau" modified="No">3.000000e+00</Option>
    <Option name="BPMode" modified="No">sequential</Option>
    <Option name="BatchSize" modified="No">-1</Option>
    <Option name="ConvergenceImprove" modified="No">1.000000e-30</Option>
    <Option name="ConvergenceTests" modified="No">-1</Option>
    <Option name="UseRegulator" modified="Yes">True</Option>
    <Option name="UpdateLimit" modified="No">10000</Option>
    <Option name="CalculateErrors" modified="No">False</Option>
    <Option name="WeightRange" modified="No">1.000000e+00</Option>
  </Options>
  <Variables NVar="8">
    <Variable VarIndex="0" Expression="fabs(lep_eta)" Label="fabs(lep_eta)" Title="|lepton #eta|" Unit="" Internal="fabs_lep_eta_" Type="F" Min="5.55346523e-05" Max="2.52576900e+00"/>
    <Variable VarIndex="1" Expression="MwT" Label="MwT" Title="M^{W}_{T}" Unit="GeV" Internal="MwT" Type="F" Min="1.05148170e-03" Max="1.68394263e+03"/>
    <Variable VarIndex="2" Expression="met_pt" Label="met_pt" Title="missing E_{T}" Unit="" Internal="met_pt" Type="F" Min="2.49311835e-01" Max="1.48329395e+03"/>
    <Variable VarIndex="3" Expression="ljet_CSV" Label="ljet_CSV" Title="btag: combinedSecondaryVertex" Unit="" Internal="ljet_CSV" Type="F" Min="0.00000000e+00" Max="9.99999344e-01"/>
    <Variable VarIndex="4" Expression="log(lep_pt)" Label="log(lep_pt)" Title="log(lepton p_{T})" Unit="" Internal="log_lep_pt_" Type="F" Min="3.91205859e+00" Max="7.21740818e+00"/>
    <Variable VarIndex="5" Expression="log(dR_lep_cljet)" Label="log(dR_lep_cljet)" Title="log(#Delta R(lep, close jet))" Unit="" Internal="log_dR_lep_cljet_" Type="F" Min="-7.24918318e+00" Max="1.65563619e+00"/>
    <Variable VarIndex="6" Expression="log(fabs((dR_cljet_ljet-3.14)/3.14))" Label="log(fabs((dR_cljet_ljet-3.14)/3.14))" Title="log(|#Delta R(close jet, lead jet)-#pi|/#pi)" Unit="" Internal="log_fabs__dR_cljet_ljet_M_3.14__D_3.14__" Type="F" Min="-1.29737692e+01" Max="-8.29795524e-02"/>
    <Variable VarIndex="7" Expression="jets_pt" Label="jets_pt" Title="sum of jets p_{T}" Unit="" Internal="jets_pt" Type="F" Min="2.51978699e+02" Max="9.10888965e+03"/>
  </Variables>
  <Spectators NSpec="1">
    <Spectator SpecIndex="0" Expression="Mttbar" Label="Mttbar" Title="M_{tt}" Unit="" Internal="Mttbar" Type="F" Min="1.81387817e+02" Max="5.44577783e+03"/>
  </Spectators>
  <Classes NClass="2">
    <Class Name="Signal" Index="0"/>
    <Class Name="Background" Index="1"/>
  </Classes>
  <Transformations NTransformations="1">
    <Transform Name="Normalize">
      <Selection>
        <Input NInputs="8">
          <Input Type="Variable" Label="fabs(lep_eta)" Expression="fabs(lep_eta)"/>
          <Input Type="Variable" Label="MwT" Expression="MwT"/>
          <Input Type="Variable" Label="met_pt" Expression="met_pt"/>
          <Input Type="Variable" Label="ljet_CSV" Expression="ljet_CSV"/>
          <Input Type="Variable" Label="log(lep_pt)" Expression="log(lep_pt)"/>
          <Input Type="Variable" Label="log(dR_lep_cljet)" Expression="log(dR_lep_cljet)"/>
          <Input Type="Variable" Label="log(fabs((dR_cljet_ljet-3.14)/3.14))" Expression="log(fabs((dR_cljet_ljet-3.14)/3.14))"/>
          <Input Type="Variable" Label="jets_pt" Expression="jets_pt"/>
        </Input>
        <Output NOutputs="8">
          <Output Type="Variable" Label="fabs(lep_eta)" Expression="fabs(lep_eta)"/>
          <Output Type="Variable" Label="MwT" Expression="MwT"/>
          <Output Type="Variable" Label="met_pt" Expression="met_pt"/>
          <Output Type="Variable" Label="ljet_CSV" Expression="ljet_CSV"/>
          <Output Type="Variable" Label="log(lep_pt)" Expression="log(lep_pt)"/>
          <Output Type="Variable" Label="log(dR_lep_cljet)" Expression="log(dR_lep_cljet)"/>
          <Output Type="Variable" Label="log(fabs((dR_cljet_ljet-3.14)/3.14))" Expression="log(fabs((dR_cljet_ljet-3.14)/3.14))"/>
          <Output Type="Variable" Label="jets_pt" Expression="jets_pt"/>
        </Output>
      </Selection>
      <Class ClassIndex="0">
        <Ranges>
          <Range Index="0" Min="5.5534652346977964e-05" Max="2.5257689952850342e+00"/>
          <Range Index="1" Min="4.8870486207306385e-03" Max="1.6839426269531250e+03"/>
          <Range Index="2" Min="8.3854657411575317e-01" Max="1.4832939453125000e+03"/>
          <Range Index="3" Min="0.0000000000000000e+00" Max="9.9999934434890747e-01"/>
          <Range Index="4" Min="3.9120585918426514e+00" Max="7.2174081802368164e+00"/>
          <Range Index="5" Min="-5.8127536773681641e+00" Max="1.5248090028762817e+00"/>
          <Range Index="6" Min="-1.1626511573791504e+01" Max="-8.2979552447795868e-02"/>
          <Range Index="7" Min="2.5380702209472656e+02" Max="4.1356679687500000e+03"/>
        </Ranges>
      </Class>
      <Class ClassIndex="1">
        <Ranges>
          <Range Index="0" Min="7.3218099714722484e-05" Max="2.5178401470184326e+00"/>
          <Range Index="1" Min="1.0514816967770457e-03" Max="9.2994604492187500e+02"/>
          <Range Index="2" Min="2.4931183457374573e-01" Max="5.9463464355468750e+02"/>
          <Range Index="3" Min="0.0000000000000000e+00" Max="9.9996292591094971e-01"/>
          <Range Index="4" Min="3.9120972156524658e+00" Max="6.9630188941955566e+00"/>
          <Range Index="5" Min="-7.2491831779479980e+00" Max="1.6556361913681030e+00"/>
          <Range Index="6" Min="-1.2973769187927246e+01" Max="-1.3283622264862061e-01"/>
          <Range Index="7" Min="2.5197869873046875e+02" Max="9.1088896484375000e+03"/>
        </Ranges>
      </Class>
      <Class ClassIndex="2">
        <Ranges>
          <Range Index="0" Min="5.5534652346977964e-05" Max="2.5257689952850342e+00"/>
          <Range Index="1" Min="1.0514816967770457e-03" Max="1.6839426269531250e+03"/>
          <Range Index="2" Min="2.4931183457374573e-01" Max="1.4832939453125000e+03"/>
          <Range Index="3" Min="0.0000000000000000e+00" Max="9.9999934434890747e-01"/>
          <Range Index="4" Min="3.9120585918426514e+00" Max="7.2174081802368164e+00"/>
          <Range Index="5" Min="-7.2491831779479980e+00" Max="1.6556361913681030e+00"/>
          <Range Index="6" Min="-1.2973769187927246e+01" Max="-8.2979552447795868e-02"/>
          <Range Index="7" Min="2.5197869873046875e+02" Max="9.1088896484375000e+03"/>
        </Ranges>
      </Class>
    </Transform>
  </Transformations>
  <MVAPdfs/>
  <Weights>
    <Layout NLayers="4">
      <Layer Index="0" NNeurons="9">
        <Neuron NSynapses="6">
          5.6583311960810657e-02 -5.5379075091801400e-02 2.7764582299483176e-01 1.8745128400430525e-01 -3.3474799183278192e-01 -7.1184995118496477e-02 
        </Neuron>
        <Neuron NSynapses="6">
          -3.2555624224685786e-01 -3.0975262147653726e-02 -5.6239785994445579e-01 -5.4743208315675040e-01 -3.4356226552371716e+00 1.2310521293502366e+00 
        </Neuron>
        <Neuron NSynapses="6">
          -8.8851655338732671e-01 9.8607781803670069e-01 -3.7193200982496016e-01 3.1589440059807523e-02 1.6666948898000229e+00 1.8446199464942239e+00 
        </Neuron>
        <Neuron NSynapses="6">
          -8.3370824303132485e-01 7.9736689824135593e-02 -2.7525661903594695e-01 -1.1591748979037122e+00 4.7519968443399285e-02 -3.9144843276677048e-03 
        </Neuron>
        <Neuron NSynapses="6">
          -9.8508608703785017e-01 5.9642599564860654e-01 1.6840351877503990e+00 2.8329984392606833e-01 6.9662686043029304e-02 -3.9102034738576807e-01 
        </Neuron>
        <Neuron NSynapses="6">
          9.4003208743615807e-01 3.9170537195228361e+00 -1.9723063975331936e-01 -1.9412888690561818e+00 -6.3532214042192225e-01 -3.3693287647731107e-01 
        </Neuron>
        <Neuron NSynapses="6">
          2.6800859424405660e-02 -6.0713619960078069e-02 4.0472723477118312e-02 1.3418606394790483e-01 1.5494567119370933e-01 1.5377508144352662e-02 
        </Neuron>
        <Neuron NSynapses="6">
          1.3992280483553710e+00 2.0706510606632915e+00 3.8446218631815722e-02 -2.3573208521967106e+00 -2.2831415167102551e+00 2.2611582220385298e+00 
        </Neuron>
        <Neuron NSynapses="6">
          8.9943725144387887e-01 1.6692616751862444e+00 7.2927681479609718e-01 -1.2360065349710758e-01 -2.5997831827329105e+00 4.7438642532027639e+00 
        </Neuron>
      </Layer>
      <Layer Index="1" NNeurons="7">
        <Neuron NSynapses="12">
          -4.0026111088367711e-01 -1.6118892975466663e+00 -5.5410295602769588e-01 -1.3181195125375311e+00 1.8750671310272555e+00 -7.1462333614178364e-01 -2.1841282620249554e+00 -2.6907981151629223e-01 5.0871684014709644e-02 5.9173129124769386e-01 1.5870480957087989e+00 -2.9281834147756447e-01 
        </Neuron>
        <Neuron NSynapses="12">
          -4.0195962522003324e-02 -1.0263146649385591e+00 4.5086167824116924e-01 -7.8834153502735405e-01 -1.1448309455387641e-01 -1.7580638497299816e+00 6.6633061981382768e-01 2.8691678159361036e+00 2.5327269611993417e+00 -4.1650192595917451e-01 -2.1143421604473867e+00 -1.3912994274342365e+00 
        </Neuron>
        <Neuron NSynapses="12">
          8.5365492221605288e-01 1.5560708853869223e+00 1.9360812056715500e+00 7.1442974785156255e-01 8.9130894583381071e-01 -7.1211806211084930e-02 -2.0533771108851799e+00 -4.7267439402559557e-02 9.1407783866161296e-01 -1.1839603046681764e+00 -2.0610326890247115e+00 -1.2919353983144799e+00 
        </Neuron>
        <Neuron NSynapses="12">
          1.3880834449686077e+00 -6.6694819241840875e-01 6.8830775830029922e-01 -1.8808813938675830e+00 -2.2139825533421065e+00 1.4684112677495265e+00 1.4973260353122009e+00 2.9875428343353088e-02 -5.0106292333797420e-01 -2.6354141835899769e-01 -2.4547930239259679e+00 -1.2872807141721101e+00 
        </Neuron>
        <Neuron NSynapses="12">
          1.1484387837414090e+00 1.5933569322207384e+00 1.0895155922634008e-01 8.2258304247767522e-01 -1.6606136922589916e+00 -6.8942090047751470e-01 -5.4985400387870553e-01 1.2067832804771633e-01 -1.1819717159610323e-01 1.2859559512472107e+00 2.4435245970951194e-01 3.0547177788001345e-01 
        </Neuron>
        <Neuron NSynapses="12">
          -2.2717729261808159e+00 1.6222573870665757e+00 1.8591997414612684e+00 -1.4883130918184491e+00 6.7537267859073913e-01 -2.2392654063125130e+00 -4.4906954116303259e+00 5.0882965277971970e-01 -2.2955387305874936e-01 2.1510257363487439e+00 6.5172964525836197e-01 -7.0942811135788778e-02 
        </Neuron>
        <Neuron NSynapses="12">
          1.5610806344110293e+00 8.0836133019363865e-01 -2.9053971189464205e+00 3.0717305255596677e-01 4.9028588438969051e-01 -1.2953930540946015e+00 -1.5642525382730657e-01 -8.0838937372273001e-01 1.5578054167024089e+00 5.9709690064998744e-01 1.1018791084023887e+00 -1.4222251813790718e+00 
        </Neuron>
      </Layer>
      <Layer Index="2" NNeurons="13">
        <Neuron NSynapses="1">
          -1.6811664041605496e+00 
        </Neuron>
        <Neuron NSynapses="1">
          2.8849158469113356e+00 
        </Neuron>
        <Neuron NSynapses="1">
          2.4108680424328375e+00 
        </Neuron>
        <Neuron NSynapses="1">
          1.2801198219946108e+00 
        </Neuron>
        <Neuron NSynapses="1">
          -2.0384117385404452e+00 
        </Neuron>
        <Neuron NSynapses="1">
          -3.2037831950531861e+00 
        </Neuron>
        <Neuron NSynapses="1">
          -3.1624119127144006e+00 
        </Neuron>
        <Neuron NSynapses="1">
          2.7255730696838034e+00 
        </Neuron>
        <Neuron NSynapses="1">
          1.8565198202516171e+00 
        </Neuron>
        <Neuron NSynapses="1">
          1.2353325781759756e+00 
        </Neuron>
        <Neuron NSynapses="1">
          1.0878994000324176e+00 
        </Neuron>
        <Neuron NSynapses="1">
          8.5917211996406506e-01 
        </Neuron>
        <Neuron NSynapses="1">
          -1.8739951912821395e+00 
        </Neuron>
      </Layer>
      <Layer Index="3" NNeurons="1">
        <Neuron NSynapses="0"/>
      </Layer>
    </Layout>
    <InverseHessian NElements="22801" NRows="151" NCols="151">
      <Row Index="0">
        7.2604025376685867e-03 -6.8355760770276479e-05 9.3372433942479397e-04 5.6035432975095809e-04 -4.3188825924313147e-04 -3.3786852761066724e-04 8.1984394538740790e-03 5.4858803666704768e-05 1.0595534403614131e-03 6.6377136593581080e-03 -1.1393770289406968e-02 -1.0011300716106356e-03 -2.3670594271073823e-02 2.0750207415354913e-03 -3.2899276240354902e-03 -7.1927865909805948e-03 7.3752468035917151e-03 7.7944690361524517e-04 -6.8846032662376365e-03 1.1741839792164734e-04 -2.7292054104971421e-04 -6.1284440929026030e-04 1.3655343326028561e-03 -3.6115036198803739e-04 -4.4773973475738492e-03 3.8183908037079956e-04 1.2843290030719475e-03 -9.2201861296491248e-06 1.6237006152942785e-03 -1.6104312720085568e-04 4.6687000024188720e-03 1.4608582585441932e-03 -6.4618509441983314e-04 1.4074148714405426e-04 -4.0714727768304051e-03 -1.3157748675419762e-04 -1.2998374038295972e-03 7.6206303706304892e-05 -6.1629952520723269e-05 -1.1424526624185585e-04 3.9210897720944157e-04 8.6736504126748231e-05 -8.5548511972282162e-04 1.7899550190987781e-03 2.3178043626048521e-04 -2.6622384254420691e-03 -8.7428828241689228e-03 -1.3138388336553144e-04 -1.2733484212879500e-02 4.0097073310209402e-03 -6.5863593204490596e-04 -2.8718816070021861e-03 -1.0058038674895910e-02 2.9607015079934659e-05 -5.7961953161855609e-03 2.5826407086223602e-03 4.2675712981548510e-03 1.3525583749181636e-02 -1.9258374098189660e-02 7.3225431199111461e-03 1.2599601644004919e-02 -3.7187202964663098e-03 -4.4945312030602695e-03 -8.6682108889049887e-03 -8.8923349994952990e-03 -2.2715438432432775e-02 1.1899538920661194e-03 5.1229164956660949e-04 3.0759355241219378e-04 -2.2319483332865434e-03 5.5163724815154511e-04 1.3865845664749734e-03 -1.8647989283015344e-03 6.5997796530115104e-04 -4.4725189415364443e-04 -3.1168780709000523e-04 -2.3485020099562244e-03 1.2230743492028087e-02 3.6255139704981926e-03 -1.2509981523494296e-03 1.2918906444835060e-03 -6.8900504567688875e-03 3.1254129293083058e-04 -4.0818333321304516e-04 2.8568726621812281e-03 -1.8125347995619212e-05 -2.0625773200143912e-03 -1.0726109186208650e-03 6.3238874326783509e-04 9.8080228111954437e-03 9.0239698433680453e-04 1.0012320294491778e-03 -6.4578552451141332e-04 6.6444685095144312e-03 -1.9442097714226793e-03 -2.0263579299991982e-03 -1.2223465243328951e-03 9.5136204080568769e-04 7.2808217568401390e-03 9.2345308920602394e-05 1.0889074848901056e-03 2.4936820695759608e-02 1.6356399746178876e-04 -9.9971482998125315e-03 1.5816484563041522e-03 -1.5293943867884853e-02 1.2804415160302904e-02 2.8734620601974289e-04 2.1361648286264273e-03 -7.0186218336574071e-04 1.3122661393648654e-03 -1.0532185736585112e-02 -3.0033072084021065e-03 -2.1713028783247726e-02 6.2883847170332151e-03 -3.2628879363081091e-05 3.0079690072515354e-03 -1.2253035168847872e-02 3.0928009152166184e-03 1.4779961806834011e-04 -2.8768366549233220e-04 -2.1113943991858206e-03 -7.6688918657690820e-04 -7.2065538754485670e-03 1.5790467777286230e-03 -6.5263039120289565e-03 5.8322260065992049e-03 6.3985706426127904e-03 -5.2463339057325989e-03 -1.0655124240767644e-03 7.3342334114416975e-03 -2.4378764970821019e-03 -1.0283089451052467e-02 4.8958842128375354e-04 -5.4209716951750132e-03 1.3574332961135183e-02 9.9318112292571953e-03 2.3420950206024638e-02 4.0072094789835970e-03 -1.7002957444332814e-03 -5.4940100855598341e-03 3.0832092421239797e-03 9.2216301104938226e-04 -3.8667408890848938e-03 -1.0677802904150886e-04 -1.0164117646925866e-03 -1.6843905444862801e-03 8.4128315270414616e-04 -1.8631146991541104e-04 6.6045673581889711e-03 -3.7732635224142219e-03 
      </Row>
      <Row Index="1">
        -6.8355760766886098e-05 1.7040145958787704e-03 -1.0037631892591643e-04 4.9835333567619706e-06 1.7485616935658511e-04 -1.8100634836411424e-04 6.5573345493917968e-04 2.5713063314892906e-03 7.1335258639107718e-04 -1.1587555028142230e-04 4.9609507007931475e-04 -8.9410347793688434e-04 1.3588001936769198e-03 -1.0796223356199890e-02 2.6282030903921924e-03 -1.4639807381919042e-03 -3.9720025616543089e-04 -1.1782649448270370e-03 3.9369763058990086e-04 -4.7608706248128689e-04 2.1049401477211537e-04 4.3849924462815965e-04 5.0602047120886363e-05 -1.0875005337521745e-05 3.1082053338444139e-04 1.1043279407274755e-03 -8.6124131246264615e-04 6.4456614901167210e-04 2.7233673383771990e-04 -4.0313961403578256e-04 5.4810948332336892e-04 -3.9180130229179971e-03 -3.5282788798024695e-04 1.4918283791148399e-04 -1.1035133468808161e-03 5.1323109474876749e-04 3.9398314417944349e-05 -3.6708352743038797e-04 2.1297311343417176e-05 2.9766056451209246e-06 -2.0824153270375622e-05 -2.7674038270648281e-06 2.1403065530214362e-03 -5.8745801091044207e-03 1.7956333471450820e-03 8.7885937857378014e-04 -6.3403379033084547e-04 -1.4869944118666399e-03 4.3523430266090056e-03 -1.0504835370771126e-02 4.2814470559042611e-03 -4.1864662137736010e-04 2.1900140373224720e-04 -3.6930034144637205e-03 2.2157417459352396e-03 -2.2528469981388079e-03 -5.7634453819475928e-04 1.6605046887861533e-03 2.0031733722883516e-03 -1.6836737592701512e-03 -2.0753226926705491e-03 -1.2935387482786165e-03 -2.5726022590865866e-03 -7.0571133671947037e-04 4.6063917716626891e-03 -1.8576078341416068e-03 4.1333557817926905e-03 -3.9996228140376717e-04 -6.6276945530690623e-04 -4.1077159088965783e-04 -2.0136371211691355e-03 -1.9460182273639758e-03 1.7164701643778368e-03 1.1161127826760436e-03 6.5590079173710337e-03 6.2435061610025292e-04 -2.0266974924662874e-03 -2.7680758535267636e-02 -1.4791106873444293e-03 1.9394559759630494e-03 1.3379799123095807e-03 2.5362321164544141e-03 9.0665606435157153e-04 9.3591742808517013e-05 -2.9728781698388808e-03 -1.1734884904824896e-03 -2.3614387507629054e-03 1.3008662577939463e-04 2.5507653555465852e-03 -5.0749493080948227e-02 7.0670838990423424e-04 -7.0989283917479188e-04 -5.1339353111209073e-04 -3.0031316154128448e-03 -1.3941517767785223e-03 5.0079911909548629e-03 1.1410679198351659e-03 -9.1526107033225619e-04 -8.0785828646970370e-05 2.5608508967148906e-04 -1.7367887690485141e-03 -1.8782413832341832e-02 -3.2421253003520334e-03 -2.2316152204609422e-03 -2.1053874756657670e-03 2.9842663726373907e-03 -6.2408243884396223e-04 -4.7038235180863414e-03 3.6130019835873316e-03 8.4165464526405852e-03 8.6839009495717177e-03 -1.2422574986374088e-03 -3.4881372770044295e-03 -7.0900494943832923e-03 -3.1113006757432960e-03 -1.7998334284776160e-03 -3.4280593199875493e-03 1.0013965304255946e-03 -1.2093012660393165e-03 -5.5336573006166019e-03 1.1453892532113832e-03 6.8992007705838418e-03 7.1527818106667078e-03 -3.9931047035290902e-04 -8.1008315128159615e-04 -8.9627619308465592e-03 -4.1039691443871366e-03 2.7612742651561299e-03 1.6746390294010479e-03 -1.1139553985897084e-03 -1.0449534527035356e-04 6.0240753565004820e-04 -3.5380106185492911e-05 -1.6976613392097962e-03 3.1382807436447155e-04 1.8160995063086450e-04 -1.2962126898606674e-03 1.9808984833893706e-02 -2.2792765891181503e-04 -7.4115191981654347e-05 4.4133567838664000e-03 -1.0885130939655785e-03 4.7254225327811306e-04 5.1082539488868841e-03 6.6555771477805033e-04 1.1488144054330558e-03 -1.4544642769542889e-03 1.6042459870608608e-03 -3.0376617618617418e-05 -6.6244803733763083e-02 -5.7072566825227516e-02 
      </Row>
      <Row Index="2">
        9.3372433943088654e-04 -1.0037631892918786e-04 6.0103306957587305e-03 3.0981467808979520e-04 -4.3684975642167273e-05 9.8897006991668338e-06 -2.5175147194451985e-04 3.8504941516655580e-04 -1.3649063309986468e-03 2.5389902930231167e-03 -3.9282795423297391e-03 -3.2530078780503915e-03 -3.7821067827181489e-03 -1.7103477245797641e-04 -1.4152251553509571e-02 -1.9658731969602545e-03 2.5170980387590183e-03 9.2525834400194453e-04 -1.8513197171271683e-03 4.3235728533645365e-04 -3.8832413131628272e-03 -1.4677538337144217e-03 -3.6017507774420842e-05 -4.5570360673322872e-04 -1.4716921565124602e-03 -1.4325893926189284e-03 2.1257493358898139e-02 -2.6710255203831949e-03 4.0750922899171379e-04 4.3403337776315087e-03 -1.4294968731799577e-04 8.3301636644922904e-05 -1.1113525107009138e-03 -2.2980223200780871e-03 -6.5782092141421743e-04 -8.7455887386141736e-04 -4.5855902828852233e-05 -8.7782060092692630e-05 -1.1592216444951061e-04 -8.2901391005704077e-06 1.0163408062734963e-04 2.9509978320965241e-04 -4.3523110795442590e-04 -1.6297350335178380e-03 1.5499004609233235e-03 -4.1379887115390469e-03 -2.2384368241016878e-03 -7.9319257424009283e-04 -4.1003512074185983e-03 -1.4158689447302474e-03 -7.8054369706492929e-04 -2.4750795824348588e-03 -3.4892687628836289e-03 -1.1777390316938105e-03 -8.4236844221751948e-03 9.8723807430202079e-04 -4.2486919829827106e-04 -3.3727069405294552e-03 -6.4709642565916482e-03 5.2663712057716180e-04 1.7296949898512916e-03 3.2030013009298232e-03 -4.4960680987441402e-03 7.6184480412334939e-03 -1.8395221419447889e-03 -1.3437579614041795e-03 5.2889912278679370e-03 4.7405603472369499e-04 1.1872232261652045e-03 -5.0140067127521070e-04 5.2944838452773264e-04 2.2931739866607101e-03 -7.5037936951557701e-04 2.0282454074164935e-03 -8.3794897012629595e-04 -3.2816078872278842e-03 4.5308167651860148e-04 -1.3702031046705077e-01 1.0590811499686180e-02 -2.7085711070204473e-02 -2.5252421153437267e-02 -1.6996553877426965e-02 -1.5258442937572135e-02 7.8403113040498486e-03 3.6887255634046739e-02 3.0241058636504090e-03 -1.1082170756841552e-02 4.8232746083805029e-03 2.2224390576541821e-02 -2.6999768828265547e-03 8.4398211652601425e-03 1.7131103974471294e-03 -3.8979333502793690e-03 7.5745508259931864e-03 1.7204830907696670e-03 -2.0076826611017734e-03 -3.5928635509013462e-03 -1.4952071946122271e-03 1.4114322670961826e-03 1.4182586674164723e-03 7.0992035017622569e-03 -1.1321041819228064e-01 1.3009868406200303e-02 5.4548053683572614e-04 3.4786709168105681e-03 -5.3152667491453941e-03 4.7550761476581179e-03 4.2435302405113111e-03 -8.5674825325879680e-04 -1.2321640358879150e-03 8.3449707910273167e-03 -1.3988073314682660e-02 -1.5482513568405689e-02 -1.3036434260940692e-02 -6.5364593005864426e-04 6.0701044841107699e-04 3.1420393637868055e-03 -7.4989281328982603e-03 3.0525896999745923e-03 3.5307271515836944e-03 -6.8873566292659456e-03 -2.1126494897666642e-04 6.1769803868180848e-03 3.6462976404560733e-03 -8.9324553085544690e-03 1.0261275947294854e-02 2.0729221263685008e-03 1.4798830075739672e-02 1.4524765818142974e-02 9.8329182345439862e-03 9.4920758556841182e-03 -5.9180422266627685e-03 -2.4384971960610242e-02 -4.0035063967842474e-03 -2.4918065251289733e-04 -2.8649742396492928e-03 -4.6156312684417847e-03 2.3580098776649794e-02 1.2713678738381265e-02 1.7726241707274474e-03 6.2069028128370497e-03 2.4201457692555142e-03 8.4373024644044639e-04 -5.1016297560054491e-03 2.4652834605663155e-03 -6.0946973927939255e-04 -3.0098788323004700e-04 -1.0277487710895110e-03 2.3973451771165380e-03 -1.1479817574952977e-01 -1.1592628677280449e-01 
      </Row>
      <Row Index="3">
        5.6035432975319339e-04 4.9835333534031800e-06 3.0981467809112996e-04 4.0392289731259190e-03 2.5954038154803486e-04 -6.3834376916928928e-05 2.6562631388351112e-03 6.0944992265014289e-04 4.4167366759675312e-03 5.4489263440189216e-03 -1.6959733503070268e-03 -7.2069367581170760e-04 -9.4661952793815094e-03 -7.2914090716873735e-04 -3.6771183135842357e-04 -1.5052462523449410e-02 -4.3430815444352941e-03 -3.4784702741571540e-04 -1.1448336250674642e-03 -2.3595095599373048e-04 1.2141129880873072e-04 -7.4180576547990583e-03 -2.3351194520251410e-04 3.6704324813505764e-04 -1.8061301507187339e-03 2.3156138033650570e-05 -1.2973377466971407e-03 3.8605579323621984e-03 1.1829836069855817e-03 -3.8495468805891677e-04 3.5326379272474784e-03 -2.3470826658128505e-03 -3.5054001064790908e-05 -1.1936618958556472e-02 1.4201629291082799e-04 2.0590538311714818e-04 -3.8136603319421442e-05 4.7831391360226334e-05 -2.0608353660173589e-04 2.3676868148560909e-04 3.0898746646828269e-05 -3.1502939621210073e-05 1.1623215154715934e-03 -7.6200755440998438e-04 3.5097528072653571e-03 -1.9731592846869029e-02 -5.2515951582192836e-03 -8.0558741304991813e-04 -5.6577194780781277e-03 8.4648023272160993e-04 6.9498973222085047e-03 -1.4351468556179062e-02 -1.0434738880879531e-02 -1.7328972074210670e-03 -1.0710739450566443e-03 -3.3918034329875582e-03 1.4401386401823736e-03 6.8574165266355805e-03 -1.0453368959442984e-02 2.5606623031605535e-03 1.7776805363384483e-03 1.5205836496379923e-03 -4.4828567303219387e-04 -6.1221549256126797e-04 -6.9224468001618522e-03 -1.7989195275016967e-02 1.4047558785487174e-03 -9.6343686792796119e-04 1.9137351830261576e-03 -9.1882741936934577e-05 4.0983659877096641e-04 2.2736007205683079e-03 5.3200514821069122e-05 3.2712844501475939e-03 8.8380946671729084e-04 2.6287206797238069e-03 -2.7702974683108095e-03 1.5021648103421711e-02 -6.3294363801927791e-03 1.9321041846072015e-03 6.9222504089921444e-03 3.7580177479048433e-03 -2.2365998387782601e-03 -1.2254716333165282e-03 -3.2979822660175752e-03 9.2899099563738697e-04 -9.7601301991589854e-04 -2.4192565319498798e-03 -5.2412572676419668e-03 -9.6797970114777740e-03 -1.1988892128732467e-02 4.5376694655609251e-03 -1.0804561826374980e-03 1.0532769949388671e-02 1.9442059312052395e-02 5.4154785783714571e-03 -1.0720922838891660e-02 -3.1013988248004085e-03 2.9456948937275386e-03 2.2045059098163913e-03 1.7400587206142671e-02 5.6400667936094828e-04 -1.8329018948507851e-03 -1.6071567798310927e-03 7.1778997219208739e-04 -2.0532190900255279e-02 -6.3603561762179926e-05 -2.1090723159649530e-03 2.7807345289073779e-03 1.6335555856237713e-04 3.1120393641307187e-03 -1.4512823487880600e-03 -1.3795477724859957e-02 -4.7539341831503996e-02 1.4713747251420061e-02 4.2899535711466959e-04 9.6549186704491304e-04 -1.2186572470325971e-02 -1.0495272018087065e-02 -4.2359505041199303e-03 -1.5674235362942357e-04 -7.6271646941062417e-04 2.6930072475310918e-03 2.9796794807978822e-03 -1.8108642286155383e-03 1.9389798225291022e-02 1.7748836602310119e-03 9.2258469941688351e-04 -7.1512091789728595e-03 -2.4442087858134211e-03 -6.3545750987183914e-03 -3.4786197074098400e-03 8.3941064140708073e-03 -1.7130274290367000e-03 -8.6791896745843089e-03 4.6723711897537004e-04 5.6579843536527768e-03 5.4998686874910496e-02 -3.5516149435015640e-03 -1.8493222440510843e-03 -1.8177868330663711e-03 2.8969923102896873e-03 -4.2652363210181820e-03 6.0995462904073587e-03 1.9573580202880345e-03 -2.4189285225475221e-03 3.3860160265807822e-03 -2.4934751792224721e-04 -8.3319091132029780e-04 -1.7767534727379547e-02 -9.2338501910473499e-03 
      </Row>
      <Row Index="4">
        -4.3188825924287658e-04 1.7485616936442757e-04 -4.3684975622409463e-05 2.5954038155674415e-04 5.1379247737984041e-03 9.3070773232767834e-04 -9.1619789276122226e-03 7.0380963997686025e-04 -2.6395045852737492e-04 1.1365962045937646e-03 3.5657629605376454e-02 5.9241764912566488e-03 1.3464612128874984e-02 -1.3660789716242684e-03 -1.3923915245867956e-03 -9.8564870976946585e-05 -3.2116980090298446e-02 -1.0660241196674178e-02 1.2239364167083576e-03 -1.0268171484971325e-04 2.1551974956942843e-04 -9.6930290366365314e-04 -7.6059648301113564e-04 -7.2155176049634522e-06 1.4063351800961861e-03 1.8921885816574908e-05 -1.9192809299621388e-03 1.1370358220779693e-03 9.5220854484037942e-05 1.4289139378278227e-03 -3.3213056268430858e-04 -3.8436599813984032e-03 -4.9518941718714642e-05 -2.0459091470134030e-03 1.0921586229289754e-02 2.7141479935152415e-03 6.2122958856478995e-04 4.4588620386054581e-05 7.6878658924127370e-05 7.6795291059800772e-05 -2.0930112688575262e-03 -5.0999953961388040e-04 -1.5669250359614914e-03 -1.4195825910688054e-03 -1.7953527176040355e-03 -3.1552277416294289e-04 1.5586059694355326e-02 -1.5532278092773326e-03 4.1444618648206876e-03 -2.8247423895813063e-04 -4.2041313621250086e-03 3.1704156168467649e-03 1.2278797418795144e-02 -7.4395066265886935e-03 1.8109008272295699e-02 -5.5238401344028486e-03 3.0488287283775466e-03 -3.0228910337198583e-03 8.8107200037933330e-03 -1.1637225681339004e-03 -9.5073939124842924e-03 -3.3113322315149940e-03 -2.7568299088456174e-03 2.3786118111694156e-03 6.2239765942391570e-03 -3.1590001921372934e-03 7.8500402339323032e-03 -8.3941433972159029e-04 -1.9629826715250060e-03 7.3477083383391272e-03 -5.0956282374236845e-05 -7.2788696619259193e-04 7.0312166845878422e-04 4.2463136074797026e-03 -2.7914868699371411e-03 4.7346601718611632e-03 -4.6048099956811153e-03 3.1728811326380418e-03 -5.7709907961476896e-03 5.4689005481454800e-03 -3.0394884856827366e-04 5.6263399582483411e-03 -1.7303142404990375e-03 1.4643970961491538e-03 -4.9005436971974970e-03 -9.2300457874667672e-04 -4.5458879672214394e-03 4.1791281216775672e-03 -4.3385108724085667e-03 1.0255898335921748e-03 -8.3453201719258154e-03 -7.7080596836848897e-04 -3.8863796310909188e-03 4.6538331224128520e-03 1.1458969044367056e-03 4.3641411388016596e-03 3.7076652832668169e-05 8.4597341616465035e-04 5.3427449189801628e-03 1.9902199722721080e-03 -1.4610986235993832e-03 2.8997112994642998e-03 5.5954719563120515e-03 2.7814634802036921e-02 -1.1089907910163473e-03 8.1689323362307865e-03 -2.7399620639535362e-02 -1.8204012501213982e-02 -2.6463129333856830e-02 6.2260570598478820e-03 -4.4145698543143364e-03 3.1323102711434812e-02 1.9811277096715117e-03 -8.5353717478950965e-03 7.7882398664266758e-03 1.3988098349145323e-02 5.4837109500917476e-04 8.7622851331875078e-03 -8.4547227019210851e-03 -1.1327268292628052e-02 -2.4339315017141906e-02 2.1030778963739690e-03 -1.3413383332023573e-03 1.4683548150936879e-02 5.4270268955574318e-04 -2.3599350633798859e-02 -3.4405350197896464e-02 -1.0823227898024578e-02 1.3975911490063182e-03 -1.0726478981698279e-02 7.9438429981628731e-03 5.4928467339110439e-03 1.9117474601512550e-02 -1.5458855260939708e-03 -9.6352702069788540e-04 -2.6346629796438606e-02 -2.1775390832327879e-03 2.3767740305661200e-02 -1.0116971804458079e-02 -6.5214278657320527e-03 1.2326032932705688e-02 5.4268449888893004e-03 2.6840813700196461e-03 1.1275758193142409e-02 5.9317091407938977e-03 -5.2605874177466226e-03 6.0915147465520694e-03 5.2437777019006260e-03 -2.0609629741517020e-03 -6.2468242107177295e-03 2.4336217504383598e-02 
      </Row>
      <Row Index="5">
        -3.3786852761308090e-04 -1.8100634835963437e-04 9.8897007257978207e-06 -6.3834376915160079e-05 9.3070773233311366e-04 1.3804309057033159e-03 -1.4664118405399687e-03 -3.0871886875323719e-04 -4.4298547033679095e-03 9.1960117609955403e-04 1.2965640367498895e-02 2.6724559046123470e-04 1.2083529098912721e-03 -9.9968316635678112e-04 5.5009419558416702e-04 7.8455458746410928e-04 -1.0295037751365803e-02 -1.0135977027375488e-02 -9.3382151564234763e-05 9.3287302281789446e-05 -5.3049363682359499e-04 -3.5564145183066367e-04 1.0466743097995343e-04 -4.0195161787152879e-04 -1.9602235984559528e-04 -5.2470778728157860e-04 5.0015048022590391e-03 -9.9611764916602620e-04 -1.6191795930985691e-03 3.2375822671329322e-03 -2.1784874184747546e-05 -1.3652135293795351e-03 -1.2939092888403659e-04 -1.5859565087243256e-03 4.6328578962825289e-03 1.4772594404112798e-03 1.0577640256019069e-04 3.2336968902577896e-05 3.4006913801287297e-04 6.0409891191503254e-05 -6.9811806422654505e-04 -3.0358749445546531e-04 -1.7383279787572755e-03 -2.0157848307238825e-03 -6.0011178647259003e-04 -3.4201717708569904e-04 6.2070437605378469e-03 -5.5602624533647492e-03 -1.9119433989142759e-03 -2.5777636928951088e-03 -1.8950629584656223e-03 1.1775850455785380e-03 4.3181501927463724e-03 -1.3362089435151778e-02 4.4359304599089940e-04 1.4914185795231816e-03 1.1861523276983890e-03 -1.4830060980276531e-03 1.0955512772702373e-03 4.1118878251194407e-04 -3.6505193530485874e-03 -1.0637765395314861e-03 -1.5118412033865802e-03 2.5649719898736896e-03 -4.4735832557554756e-04 1.1784330089763762e-02 1.9710748652935826e-03 -2.7870001069664441e-04 -1.3672684106983627e-04 1.7847235413618067e-03 6.2726186911829583e-05 5.6957230646576505e-04 -5.4274273402845881e-04 2.6000343651223167e-03 -5.1607208517639022e-03 1.9096379627374766e-03 -1.0222155125787138e-03 -8.5065000141206319e-03 2.4680600406668737e-03 -6.2148535048728755e-03 -5.7725272913664817e-03 -3.0960357517844975e-03 -6.0213795177693893e-03 3.3758402520157301e-03 9.2162944189824614e-03 3.0843090586804307e-04 -3.6707215450543637e-03 5.4837659199800399e-03 3.1749197200815656e-03 1.5153974016187191e-02 2.8336632450901098e-03 1.0795444327758707e-03 -3.8889597374651159e-04 7.6191804875112012e-03 1.9996621491543414e-03 -9.0070533638122313e-04 -1.7491899796773414e-03 7.1389949024071851e-04 3.1838827140418940e-03 -1.4961212123276463e-03 1.1500324182992165e-03 -1.6227252286597830e-02 4.9642166119875930e-03 8.1181680870106125e-03 7.0760993566425635e-04 -3.9192643579413471e-03 -5.2633925175261109e-03 -7.7625605312859631e-03 -1.3751909605065135e-02 1.2181018994894890e-03 -3.7583035372470703e-03 9.0702115399281212e-03 5.1163755233164104e-03 2.3814687335316852e-02 -3.7961089566325261e-03 6.2033452827683806e-03 5.5449987735124474e-03 -6.5229146867348733e-03 5.7658534702719529e-05 -8.8659896963212050e-03 -2.0796717890452399e-02 2.3921672042600678e-03 7.2149881556862576e-04 1.4857613069730258e-02 2.4784326507489274e-03 -8.2604226489868260e-03 -5.7939456753883763e-03 -1.6096362586449278e-03 2.0627804817181516e-03 -2.0726654852032352e-03 2.9012666425639027e-03 3.0404023139241434e-03 3.9213156077546711e-03 -1.5710112132864612e-03 -1.0435269350118083e-03 -1.0982225589457481e-02 -6.2968484220594194e-03 -2.0864955696870968e-02 2.2751015695029429e-03 9.7692807825165207e-04 4.0327233016844595e-04 4.3207436610328137e-03 5.7851638530260867e-04 2.2597244667703197e-03 4.3133835988163893e-03 -2.3898490987932721e-03 5.7932936496583078e-03 2.9174543089763444e-03 2.3009005106339414e-04 7.3394513292617605e-03 9.4738993033340047e-03 
      </Row>
      <Row Index="6">
        8.1984394538463113e-03 6.5573345490512825e-04 -2.5175147211704547e-04 2.6562631388312350e-03 -9.1619789275359208e-03 -1.4664118405036388e-03 2.6411170707976039e-01 1.0978732848573994e-02 2.9851767981347855e-02 1.9116449435524624e-02 -4.3750342642299010e-02 -7.6759646918074182e-03 -1.2668107856737387e-01 2.6100336437978600e-04 3.3438621703758050e-03 -1.4205477678806304e-02 3.9676027507098408e-02 3.0605494508693581e-02 -3.8365447880985303e-03 6.1749274236293824e-05 3.6551729668420053e-03 -1.7415778092693332e-03 5.5200115063651842e-03 -3.0507343592416731e-03 -5.5114450206497009e-02 3.9392257617076182e-05 6.7772534873315922e-04 -1.5070528654994005e-03 -1.6061431469606259e-03 -6.5431514788525432e-03 2.6397305646443880e-02 4.9786702095545345e-03 6.7020376795633736e-03 -1.6876542842074113e-02 -2.4035337023252480e-02 -4.7545282635709342e-03 -6.1461679388427858e-03 -1.3742695777694061e-04 -1.1709354912084226e-03 -9.3717452007688535e-04 3.2931247455477170e-03 1.0427604706954138e-03 1.0579122629583271e-01 1.2460579774316919e-02 1.5769791793615047e-02 -2.3005770808981547e-02 -5.2664816871916167e-02 2.8248115374267448e-02 2.1153406655987469e-01 2.7949469980935934e-02 3.9484019294545300e-02 -1.3124211136160822e-02 -4.4033335137404109e-02 5.0850760250206739e-02 3.8844013113098375e-02 -7.5061035983206292e-02 -1.7120587501430674e-02 2.3121813867766905e-02 -2.7836354384303291e-02 1.6744963139588037e-02 -1.5859517676317117e-02 -4.1286704638716247e-02 -8.2095139791515254e-03 -5.0746348373857282e-02 -7.4495294301615264e-02 -1.7453560947588764e-02 -2.1980289754545204e-02 8.0069652603558597e-03 -1.8032468667167109e-02 -7.2905617648819920e-02 6.0886514271716735e-03 2.1148957357444986e-03 1.9835043918628427e-02 7.2818848274671024e-03 -2.5892752468442314e-02 -9.7842927426542176e-03 4.4326012312249086e-03 -7.1099192468947692e-02 5.5633003619684679e-02 -3.0900333783090563e-02 2.1280994096925219e-02 -2.4313572308940212e-02 5.0248128892177342e-03 -7.9217814920334046e-03 4.0891913626037498e-03 5.2738027605046759e-03 7.3416227962471645e-03 -4.3705528614369590e-02 -2.8352435770439971e-03 7.2589951204381942e-02 -1.3985145164754090e-02 2.5346510936204672e-02 -3.1035948010571593e-02 -1.0311527090874512e-01 3.5786880121998182e-02 -3.4380027321914051e-02 -1.8917184494970356e-02 -4.2568302054858658e-03 -1.0219437429544259e-02 -6.3109566168741693e-03 5.1662864121906682e-02 -7.2072107469839608e-02 2.8080364685831860e-02 -8.7885073878481768e-02 -2.4022194378763899e-02 -4.4834977187270919e-02 9.9665423820337301e-02 -2.6814029265749037e-02 1.4012513883159695e-02 1.6203499875930592e-02 4.6915643359157530e-02 -1.8968187184661225e-02 -3.3197753004736874e-02 -4.4319116610152803e-01 2.3011651365398646e-02 -3.8173698584723130e-02 8.0472347007603286e-03 -4.4075242050904018e-02 8.2258715229045001e-03 2.8257787496369983e-02 7.1595179639410589e-02 -6.7446687658589168e-03 1.1607675058098392e-02 -3.2568420967557549e-02 -3.3938454176190715e-02 9.0616317687229220e-02 1.3568162329733124e-02 1.2613547777801759e-01 2.8225497775091292e-02 6.2563135702834269e-02 -8.8640358942911751e-02 7.3210695203268131e-02 4.1257043648606606e-02 3.7638802875508692e-04 -5.1070271051270627e-02 8.5239529928441582e-02 4.2030883628799462e-02 4.1352086052322345e-01 3.2716182190370702e-02 5.7852214091707481e-02 -2.3043558073731055e-02 -6.9439288352576289e-02 -1.2711922124076526e-02 -3.1070985440138366e-03 2.3284569417396095e-03 1.7906868560545457e-02 1.7216069206241941e-02 -5.4977799723129078e-02 1.4313521432599901e-02 -3.0442329681613727e-03 -8.3654309682092642e-02 
      </Row>
      <Row Index="7">
        5.4858803631652187e-05 2.5713063314957638e-03 3.8504941515681013e-04 6.0944992263928591e-04 7.0380964003893126e-04 -3.0871886874159291e-04 1.0978732848433304e-02 8.5656721006221903e-02 2.2651258050110749e-03 1.6413367861783240e-02 3.9846862957977547e-03 -7.3087310826760593e-03 1.6868263379992723e-02 9.0626985370531200e-03 -1.1968039296238308e-02 -4.0702236853935869e-04 -9.2552127268090215e-03 4.8900720681146533e-03 3.0950308699284612e-04 6.7632768320334850e-05 -4.3584082157275617e-04 1.3527260816061496e-03 1.3090067541092283e-03 -2.2049084557750455e-04 7.6417249343795129e-03 -9.6729802706648285e-03 -1.8568149031448836e-03 -1.5655202418844837e-03 -9.9420033063465484e-04 2.7685471830345204e-03 -7.5996419382681271e-03 3.1968366763298332e-02 -2.0062344325338594e-03 6.8884238987803968e-03 -1.6615426853997188e-02 7.6073184605758900e-03 3.3982771000796877e-04 -2.8579581260471318e-03 -5.5442641184946990e-04 -7.5720260879036188e-04 3.3085278058323723e-04 1.2905647878598957e-04 -1.4734016492142076e-03 8.2098045692280505e-02 -1.3516415744229560e-02 1.6925168353544056e-02 -9.4128443730955372e-03 3.1524252478455830e-03 3.7826188741081374e-02 1.4254643503011291e-01 -1.8579479070480270e-02 2.4751516041676032e-02 -6.9580338869041202e-03 -6.4088211250578281e-03 -3.6881074077520698e-02 -1.8554611015153138e-02 -7.8229589048945062e-03 -1.2018097986945558e-02 2.6973399297288463e-02 -1.3656429643438130e-02 -3.2902779811173982e-02 5.7168956685129668e-03 -1.9572493724872179e-02 1.1901656220841411e-03 1.9128214087166251e-02 -3.0525723331156218e-03 8.1180570902360250e-04 4.6620624351705704e-03 -1.0590201454529614e-02 4.0012054607600281e-02 -1.3811283767304908e-02 7.4221182384347705e-04 1.1444553744006750e-02 -1.2941258418587535e-02 -2.5036953481720393e-02 5.3125609377701454e-03 1.8451319042637575e-03 1.1286145580027274e-01 2.7923432512011997e-02 -3.5889730680801670e-03 -6.1899241864723049e-03 7.3354785530389717e-03 -3.6944785298443639e-03 -5.1993738231920286e-03 1.0784050009688542e-02 6.6054704828141103e-03 1.0285530171346410e-02 -1.1344228813917773e-02 -1.0304638052794426e-02 1.6543362368538431e-01 2.2719884863126164e-02 -5.2606931952796920e-03 6.0739425826930107e-03 3.4493135034280559e-02 -1.0437360329989535e-02 -2.9684164282791026e-02 4.4418776756938831e-03 -2.7013997013127823e-03 1.5480808523794243e-03 1.4692703001172154e-02 2.0884086757570752e-03 1.6715232524709916e-01 1.3996010175600010e-02 -2.8697271649629912e-02 -8.4554552602744346e-03 -1.5138826621521030e-02 7.1493803189099960e-03 -3.1181690753707358e-02 2.6393094320851775e-02 6.5546381505009826e-02 6.8579511654558140e-02 -1.1044477421326589e-02 -4.5569775595753648e-02 -2.7115795292416561e-01 -2.0310578813562800e-02 1.6889239372060653e-02 -1.2396562857311527e-02 1.4034642241496208e-02 2.8256623047178929e-03 2.7358058667736870e-02 -4.5856735241876570e-03 -2.6752500248479097e-02 -3.2796252125432281e-02 -6.9147821732632904e-03 -1.7158176259394983e-03 -1.2928874903463017e-01 3.6522303395585473e-02 4.3012527400033584e-02 1.7229254104143679e-02 -1.7842231725612161e-02 -1.4341053659449446e-02 4.1012415455166665e-02 -1.1474672653520420e-02 -4.4565936743751366e-02 -3.4508376510041093e-02 9.5049481464217211e-03 1.9999620279883161e-02 1.6516209785803326e-01 3.5683810951103602e-02 6.5904046614955079e-03 1.6270817849440039e-02 1.2684721931097778e-02 -5.9905580853324720e-03 -3.1756541046684593e-02 -2.1741104911537801e-02 6.0128230757377429e-03 2.3481757918895610e-03 1.4432067462968740e-03 1.8767292646867609e-03 3.0513230380179135e-01 2.5371057578732809e-01 
      </Row>
      <Row Index="8">
        1.0595534403518864e-03 7.1335258640364352e-04 -1.3649063310304452e-03 4.4167366759908233e-03 -2.6395045849087959e-04 -4.4298547032301482e-03 2.9851767980880566e-02 2.2651258049988399e-03 1.9024026090135038e-01 3.9686256772956424e-02 -4.2547179313559697e-02 -2.3620928884968806e-02 -3.4280835591438547e-03 -1.0789779905384635e-02 1.6952644479238610e-02 -3.0222093976440038e-02 -1.1736496085136341e-03 2.4676883643668296e-02 -1.0630006554504117e-02 9.1218721296587243e-04 3.2173415516113125e-03 -4.8194723178742356e-03 -1.8693744518776879e-03 2.6229785080146323e-03 -1.8099548429969477e-02 1.6469348268834949e-03 -5.0195488330323335e-02 4.3049958977810221e-06 1.9273293819762963e-02 -1.4504923424677706e-02 2.0519496399876769e-02 -7.3606173303911865e-04 6.9896637330193424e-03 -4.2804176560706092e-03 -8.9218432132154614e-03 -2.4827297994709317e-03 -5.7390989042916188e-04 -3.0427355944619237e-04 -3.6842958710041167e-03 -1.5332203745175898e-03 1.6167225469791405e-03 7.5460888826111867e-04 6.0718511876515599e-02 -6.7239850086026481e-03 1.0870827532805939e-01 -6.6940504771632187e-03 -3.8150748951126072e-02 -1.5670985250978986e-03 5.1893597918544879e-02 -1.3035453505522408e-02 2.6748692403697233e-01 7.7198654998111432e-03 -8.1162800417566433e-02 1.0901582227233251e-02 -7.3358660227058337e-03 5.6111720291047752e-02 8.9660314296965381e-03 2.2075425866916021e-02 -1.1021528348196102e-01 3.6843969347081992e-02 9.3774001181421707e-02 2.7302695773141525e-02 1.2787848568902763e-02 -1.8466419474507598e-02 -5.7385483924717651e-02 -8.5702561520117349e-02 -2.8341494419554636e-02 -4.3707335538647127e-03 -4.9356386474902827e-03 -5.5115717343724807e-02 1.0425423007771883e-04 -7.7124621541678866e-03 1.7506121826398692e-02 -2.4341787347337877e-02 4.6764246191696168e-02 -2.0932252605356381e-02 -9.5149095925434329e-03 9.5096413604431385e-02 4.1458346408072715e-02 3.5196205391669282e-02 1.3750875569856674e-01 -7.6274043050326493e-03 2.5106131461401421e-02 -1.9123845463118155e-02 -6.9488626455539867e-02 2.9106618357825353e-03 3.9605262779611780e-02 -2.4373580388533055e-02 -5.7235446746285695e-02 -1.8964018046925935e-01 -2.8790435131382738e-02 -3.2492199137028749e-03 -3.1880370630920932e-02 -5.9901445630821185e-02 1.8207783207113276e-02 -2.9134951250716523e-02 2.5688262775955817e-03 -6.0660676647658895e-03 -2.2614878330201149e-02 -9.0044719143684421e-03 7.6245382614030799e-03 1.7625895350795195e-01 -3.2380723748753892e-03 -4.9319948893408447e-02 -1.2888582034425736e-02 -2.8950877450949805e-02 7.4657491253221256e-02 4.1598084560273169e-02 2.2049254599349193e-02 -2.6762284132402989e-03 6.3686473906470129e-02 -5.1372851988391713e-02 -1.1499367909397762e-01 -5.3514127019116731e-01 -3.3235969953790731e-02 -5.1959780016524820e-02 -3.5965088915299481e-02 -4.4919956218399198e-02 -5.3709146840527591e-02 1.2377144644894311e-02 1.3965314541284851e-01 1.0703858959330907e-02 -1.7672670191981654e-02 -4.1305195539680650e-02 6.4738030905385324e-02 1.1817609716069033e-01 8.7032734477117124e-02 -6.2552126670827685e-02 -1.2476722993637585e-01 7.0010805846766708e-02 -1.5007188595483875e-02 1.3506723329097525e-03 2.2371889068085626e-02 -1.5934548749302731e-02 -3.2445166257680069e-02 8.4178415425573638e-02 1.6187390234701418e-01 3.7943645425765826e-01 1.6432958355990231e-02 2.1456237087404847e-02 4.4113357424869271e-02 -5.1070158243828989e-02 -1.3714899311810556e-02 -2.6345414232198865e-02 -1.3053693824206181e-02 4.4170052858306920e-02 -4.7859021683183234e-02 9.6524271286019953e-03 -8.4473375544695944e-03 -2.1977886515813519e-02 -6.0289410305953584e-02 
      </Row>
      <Row Index="9">
        6.6377136593375255e-03 -1.1587555027197174e-04 2.5389902930175005e-03 5.4489263440203797e-03 1.1365962046618917e-03 9.1960117614360115e-04 1.9116449435439994e-02 1.6413367861875153e-02 3.9686256772852480e-02 2.0013353135680403e-01 2.1423871081822435e-03 1.2169564540460854e-03 -1.0200372741061774e-02 2.0532794091242614e-02 -2.6762645190819591e-02 -5.0661091763541138e-02 -1.3722974500095108e-02 -1.2496518450023015e-02 -1.9276129757376685e-02 7.0771684625973931e-04 -9.2679629030746114e-04 1.0158229715888676e-02 4.7831274306804721e-03 -1.6816766431773720e-03 -7.7630971670808804e-03 1.6234738021231321e-04 -6.5061185510378074e-03 -3.2526141580498817e-02 2.5944083766643801e-03 1.8806045354016043e-03 -9.5789671310820557e-03 1.0675801911424502e-02 2.9433276841282345e-03 2.8102415772059783e-02 5.4242615657270152e-03 3.1807043702421511e-03 -3.3668855544973018e-04 2.6712325312224601e-04 -9.0248930053993758e-04 -6.4106555690708576e-03 -6.5362299200277894e-04 -5.0823041737814781e-04 1.0303803261717245e-02 3.5020416872488178e-02 6.9923883620337194e-03 1.1712681198411320e-01 1.2596782264973436e-03 -1.1841257777711001e-02 1.0377391849285406e-02 6.0984665240077909e-02 8.7406704314308397e-03 2.0270784390437827e-01 -2.4465325176202007e-02 -1.6586409558615754e-02 5.6907888124023413e-02 7.7557003363961735e-02 1.6109126051226420e-02 1.3011100396129696e-02 -4.6831800061167939e-02 3.0071893343232542e-02 4.1113535475550356e-02 2.4093080565148219e-02 -4.3061436478294274e-03 -4.2939638908162754e-03 -4.0736198852130034e-02 2.5762695247388834e-02 -3.0487565461710803e-02 5.0754423031667195e-04 -3.0475896149265956e-03 -2.4804686307198658e-02 1.3384775793038386e-03 -2.4997807336620301e-02 2.2854201396213880e-03 -3.2145976161948656e-02 1.2611727936212430e-03 -1.3081821548554157e-02 -5.7800812225456827e-03 6.3099140727732372e-02 6.7590937834384034e-03 -1.3548860655861746e-02 2.7961337870275785e-02 -5.8142111217084333e-02 -7.9090573927972155e-03 -2.4860188272797790e-03 -7.6018779535822886e-03 -7.9006449179544677e-03 5.2252024486905690e-03 6.3013205004378708e-03 -4.6442191651718812e-04 -2.1827065786156563e-02 5.0278769745627408e-02 4.7606623640273696e-03 2.8847976931355664e-02 2.8300003497521597e-02 -3.8803109508010900e-02 -4.7560594966352940e-02 2.5623741398107028e-02 1.0397278355174028e-02 1.6724256356449474e-02 -1.5719641939260828e-02 -1.0305585983909817e-02 1.3909012749071259e-01 6.3657880739410228e-02 -3.2884544889189390e-02 1.9350099638914382e-02 -1.5630581178114411e-01 9.7465780735773618e-03 -1.7989374036816115e-02 -5.6572804374722604e-03 6.4816191709848106e-03 3.1267726587554778e-02 -1.7142520252642304e-02 -1.0846070045906514e-01 -7.2383865414045201e-01 -7.6612763954599178e-02 1.4801087815592189e-02 3.0213225443807213e-02 -1.5972265404257092e-02 7.7798272492031473e-03 -1.4837359550142959e-02 -4.1155466977409773e-02 -2.7382934914387137e-02 -2.4037532823611096e-02 -1.8167671209001635e-03 1.0641630546924574e-02 -1.0486798697159738e-02 -2.7045581981945600e-02 -4.0101670894644947e-02 -7.5791895399324460e-02 1.1622779338369391e-01 5.5816654404831696e-02 2.2833450422791668e-02 -5.2750893181774013e-02 -2.6100699262770012e-02 -2.9374245390953381e-02 3.1131295086841107e-02 1.1438726121714790e-01 5.3634085335953541e-01 3.8913931729788034e-02 3.9514833208264766e-02 -4.4638634258642063e-02 -1.9170168445229716e-02 8.8932528635273823e-03 1.1667133739400176e-03 -1.3008299303376991e-04 5.5585705692487053e-02 -1.0214163052324688e-02 1.3886421359093515e-02 1.2546029001369214e-02 7.4044246864033547e-02 -3.4399882636575063e-02 
      </Row>
      <Row Index="10">
        -1.1393770289446464e-02 4.9609507018603949e-04 -3.9282795420975680e-03 -1.6959733502280028e-03 3.5657629605436003e-02 1.2965640367401540e-02 -4.3750342643013015e-02 3.9846862950427275e-03 -4.2547179313988159e-02 2.1423871073729533e-03 4.1563454725636689e-01 4.7451580965121809e-02 8.8415221405206509e-02 -1.3164694478794196e-02 -5.2821887800687944e-03 4.6798069042278942e-02 -2.2929484823281279e-01 -8.9246357519903452e-02 8.7964413473110570e-03 -1.0508382677996949e-03 -1.1951039546889662e-03 -3.9070612584349617e-03 -2.7408537135650926e-03 -1.8992655912857636e-03 -1.7694541427083262e-03 -2.3304081563340281e-03 2.8974913172260496e-03 7.3735058161707601e-03 -3.3609972538110773e-02 2.1156643117175092e-02 -1.0428098233507266e-04 -3.0556576509712725e-02 8.0969244117219804e-04 -3.1625879098940296e-02 1.0540414509259322e-01 1.7061448367778610e-02 6.0585023631390712e-03 9.8057081733158181e-04 2.5788201461363998e-03 1.6049390940775761e-03 -1.8764885841704347e-02 -4.7317619766565440e-03 -1.1071754988059714e-02 -1.2910128822898166e-02 -4.6003499170006873e-02 5.6097405180710533e-03 2.4788138512127356e-01 -3.0775662544134663e-03 4.0242300211752624e-02 -1.1248434275678981e-02 -8.9071730561207582e-02 6.8863547846784889e-02 3.3941067700810379e-01 -4.0495883590151029e-02 2.6754509794286419e-01 -3.1092151201284002e-02 6.0364866162692953e-02 -5.8505366156675342e-02 2.9214232974242416e-02 3.9954919005651124e-03 -6.9631774809171210e-02 -4.4937234660959238e-02 -4.2217618923761940e-02 5.0262190492517456e-02 5.5623757339532953e-03 1.7379323298241361e-01 2.0349419729808048e-02 -9.1154323876882944e-03 -3.3718496307736233e-02 4.4465898615678304e-02 1.5964923585365491e-02 -1.4689100569432706e-02 -1.9313341446816623e-03 -2.7152830829357908e-04 -2.4939217915507031e-03 -4.0170127617419407e-03 -9.0611084325443597e-03 3.4080988921256328e-01 9.4686144052959186e-03 1.4823396551771867e-02 -4.4912153921184444e-02 4.9546083731333443e-02 -6.4144520323497933e-02 2.7698826617921647e-02 1.6286685665540899e-02 -1.3959870305388738e-02 -3.6057515370082394e-02 6.9256428781898013e-03 -1.9643812642002323e-03 3.3483037036608820e-01 -7.8741740439554064e-02 -4.0883087520577899e-03 -3.1836399532972251e-02 7.8569244458183557e-03 5.9888346908865478e-02 1.0511696596917974e-02 -2.6313975666280652e-02 1.5856782036346374e-02 4.0149310652603021e-02 6.3817469842762653e-03 3.2954492781668579e-02 1.3603071675600964e-01 1.5090520863691326e-01 2.5495058829781803e-01 -1.6641822259527941e-02 8.4629062900726110e-02 -2.7480017915322041e-01 -1.5564283518529642e-01 -2.2347968763759146e-01 4.1322808460583713e-02 -5.5055092230928616e-02 2.5751854972531496e-01 9.5763920168262032e-02 1.8473567545397274e-01 -2.5117909575097276e-03 6.8159462691437009e-02 -3.5639508740756103e-04 4.0629441221900015e-02 -8.4798964045635777e-03 -6.4806287651232364e-02 -1.7568548903350265e-01 5.5393406415163160e-03 -1.0894530269942138e-02 9.5423126954362697e-02 5.0084267465422272e-03 -1.6349297807431329e-01 -3.6477519985902085e-01 -1.2858390984819157e-01 -3.8507078606454456e-03 -8.7891517249684276e-02 1.1955924643971308e-01 6.4381309258065622e-02 1.8647847829851211e-01 1.7989286029482965e-02 4.7261793877691111e-02 -2.4103881088921375e-01 -1.0348608669107606e-01 -3.0474809543014736e-01 -6.2921665050792608e-02 -4.8128428717907241e-03 1.5392202532473095e-01 2.8970937874205904e-02 -1.9460980249364872e-02 6.4251920602450691e-02 2.4889586519496271e-02 2.1600832831534349e-02 3.5518709637325181e-02 1.6735664849890641e-03 5.7269271273665545e-03 6.2432473275210365e-01 8.8459034679965320e-01 
      </Row>
      <Row Index="11">
        -1.0011300715909114e-03 -8.9410347793929083e-04 -3.2530078784001278e-03 -7.2069367577295821e-04 5.9241764913599369e-03 2.6724559056198630e-04 -7.6759646922722365e-03 -7.3087310828259758e-03 -2.3620928883011337e-02 1.2169564545783068e-03 4.7451580964678754e-02 8.3757653063054910e-02 2.1682442716557240e-02 1.0124705806801233e-02 2.3102630256789235e-02 6.2187304062716262e-03 -2.4204290608362995e-02 5.3814058815569020e-02 -1.2716877896503751e-03 -2.7698414001791206e-04 1.1834407434503746e-03 3.9091975692459001e-03 4.7135032200830472e-04 -9.8468065206948211e-04 -8.7486052121394232e-04 -1.0918238543843450e-03 -5.6239688751467398e-03 4.3762419734950028e-03 2.1402987215245308e-03 -1.5485805709877143e-02 3.8668847775652493e-03 -5.4200250702237211e-03 -4.9891563467807220e-03 2.6446917868173667e-03 1.6072331631200365e-02 -6.8588788456253533e-03 2.0103708599702921e-04 4.3238509724982904e-04 1.4533599256988786e-03 3.9874939419408211e-04 -2.6635244658566328e-03 -8.8533702447001329e-04 1.8547960520310658e-02 -8.3370469083928964e-04 1.7068226283568815e-03 8.5944520806687744e-03 4.3049757460101444e-02 1.0363856385272065e-01 2.4234989621982977e-02 1.4786707928446247e-03 5.1443918719218107e-03 1.5699764739127483e-02 4.9362473269342289e-02 2.1686119865428607e-01 8.0156662420162977e-02 1.1010911745786160e-02 2.9298845969100262e-02 3.5026583344517012e-02 -1.9462263015586991e-02 9.5191300894634182e-03 3.7044840554602013e-02 5.4435513187004736e-03 7.6245337316122042e-06 -6.8437156916662661e-03 -2.9254436864483785e-02 7.4949029784689536e-02 2.7219981181216709e-02 1.7873579813797308e-03 -1.0951522718437388e-02 2.0303648117874447e-02 -1.4324579204917295e-03 -2.0926964502548141e-03 4.3529102523709347e-03 1.0368920609530839e-03 -6.4952203117874044e-03 9.2528416074077503e-03 1.5133904165077490e-02 9.3231977429756280e-02 -3.6503712299612030e-02 8.1464749842519932e-03 -2.4776634593454753e-02 8.3123989903400447e-04 1.3234298822535731e-02 -8.5358829709981238e-04 -2.7071721872292745e-03 1.1431228792569033e-03 7.6506017664120548e-04 -1.5850271450808487e-02 6.4353280858034656e-03 4.9699910315202933e-03 -5.7612706905493971e-02 7.4126799186251466e-03 -6.8528680408198872e-03 7.6582553374936468e-03 -1.7145271600563478e-02 2.6073398612387055e-03 1.6747900668984440e-03 -3.8343085211705458e-05 6.9193901648528233e-03 7.3729435957678620e-03 -5.0882697589626005e-04 1.6650326516773561e-02 -1.8911131981784124e-02 3.3312315675673436e-02 2.6153411990034688e-02 -1.3404095804259858e-04 -1.9326905936291008e-02 -3.3512363872705495e-02 -5.6589698110772031e-02 -3.9156502121954675e-03 -4.9932157920988270e-02 9.8813404891029230e-02 4.8021487310361072e-02 1.8883210954264473e-01 3.3155957039437078e-02 -5.1632449820728822e-02 -3.8652041737649294e-02 1.0505194773446594e-01 -2.3449448696847550e-02 6.4735412876915213e-02 1.4561838998772986e-01 -2.4440540704902626e-02 -1.8230152885321274e-02 -5.2479374035926958e-02 -2.3812291374178896e-02 8.9513326489870648e-03 -7.4390405258966230e-02 -5.3266867658682326e-02 -5.9916127267948815e-02 -1.3170537575300109e-02 3.0502781323809968e-02 1.4927509812422066e-02 2.0501348938578322e-02 -4.9934516007246743e-04 2.4310005906283766e-02 -4.5498696103410979e-02 1.8863410947445036e-03 -1.3591888934657914e-01 -7.4403200746045228e-02 1.1369617594932805e-03 1.0971199161018265e-01 1.0206959838968077e-02 4.0932903953882493e-03 1.3111331908115236e-02 -4.1423671246788585e-03 -6.5746904879464725e-03 1.3180339618571332e-02 -3.2176234202679066e-02 8.2814307004216280e-03 1.0386558279194928e-02 2.1381582876471561e-01 
      </Row>
      <Row Index="12">
        -2.3670594271124144e-02 1.3588001936962971e-03 -3.7821067827382045e-03 -9.4661952793667035e-03 1.3464612129027401e-02 1.2083529099505390e-03 -1.2668107856803459e-01 1.6868263379704249e-02 -3.4280835593396863e-03 -1.0200372741223153e-02 8.8415221406477118e-02 2.1682442716499467e-02 6.5682938721892115e-01 1.0441005468373663e-03 5.2136646599568300e-02 5.5327934121299389e-02 -2.7611913526720967e-02 -2.5214034247804409e-02 6.5425103451375130e-02 3.9892972794870909e-04 1.2954527772272321e-03 1.4596591244576549e-02 -1.0327004804299399e-02 1.7539933522486473e-03 1.1120712455292647e-01 1.7775773492351137e-03 -9.3084456832884938e-03 -1.0007270562397592e-02 -4.7094046967240460e-03 2.7313643436487761e-04 -1.2061474397134209e-01 2.2965870324206845e-02 -4.2835064306166685e-03 4.0084972367309846e-02 2.2061074546376049e-02 7.0071465009538579e-03 3.7147669864517219e-03 -5.4644148038871312e-04 5.1815414061079021e-05 -1.2851170604783824e-04 -5.6816468526625103e-03 -6.2172137565693611e-04 6.6100226885902461e-02 2.1505899335325644e-02 7.2676011067222684e-03 1.0540986425835137e-01 7.3935294730532244e-02 8.7729146478353996e-03 6.1407574914849050e-01 2.5928641118223378e-02 4.8130614856735615e-02 1.0373531519192881e-01 1.1424075353396601e-01 5.6854830074749483e-04 6.9965974667479780e-02 -5.8458235380042634e-02 -1.2891423742107638e-01 -1.1408145461729430e-01 2.9685381046631976e-01 -1.2014319253458294e-01 -2.5184817449352070e-01 2.0850120945486550e-02 7.9177781769675902e-03 9.5094486686916446e-02 1.6365001034751767e-01 -3.7810250145468766e-02 -5.7591041260158432e-02 -3.6759891731873162e-04 -1.8165235396273571e-02 8.0092901148970663e-03 -1.3379086834289993e-02 -1.1137982926992793e-02 3.8480275605274415e-02 -5.5851683397447720e-02 -2.2500019152399964e-02 3.0208483791634419e-02 1.6719755397822559e-02 5.2516881316565511e-02 -6.3447246785940853e-02 -1.8738353417284796e-02 6.8522345566954135e-02 1.0066315061074053e-01 -2.4528717604605857e-03 7.6676759305936582e-03 -1.3085678912109629e-02 -1.9191141852866647e-02 -6.4205690948936078e-04 -1.4328595112048370e-03 2.1551432735702480e-03 2.8187514097277599e-02 9.8370246618570967e-03 1.3839112403638776e-02 -2.7465774566995969e-02 -1.0393568648969513e-01 -5.2737145811953358e-02 5.8642162964588386e-03 6.4772378526847252e-02 2.3945686404354766e-02 8.8472282316834627e-03 2.9915854034479578e-02 -5.0853475637378645e-02 3.0321449182588722e-03 -4.7644358567131118e-02 3.2896830316400498e-02 -8.9476828406486551e-03 1.3873073244104128e-01 -1.1857441773311986e-01 -2.3296378120656470e-02 -2.0006343322604966e-02 1.6426843151540532e-03 -3.2721998860073421e-03 1.0010078399700431e-01 -4.2777445538632053e-03 -1.2385550341993756e-01 -1.4361673158092536e-01 -2.2394394056007988e-02 1.4681704426209995e-02 9.7591951218686135e-02 -4.8990665538075781e-02 1.6050482615699406e-02 4.3413681342405010e-02 -1.0674080023518905e-02 -1.1822016727709439e-03 6.8791901641583469e-02 -4.1808720379605147e-02 2.1460595341451061e-02 1.2084192838307195e-02 5.7399167092654704e-03 7.1863712161419735e-02 3.5905654910376811e-02 -1.3521596584792198e-01 1.0361755515735599e-01 1.7407847947814345e-01 -1.2674510493192438e-02 -4.3919096627545104e-03 -1.7451810412347252e-01 -1.0582076448990940e-01 3.3640581695472438e-01 -3.8252305562470425e-02 1.0927425611431353e-01 -1.8353056464893769e-02 -6.5421557537946526e-02 4.0950963628469499e-03 2.4508554019704767e-02 -1.4833295341633329e-02 9.4011199522989253e-02 3.8466888355069888e-02 -6.7066956505907327e-03 1.1438633236580065e-02 -6.6956067734770586e-02 -8.4632490883661371e-02 
      </Row>
      <Row Index="13">
        2.0750207415049238e-03 -1.0796223356195095e-02 -1.7103477248507637e-04 -7.2914090719325766e-04 -1.3660789715646965e-03 -9.9968316637513276e-04 2.6100336436864560e-04 9.0626985370700942e-03 -1.0789779904978231e-02 2.0532794091318290e-02 -1.3164694478397227e-02 1.0124705807519558e-02 1.0441005470790063e-03 2.0688382878397446e-01 -5.2259786145102953e-02 1.1045617644684987e-02 5.8306972078869829e-03 1.2416449885212091e-02 -5.6528402838639247e-03 1.2905789702636163e-03 3.0381198988987360e-04 5.3295231430859711e-04 5.4076886879913708e-04 1.5537420476835998e-03 1.0256320662758070e-02 7.8193421091644535e-03 -1.3721282104687118e-02 -6.0708266726700547e-03 -7.5907893519674139e-04 -3.6846000459725831e-03 -1.0712944345119033e-02 1.0671553652997380e-01 1.1734460373082657e-03 7.9922707822609445e-03 -7.1565874711552900e-03 5.9681268541751870e-04 1.4231877003498445e-03 1.8206919309982207e-03 -7.7493878825843896e-04 -1.3681307487504186e-03 9.2431294016281939e-04 -1.1537125970593446e-04 -4.8809772089842621e-02 1.8347918486295370e-01 -4.8274549625299187e-02 1.7352358540967561e-02 -4.4894659000254133e-03 1.3619582275785051e-02 -3.8280818172481218e-02 3.2531640042738535e-01 -1.1174818723597904e-01 3.4947172370563107e-02 -5.9567451444897043e-03 2.7119028037331402e-02 -2.2702121564098662e-02 1.1021451371936795e-02 2.5200959369011226e-03 -3.4014174066142891e-02 1.2833449724181101e-04 1.8663650794548910e-02 -6.2190452739394365e-03 1.7076649600359151e-02 1.2871237237550921e-02 9.2567322142494968e-05 -3.7782523193116618e-02 -1.0955067138871802e-01 -8.1910844708977845e-02 1.4480707914997348e-02 -5.4105440005917313e-03 3.5159924719746626e-02 1.5441366373107128e-02 2.1902673149783981e-02 -1.8489280369406801e-02 -5.9033394319083790e-02 -1.1248664791392390e-01 -1.0630001281077533e-02 3.7754467370332584e-02 2.2786353584938723e-01 1.0142168642927718e-02 2.0657500373947781e-02 -9.2847073374403843e-03 -2.2051339015446092e-02 7.4122025275619868e-03 -7.8963730449778738e-03 -2.4508627533524459e-02 -2.8002181682032692e-02 7.9388903314117944e-03 -3.6543238556848018e-02 -1.5258109998440308e-02 3.2970426453198465e-01 1.2489274355278468e-03 6.0807160915381138e-03 1.6898782946219576e-02 3.7922440363015827e-02 -2.9959278928698638e-03 -6.7915279033618325e-02 3.1443964427972024e-03 7.2221720846855596e-03 -1.8249880601810459e-02 1.2212361475252662e-02 2.2064333860628581e-02 2.0761902403183607e-01 1.6871083457836389e-02 1.6031568736033047e-02 6.3769261444691361e-03 -2.8674351459246353e-02 1.4093810749622245e-02 1.6185280696198508e-02 -2.2747557745597495e-02 -5.6306251883567526e-02 -8.4764008053328455e-02 4.6209272367258650e-03 1.1773608192873014e-02 -9.1440190763237256e-02 3.2720627543643133e-02 6.2054800103900257e-02 2.2130054826855983e-02 1.4841142075332556e-02 2.3830268445740016e-02 9.3347692768474391e-02 -5.0227495506815628e-02 -1.3629749945799638e-01 -1.6569132583690660e-01 -1.1786172744104026e-02 1.4922464604547159e-02 3.3356268541291256e-02 8.5497928465863293e-02 -2.2426092518762680e-02 7.6606718741496493e-03 1.1178162278450308e-02 -1.1136654068863494e-02 1.1369472263234710e-02 1.2966153219360045e-02 1.6016117156706412e-02 4.5771903622000724e-02 2.4883385521188572e-02 1.4988720393940197e-02 4.2745744590158452e-02 5.5695319339155031e-03 3.7963951414654749e-03 -5.6015851696260249e-02 1.8721533578206828e-02 -8.5488542404850865e-03 -1.0709588717073988e-01 -2.4227389259373594e-02 1.5894328818311234e-02 -1.9378105738155446e-02 -3.5142963038184594e-02 7.3115529003775839e-03 4.7581345013454640e-01 3.4509712012056643e-01 
      </Row>
      <Row Index="14">
        -3.2899276240266617e-03 2.6282030904646175e-03 -1.4152251553566475e-02 -3.6771183124824011e-04 -1.3923915243350404e-03 5.5009419597869518e-04 3.3438621689465126e-03 -1.1968039296567076e-02 1.6952644479126193e-02 -2.6762645190224560e-02 -5.2821887789512422e-03 2.3102630251886816e-02 5.2136646599544235e-02 -5.2259786146151191e-02 3.1273961959211388e-01 1.2503949107032709e-02 7.3230690926689435e-03 -1.3012838427220084e-02 3.8397464145218940e-03 -7.7646829933258887e-04 1.8044189099657171e-03 2.8398273044080991e-03 6.4560122343270722e-04 -7.1411054844204569e-04 -5.2277867034923866e-03 5.6918487872082042e-04 -5.1296954772628370e-03 1.0477869147498929e-02 -1.9519340804697027e-03 -9.2496289890117746e-03 6.4778062819982468e-03 -2.3697793535830375e-02 -2.9343504219133391e-02 3.1026379403130090e-03 2.6287158296078722e-03 -1.1844091215934254e-03 -1.2644537949566496e-03 -7.0074416196147342e-04 5.0119498925382359e-03 4.1652177449344897e-04 1.8349630515798396e-05 -3.7209478642740920e-04 4.8562663618849464e-02 -5.9586742734549149e-02 1.9422167584554570e-01 -2.3846074881163602e-03 -7.8562439633969305e-03 2.2456148551739219e-02 8.4000226321386665e-02 -1.0917468951099896e-01 4.9870263003998921e-01 -1.2902765383819792e-02 -7.4365653603669785e-03 4.8666447542203478e-02 9.3037707662335545e-02 3.5411756782642176e-02 -3.7243733421319968e-03 6.2809760429354766e-02 -6.0022234264010543e-03 1.5298819040832877e-02 8.0720696274344458e-03 2.3212498408025500e-03 5.1288980366804425e-02 -2.7987057382472730e-02 -3.4305563463729880e-03 -6.6760999898929363e-03 -1.1735572475511002e-01 -2.5571293115314531e-02 -1.1297195160112385e-02 -1.6199776057691850e-02 -2.7359757962290232e-02 -8.8722504341896616e-03 2.9454998402452304e-02 1.3601425034470739e-02 5.1753926656561269e-02 3.9496404524577249e-02 6.9616981729823391e-03 -3.0266707001970339e-01 -3.2653313510488502e-02 -2.0483222353515212e-03 9.6416249586503092e-02 -3.6889235827739425e-02 4.0558156311741936e-03 -4.0752700770367023e-03 5.8268355730052446e-03 -4.6295910118593266e-04 4.2423501626009774e-02 4.5782692622920618e-02 1.2249353246530870e-02 -4.5661231114015477e-01 -8.8072509904975504e-02 -6.9515544166727228e-03 -2.4930287764484443e-02 7.8508655363560553e-03 8.7170279358440503e-03 -1.7101558254860816e-02 3.5475650921074509e-04 -7.1457289119633491e-03 -8.1246683291137434e-02 -3.2477599989527706e-04 -3.9103500681878511e-02 -3.3831001087439638e-01 -9.7443942031924330e-02 -6.3165548749555961e-02 -3.9946015876446084e-02 -1.0702929919570600e-02 -3.6680183890488702e-02 2.4958696255860009e-03 4.8407871335539261e-02 5.8188434331550819e-03 -7.5272489554629410e-02 2.5514927513943735e-02 9.6045850641771457e-02 2.8296255122364666e-02 -3.5287985028325863e-02 -1.5821112111594104e-01 -1.9915717558849289e-01 -7.7532141255140880e-02 -1.0798041629431188e-01 2.4166195540405722e-03 2.5837388632109481e-01 6.0810685790188029e-02 -6.1903908384246087e-02 -9.5531232498121260e-03 1.9112426745345168e-01 4.0084263530997566e-01 7.1578855363249150e-02 -4.5774885136108251e-02 -9.6388485266711899e-02 5.7917366299335138e-03 1.0352961184950993e-02 5.0170964562017598e-02 8.6251526098294007e-02 8.3269800493066537e-03 1.0245385491091374e-01 -4.4316882545734793e-02 -4.4873332173810621e-02 7.6407196579307168e-02 -7.7204349667750749e-02 9.3700069574823713e-04 2.0102923433085726e-01 2.9476680802831723e-02 -4.4854165343223909e-03 -2.3449632018504803e-02 1.7862869238029599e-02 -1.5522399422945823e-02 -5.7772121677270853e-02 8.2795714459160119e-02 -2.4001756796501374e-02 -6.2614400397725289e-01 -3.5205491782897030e-01 
      </Row>
      <Row Index="15">
        -7.1927865910287499e-03 -1.4639807381660944e-03 -1.9658731969922367e-03 -1.5052462523424053e-02 -9.8564870874385396e-05 7.8455458745351804e-04 -1.4205477678836051e-02 -4.0702236875458930e-04 -3.0222093976345524e-02 -5.0661091763819423e-02 4.6798069042971693e-02 6.2187304069472853e-03 5.5327934121497946e-02 1.1045617644583774e-02 1.2503949107606438e-02 2.9883342005770730e-01 2.3129742182442917e-02 -1.6812242668532646e-03 6.5719239711009153e-03 1.6272103865808769e-03 -2.3993919309906967e-03 1.2761984864131073e-02 -1.1212324526804819e-03 8.1372774736865013e-04 9.6012469467147352e-03 2.2291271006948804e-03 -6.3095823740032947e-03 4.4240945460334684e-03 -8.8150742163804700e-03 -1.9247088278511251e-05 -9.9373552111570278e-03 1.9893526109803630e-02 -3.5719450651135291e-03 -2.1508705245485878e-03 2.8110123272516389e-03 5.1962450052052220e-03 6.2701084430255604e-04 5.1671322028081813e-05 7.6920611535907487e-05 4.8134717655249192e-03 -8.1581459054355502e-04 -4.6031138663510081e-04 2.6758172768847684e-02 2.4448558774976061e-02 -2.7708233134073307e-02 1.5530049190953568e-01 6.3944534718232235e-02 2.0492512908572378e-03 7.1702943517244447e-02 2.0766073648441179e-02 -4.7223712561848416e-02 3.5836932964191476e-01 1.1693788573385168e-01 4.1861092970642251e-03 8.4832846109129958e-02 -7.2817825530611582e-03 5.0420552529948925e-03 -6.8998234379421763e-02 6.0207820886015645e-02 1.3277510738856704e-03 -4.4081918973476915e-02 -1.2235473872696370e-02 -4.5998790459795241e-02 1.9480026240825232e-02 3.8681338569928614e-02 3.7004287564422228e-02 -7.0704676243063980e-02 1.4706086809797124e-02 -9.4792327624912374e-03 3.9993921342543953e-02 1.5789761565669191e-02 -2.6434606117993694e-02 4.5228374256053513e-04 -3.2358759841521492e-02 2.4515513322249161e-02 -2.6844654104476607e-02 3.6872464096539090e-02 6.5779534664724082e-02 -2.2674630951223795e-02 5.4837917428088856e-03 3.9895119708119910e-02 5.4259977906345555e-02 2.6621990869806295e-02 6.1801861840175137e-03 -3.2401434020539917e-02 -9.6379616241532851e-03 8.8909953293091672e-03 2.4117303440494564e-03 3.9593062491794728e-02 2.8098265186957794e-02 3.1882852153259922e-02 -8.2451720836502068e-03 5.2118985230702186e-03 -5.1908923364328965e-02 -4.6251266218032328e-02 -5.0426634975624302e-02 3.4715256764022645e-03 1.6471601388033962e-02 1.5506071215990125e-02 1.7923745015759267e-02 4.0744931550244553e-03 2.3102743245093649e-03 1.6320383392390496e-02 1.5483796375363158e-02 -1.7801609663062618e-03 1.5864590129656472e-01 -6.9611697840057246e-03 -3.2731601096628038e-03 -4.9199944893646777e-02 3.4668821481980529e-03 -4.7639620908186547e-03 2.5481093590834468e-02 8.6037919675861968e-02 3.5134321439502947e-01 -1.7057269178016288e-01 7.7273688616355096e-03 4.3263212950612327e-02 1.5623627035157112e-01 1.0551080852224926e-01 2.5522282931920871e-02 -8.6509047365110239e-02 -4.8147315992659104e-03 -3.8610754596891561e-02 3.1005897561611925e-02 8.2230977814910178e-02 -6.6856869729712276e-03 3.4415495866823798e-02 -8.6515492768976139e-03 -3.8798279702671412e-02 -5.2645173260728262e-02 -4.2376606836671091e-02 2.8619743691893976e-02 7.1199079543647306e-02 1.7981741660107006e-02 6.6378023346467613e-02 -4.0604284049093803e-02 -1.3235648148023271e-01 -2.3432813142758474e-01 -3.1535429631405057e-02 4.1147982696810956e-02 -1.0416799854654835e-01 -3.2699018557118764e-02 3.6521107636741233e-02 -1.8094506002898064e-02 1.9824257135169308e-02 3.9915447568198092e-02 -4.6452925529543485e-02 -1.6605879690300029e-02 1.1412141709649146e-02 6.9946708192057325e-02 2.1543165670982439e-02 
      </Row>
      <Row Index="16">
        7.3752468035691993e-03 -3.9720025619615490e-04 2.5170980386274022e-03 -4.3430815444831135e-03 -3.2116980090254203e-02 -1.0295037751340410e-02 3.9676027507563473e-02 -9.2552127265204537e-03 -1.1736496080897297e-03 -1.3722974499658945e-02 -2.2929484823221319e-01 -2.4204290606900426e-02 -2.7611913525595957e-02 5.8306972083239754e-03 7.3230690957117534e-03 2.3129742183220676e-02 3.2170907705106211e-01 7.8188262472086489e-02 -7.7256176659933340e-03 5.1459546032135879e-04 -7.2702391081874620e-04 7.8845694413381441e-03 4.3533545146227995e-03 9.1695445055859953e-04 -4.5592258849950218e-03 -9.3910226201891420e-04 8.3469489678795021e-03 -1.7763646333439206e-03 1.3122483099862678e-03 -1.9371775924501698e-02 -7.4129391367120656e-03 2.1298126066772338e-02 5.0318600951012801e-03 1.2162057058106863e-02 -8.0733164238879940e-02 -2.2721877201417221e-02 -4.6938590270182521e-03 -7.4369233654628065e-04 -1.8322714860921276e-03 9.3483966079426514e-04 1.3773656741223607e-02 4.4172699137468852e-03 2.9800904677572314e-02 2.6039450125100502e-03 6.6560522332400306e-03 1.0800082139525543e-02 -2.8151144016443270e-02 2.5784357214777731e-02 4.3094402791346548e-02 -9.7960095104771550e-03 1.3630025354307795e-02 7.5486832060118955e-03 1.0465113741848471e-01 8.5170423568102060e-02 -5.0057869536089344e-02 2.5083971550295219e-02 -4.3541595237886754e-03 2.3889652538313433e-02 -7.8235947589097077e-02 6.4344996691983354e-03 6.3806247733648541e-02 1.8748583954605005e-02 2.2959678932701665e-03 -2.3231633440786999e-02 -4.4388302964333826e-02 3.0029763544078936e-02 -8.7548653940459520e-02 -8.6305247441860813e-04 -7.0452852397069610e-04 -5.8519323459278169e-02 1.8313014511588885e-02 -7.1959406739788290e-04 -8.9175116497303142e-04 -5.4324842385041372e-02 4.4760257852945740e-02 -4.2871402617483935e-02 4.4773796462025228e-02 1.7922689022091909e-01 4.7562306842964475e-02 -4.0821295935651890e-02 1.4798294060452038e-02 4.8346566251455773e-04 1.8514009043678593e-02 -1.6373770900195525e-02 2.5252717582127212e-02 5.2861672187679079e-03 3.5342149664176287e-02 -6.7113476567920285e-02 3.5222181616542281e-02 2.3103625743414868e-01 4.3530772166917586e-02 6.9593209617211105e-03 7.1289080470987032e-03 -7.2693019233771736e-02 3.0799139924694574e-03 -2.3806590880214862e-02 -3.2520419527236441e-03 -2.2804589247758314e-03 -2.4489373621407268e-02 6.2325615959566913e-03 1.6320701282578585e-02 7.2990499949931120e-02 9.1962744359179727e-03 -1.8841744097412669e-01 1.7355968968746246e-02 -1.3234471699136677e-02 1.7045460675024940e-01 1.3336755259235805e-01 2.1585044242843918e-01 -5.7343116936464815e-02 4.0630004922966430e-02 -2.3831126109398615e-01 -6.0472700941157573e-03 1.3728199083894044e-01 -8.9106803614608765e-02 -1.4449298067111901e-01 -1.6733242847132623e-02 -3.5416376012805888e-02 1.0340759633703585e-01 1.0315713695362587e-01 2.4892461972227101e-01 -2.2137965250324257e-02 2.7395541553872249e-02 -1.6962266063651923e-01 -2.6564862022858904e-02 2.4634077320529957e-01 2.0588425694050830e-01 7.1311529261441742e-02 -3.3443641072354646e-02 6.1261941742996325e-02 -4.0318465180894110e-02 -3.1559360636731607e-02 -1.1237299753090371e-01 2.8414389005517238e-02 1.4128609239451757e-02 1.8954199194388466e-01 -1.9317477166331809e-03 -2.6437983375554830e-01 7.1755054829309078e-02 7.4214223288247602e-02 -4.6719234183111871e-02 -5.2149361159591567e-02 -4.2336420556507201e-02 -8.9701586769315916e-02 -7.8232890879667560e-02 9.1717039314377802e-02 -4.7522181539037534e-02 -5.2208514314914078e-02 2.4022181775803939e-02 3.6602520770757757e-01 1.5070536789001809e-01 
      </Row>
      <Row Index="17">
        7.7944690367189040e-04 -1.1782649448901054e-03 9.2525834334925006e-04 -3.4784702741159045e-04 -1.0660241196693170e-02 -1.0135977027353733e-02 3.0605494509085777e-02 4.8900720681094249e-03 2.4676883647203461e-02 -1.2496518449019813e-02 -8.9246357521957656e-02 5.3814058817841404e-02 -2.5214034246952191e-02 1.2416449884383661e-02 -1.3012838417535616e-02 -1.6812242674829336e-03 7.8188262471476977e-02 1.8474363856612219e-01 -2.6137278484060777e-03 2.2511770567286925e-04 -2.0536059631621677e-03 6.7402881810160915e-03 8.2906588702765091e-04 3.0259305059937818e-04 -9.1565799039455276e-03 -3.7633370121288433e-03 -4.6397713387700927e-03 7.7824802799372813e-03 8.8442222543652863e-03 -3.0219180236149099e-02 7.6262571027644853e-03 1.2128418464793234e-02 -9.7210655198514458e-03 1.3473441455886956e-02 -3.5087561917936251e-02 -2.9337756494728980e-02 -1.2046215081619885e-03 1.4676293409398742e-04 -3.0014978339486416e-04 -4.7535421741553619e-04 6.0174910608634781e-03 3.0594509474857813e-03 4.4394691870797483e-02 1.5154825328655377e-02 1.3063512525259396e-02 -5.6877698938667502e-03 -3.6741335425749269e-02 1.6523424918786597e-01 3.1964521596666760e-02 1.9181720201577754e-02 3.9227375013941579e-02 -1.8163434899036528e-02 -1.4890344197174832e-02 3.7064623402325603e-01 5.9568421867103177e-02 9.1137181900842745e-03 1.6352320752470246e-02 3.5717883433781808e-02 -5.5125265183620736e-02 7.3010432049078339e-03 9.2135297120240600e-02 1.9037151912767170e-02 1.3664925531555731e-02 -2.3885909722887802e-02 -4.8894824834370798e-02 2.5317672529891033e-02 2.2108446486516220e-02 5.7824994194499843e-03 -7.5146500466257427e-03 9.8188284026159145e-03 -5.0788307301795083e-03 2.0700493028049730e-03 4.7040636677468757e-03 -1.6111453606661049e-02 3.3173287375831237e-02 -1.1097401501184795e-02 2.9781410179546990e-02 -3.3133420863022511e-02 -1.4535692094975960e-02 3.2705642008669586e-03 -5.0430957414814834e-02 -1.2518325094212586e-02 2.7253207747452532e-02 -6.2831519536565225e-03 2.7256623425674281e-02 8.7322422407991544e-03 2.4010696493533479e-02 -6.0304530266210132e-02 1.8733186063415008e-02 -1.8278758884219981e-01 -5.0470527545566135e-02 -4.7034029116283307e-03 -8.4065065195176175e-03 -3.5545338266052329e-02 -2.0839811072719417e-02 1.1408326798491297e-02 4.0729364365929763e-03 -9.7279174058587017e-03 -3.6089773147376381e-02 2.6475402609965226e-02 8.2031432423415110e-03 -2.1103204335271686e-02 -3.3771253291252884e-02 -6.8544743938042413e-02 4.7762848104279804e-03 2.0676808405158103e-02 3.8154750160036943e-02 7.0213413175542555e-02 1.1408189169089034e-01 -1.8396870879996346e-02 -5.0382427850527434e-05 -2.3750388233018210e-02 -9.5675127928112266e-03 -6.6000699071616042e-02 6.6403143433053202e-02 -1.3538418158952750e-01 -8.8336058728386818e-02 1.3504917850580997e-01 -3.1145427354690679e-02 1.7695113683375155e-01 3.9301979891061983e-01 -4.9702060720430832e-02 -1.5548484267367213e-02 -1.9571649181702486e-01 -6.2560525998943461e-02 1.0186087976120006e-01 -2.8918890461373775e-02 -1.2550780340678636e-02 -3.9008182943424674e-02 1.1912962824296713e-02 3.7379532104181906e-02 -4.1880386067987080e-02 -9.4780106395653763e-02 6.0503796153329806e-03 3.0709591702742581e-02 6.6265833102811936e-02 5.9561898062631957e-02 3.1996541472434359e-02 -4.9731928494272215e-02 -3.5088395050073568e-03 1.2763006032655397e-01 -2.5586198720392250e-02 -1.2017939333927856e-02 -1.8811886222896361e-02 -5.7295865895711895e-02 6.2132041872509230e-03 -3.4585466866171921e-02 -6.9677966872096819e-02 1.4526141267092826e-02 -1.9388544993428877e-01 -3.1975881413685681e-02 
      </Row>
      <Row Index="18">
        -6.8846032662659585e-03 3.9369763058855721e-04 -1.8513197171106666e-03 -1.1448336250753561e-03 1.2239364167713155e-03 -9.3382151558794426e-05 -3.8365447882800071e-03 3.0950308691526679e-04 -1.0630006554708272e-02 -1.9276129757493085e-02 8.7964413480510571e-03 -1.2716877892617155e-03 6.5425103451474231e-02 -5.6528402838155675e-03 3.8397464144032936e-03 6.5719239710521470e-03 -7.7256176662929034e-03 -2.6137278480466847e-03 4.4150875978400027e-02 -8.1407812151511522e-04 3.2986595175512885e-04 4.9126106038955512e-03 -2.4766639329093258e-03 2.5557964922940274e-04 3.7971544105101923e-02 -1.8942579608473399e-03 -3.4070769707042667e-03 6.2051367488175479e-03 -4.5285359519756391e-03 -4.6184463232928257e-04 -2.5978161566362044e-02 -5.7940673487126681e-03 -9.8264065906354323e-04 6.6143284030057582e-03 4.7690458148345058e-03 5.5164297905143126e-04 -6.1296772725302762e-07 1.3099938627363040e-05 8.1714749238062634e-05 1.1676338987520469e-05 -3.6112283957885475e-04 7.1286414272535596e-06 -1.9062311831004417e-02 -1.6215182428154487e-03 -8.7172666247417215e-03 8.6270955930263168e-03 1.5098011292700607e-02 -5.7937893290292671e-03 5.8973633780623785e-02 -5.3099037512423300e-03 -1.6209872074117459e-02 -9.8319487901152094e-03 1.7004980498650131e-02 -1.2365432165199338e-02 -2.9373254885698391e-02 -1.0644892856246738e-01 -4.9996094128657936e-02 -5.6225019191980627e-02 1.2535444119058461e-01 -5.3405951330208694e-02 -1.3557443179014511e-01 -1.8937766050698544e-02 1.3480342475490348e-02 3.2924690325837336e-02 9.1262613705499068e-02 -2.2867596069998775e-02 1.3214808455592419e-02 3.0947893962904359e-03 2.2325753262933301e-03 6.8871153971281074e-04 -4.6757843621175552e-03 3.7651370263463574e-03 8.6408886009107667e-03 4.9867491793614289e-03 -2.6651650762961688e-03 4.4190492598808204e-03 -4.1659050701992389e-03 7.0323237977798492e-04 -2.1304720694321710e-02 9.6559700458855122e-04 -1.6570497797067166e-03 4.3712663942572512e-02 9.1358751213723825e-03 -4.6602504622656540e-03 -1.4987549741107551e-02 1.7750349870154555e-03 4.7097906805807534e-03 2.3097883076314222e-03 -5.8686195972392670e-03 1.0574125128334283e-01 7.1789355206237637e-03 6.7356142523113966e-03 -1.2430837945972030e-03 -4.0352451820640234e-02 7.5749553216774299e-03 2.4199516554600561e-03 1.0184473282783039e-02 -2.0602547277249975e-03 -8.8445102308447598e-03 -6.3471703958708136e-04 -2.8268994768462577e-03 -2.1129291236079567e-02 -6.3458901985461169e-03 1.1373454548933876e-02 -9.4327909053492712e-03 1.8268130083635915e-02 -2.1599699513489435e-02 2.5428253549152433e-03 -1.4977097596507850e-03 4.2552464079032137e-03 6.0699943213324780e-04 2.5041914631417559e-02 1.5805547124164186e-02 1.2787435011376475e-01 3.2999956577182132e-03 1.1198521227778063e-04 9.1117791019293404e-05 3.7341487782435887e-02 -6.0561459465907977e-04 -4.4294599354128272e-03 -8.8360265376164482e-03 3.7923872007903370e-03 5.8944340005998019e-03 2.8664915992590748e-02 -6.0470999283539495e-03 -3.0458333940212912e-02 2.8157555577083999e-03 8.1533133901039639e-02 6.8709722576941745e-02 4.4068961634665178e-02 -1.0006215245391585e-01 4.6263318303838022e-02 1.1283614543906040e-01 1.6239318530280267e-02 -8.3210062370511588e-03 -4.8800820597610553e-02 -9.4714451033614477e-02 -3.4423311200024287e-02 -1.5101670372263619e-02 6.5784386454330419e-03 -3.6116264672470796e-02 -2.8481633212473038e-03 -4.4432733635872412e-03 7.6289063000207977e-03 -5.9553731560660003e-04 -5.7791787236301361e-03 1.2565984502454048e-02 -8.9865680783644056e-03 -3.5752240817170204e-03 4.6267363979941009e-02 3.1902190474510150e-02 
      </Row>
      <Row Index="19">
        1.1741839792146509e-04 -4.7608706248044533e-04 4.3235728533541368e-04 -2.3595095599310951e-04 -1.0268171484449596e-04 9.3287302287490994e-05 6.1749274220336211e-05 6.7632768334126118e-05 9.1218721297504609e-04 7.0771684626944422e-04 -1.0508382677513418e-03 -2.7698414008002199e-04 3.9892972794781630e-04 1.2905789702562062e-03 -7.7646829932136066e-04 1.6272103865874630e-03 5.1459546027436383e-04 2.2511770554690548e-04 -8.1407812151303854e-04 1.9033995084690473e-03 -3.4267999479422630e-04 -1.8635071257403824e-04 5.2119973400729426e-05 -2.6582928339430448e-04 -8.6695257583420046e-04 -8.8850269802325812e-04 1.7959748013543569e-03 -4.6548025642192048e-04 1.1065404811420740e-04 6.5304040030625193e-04 -6.1799757873517145e-04 1.6384452480753594e-03 5.1766237477505312e-04 3.0483097337325360e-03 1.2130516893907707e-04 -1.0201354970786237e-04 1.8022598814705114e-04 -1.0210377866301885e-04 -2.7896061761751514e-05 5.2900966745118330e-05 3.0559431931770715e-05 4.6257908041909976e-05 1.0573055087020949e-03 6.1837171883670169e-04 1.3996764662797653e-03 8.3153661522154983e-04 -4.6477187622935849e-04 -1.6787495569484416e-05 9.4420277529631141e-04 1.0278113987240466e-03 2.4412678352321335e-03 3.0512056613063486e-04 -1.5937875698123901e-03 3.6563244865777701e-04 -1.6053290942382829e-03 2.3682158060531746e-03 -1.7069985093092878e-03 -1.3147659269338551e-03 1.7733924893806124e-04 -1.0818439535744766e-03 6.3316019179352609e-03 6.7660458966222392e-03 3.7050029677140914e-03 1.2127659185493011e-03 -5.1093114620380268e-03 -5.9435399439933118e-03 -8.6644017443307519e-04 -1.8483969277251154e-04 6.1056127479416661e-04 -2.3238349834977688e-03 -4.0665069872500791e-04 1.2626304482621907e-03 -4.5861884027502864e-04 2.3829213069760185e-03 -5.3441518944027421e-03 -1.7585997217192798e-03 1.5768422863063657e-03 7.2364879858174413e-03 3.0615782479488374e-03 -3.8338691710302700e-03 -6.9619125717863828e-04 -4.0238296033410512e-03 -1.0458035131428057e-04 6.2514287243669231e-04 4.4892420451368049e-03 2.4289911421610196e-03 8.6526771946074323e-04 1.1396434860075724e-03 -1.6685590431288438e-03 4.9384312488106444e-02 1.6397655613300532e-03 -8.0800477908500546e-04 4.9195702643362905e-04 4.9815361742826334e-03 -2.9609291154951830e-03 -1.6766420227850364e-02 3.0933257231366971e-04 4.6434371673275601e-03 1.3438884977993981e-02 -3.8837885436077461e-03 1.0015309749686107e-03 2.6243395943127135e-03 3.6422469473729978e-03 -6.2336205922631528e-04 2.1396830719381480e-03 -4.1496180753019260e-03 7.3131388396208879e-04 2.5385235102791167e-03 -1.2720503091160258e-03 -1.3985563563801134e-03 6.1034223544579962e-04 -1.2310795788440744e-03 -6.3212063332431997e-04 -3.3087393474214265e-02 -3.7189241180233257e-03 -1.1262275348683300e-03 1.9086359939952634e-03 -2.5718911878462999e-03 1.5690681932220185e-03 2.0821473595879214e-03 6.7020921687613137e-04 5.1257703876605933e-04 1.1520093913545970e-03 1.8979652445375583e-03 3.2235349487708120e-05 -6.0963912344450255e-03 3.1609714266339593e-03 9.8907368106043595e-04 -1.8785132065408192e-03 4.6810722066349224e-03 2.9844939460771597e-04 1.5077299231194365e-02 -6.7900662780116970e-03 -1.1669199709267879e-02 -1.8557752426765519e-02 3.9341238159196802e-03 4.6382245988608349e-03 6.3922551712451092e-02 4.1721801522748968e-03 1.1703746029891337e-03 1.6666266971501276e-03 -1.4091889483413365e-03 3.4046685177375291e-03 -5.6679476846210504e-03 9.9292904845035661e-04 -2.8509075955141625e-03 4.6183418272139030e-03 4.1908872728344676e-05 6.7149240413864994e-05 2.0742725848883082e-02 9.0620985789524287e-03 
      </Row>
      <Row Index="20">
        -2.7292054105521393e-04 2.1049401477023569e-04 -3.8832413131569057e-03 1.2141129880494702e-04 2.1551974957697076e-04 -5.3049363681146623e-04 3.6551729667360405e-03 -4.3584082154602343e-04 3.2173415515501340e-03 -9.2679629032417455e-04 -1.1951039544968068e-03 1.1834407432354211e-03 1.2954527772166382e-03 3.0381198993975172e-04 1.8044189097618105e-03 -2.3993919309870581e-03 -7.2702391081517744e-04 -2.0536059634832723e-03 3.2986595177936229e-04 -3.4267999479494632e-04 7.3984360787919699e-03 -9.4806811683053292e-04 4.3124523502002663e-04 -2.6254430790099775e-04 -1.7496071882307229e-03 1.5290397180337655e-03 -1.9283555492190765e-02 -6.4224669682196695e-04 1.4434960517014700e-03 -4.7280711115661551e-03 -3.3305672737302724e-04 5.9334111749495891e-04 6.2918831894016557e-03 -1.6673863852027671e-03 -1.0016274571356277e-03 1.2630704769781987e-03 -9.7619380450050005e-05 1.9729763385028192e-05 -8.5541391818548908e-04 -6.2713094064536753e-05 -7.1931291187262718e-07 -1.1952661244025154e-04 1.0390925394768490e-03 2.0111741724533889e-03 -4.6196642342207061e-03 -5.3724623004451260e-03 -1.9995473960107684e-03 -1.6053215207317722e-03 6.4942325697285568e-03 2.3047961369997896e-03 -1.3470396645645789e-02 -6.2512295287473329e-03 -1.9482144953992075e-03 -4.2275555978720904e-03 3.5703326914482050e-03 -3.9519999648462978e-03 1.6557150584718377e-03 1.6832361350632100e-02 3.7556719831012449e-03 3.3663980411618079e-03 3.3092660081506502e-03 -3.7810175415980874e-03 4.7343430557834475e-03 -1.2276275888731623e-02 -5.2872055750223523e-03 1.3335659973747870e-03 5.9240966919338334e-04 1.0454520573751837e-03 -1.7152287097231792e-03 2.4498626731466093e-03 5.5137559624736463e-04 -9.6830812462029702e-04 1.0158961433740410e-04 2.7183582075152512e-04 -1.4030969403673182e-03 1.5596701418911715e-03 -2.5240765907676658e-03 1.3988052866866374e-01 -8.2908439701393499e-03 2.4149454822744641e-02 2.3739073637447799e-02 1.7445870864326488e-02 1.2526222501779085e-02 -5.2852387235456707e-03 -3.4833345256239198e-02 -1.8140517588414156e-03 8.9487464961148754e-03 -1.2270756645402149e-02 -2.7530090931691835e-02 1.9899198734283391e-02 -3.2507684471312359e-03 6.8903189190424518e-03 4.2164404717567154e-03 5.6720744122403452e-03 4.6258462063432995e-03 1.7525216982008235e-03 -2.8842289648440093e-03 1.4176599466408019e-03 1.6653836686218157e-02 -7.9279232219871959e-04 -1.2831112277087223e-02 7.9691895813302716e-02 -8.4156703350367970e-03 5.5196886126463417e-05 -4.3746021254825068e-04 4.2761878763737139e-03 8.4143874642666323e-04 -2.4272821419224627e-03 -9.1168240221994271e-04 2.6837273648427362e-03 7.6817268494315234e-06 6.9470673724015891e-03 -8.0122910257292290e-04 -1.5393152128179877e-02 4.8681662343650345e-03 8.5251276600714528e-03 1.2550084048348578e-02 1.5855322280664136e-02 -1.4603598356588364e-03 -3.3211717106071958e-03 -1.6790325670135026e-03 7.3066036748186021e-04 2.1324516982801356e-03 -5.2280423486050810e-03 -5.9547818309604317e-03 -2.4358212492949546e-02 -4.5305975504726717e-03 -1.5196889108091411e-02 -1.4680802204395896e-02 -2.4702199311874631e-02 -1.4226373872372629e-02 1.7691915094992204e-03 2.4378046747291451e-02 3.1435960224869032e-04 -2.2620023644183633e-02 1.0859814290968640e-02 2.5694879034882351e-02 3.9691318097708539e-02 -6.8850673942585719e-03 -2.4441200625456702e-03 -2.0618149032686058e-02 3.6927581222380226e-03 -5.4403595723569349e-04 2.8058592668888404e-03 -4.0814831784775907e-03 -1.4797831920624373e-03 4.1501112790844012e-03 -5.0417468367943800e-03 -2.5143744912827599e-03 1.1551295172855860e-01 1.0317473709879413e-01 
      </Row>
      <Row Index="21">
        -6.1284440928338971e-04 4.3849924463511963e-04 -1.4677538337410263e-03 -7.4180576547909121e-03 -9.6930290364735661e-04 -3.5564145182243235e-04 -1.7415778092088339e-03 1.3527260815870859e-03 -4.8194723176264642e-03 1.0158229715992123e-02 -3.9070612584625880e-03 3.9091975693172250e-03 1.4596591244603507e-02 5.3295231416928906e-04 2.8398273049418006e-03 1.2761984864135319e-02 7.8845694411634470e-03 6.7402881808821709e-03 4.9126106038510781e-03 -1.8635071256692913e-04 -9.4806811681883319e-04 4.2202170581032761e-02 2.7420313957793895e-03 -1.9458332437206666e-03 9.1894882385698540e-03 1.4099151692531483e-03 -8.2395350450948125e-03 -3.8202784447648529e-03 4.6773884489770821e-04 -2.9216712801194093e-03 -4.5040927429404794e-03 2.1744767506655001e-03 -5.9696217900219147e-03 6.3342884746149741e-02 -1.0852035530591903e-03 -2.3063915715599492e-03 -3.8009900992025869e-04 5.6399803635302781e-05 5.2327338236829565e-04 -5.0632853773912665e-03 3.2262536963631884e-04 7.0495229035254041e-06 -4.1715946691616504e-03 5.2233119991508311e-03 -1.0041237884604065e-02 9.8105779649914640e-02 8.2927224939802202e-03 3.5964841941103611e-03 5.3694425813865486e-03 2.8153836873508233e-03 -1.3938820134648401e-02 5.3168342826385939e-02 1.2080454396487613e-02 1.2820257264515099e-02 1.5706938613793610e-02 8.3548726109308694e-03 -7.0098121086108927e-03 -6.6334419320406360e-03 1.1367360195342071e-02 -7.8334802837484660e-03 6.1670472090776043e-03 -1.8957015980885453e-03 7.8729021960011678e-03 4.8514735666351418e-03 2.6622674026915594e-02 1.6873032593881288e-02 6.3619602937398101e-03 1.9118435325108664e-03 -1.2930578041192541e-03 -4.2322896707501310e-03 -4.9506358922495408e-03 -8.8265511516258978e-03 2.5546390566025257e-04 -1.5378651121316320e-02 3.2555540478229356e-03 -2.7604233330004880e-03 -2.9964371132082919e-03 -9.8665169568988853e-02 8.5930570017462848e-03 1.3699958310197147e-02 -1.2204479623372046e-02 -1.5301866967844904e-02 1.8624523904929483e-02 -3.2675827595276550e-03 -1.5013517859418218e-02 -7.7185174504060695e-03 3.8254398453497367e-03 5.4512088266113921e-03 2.1176527500906990e-02 -3.5126066980354587e-02 5.2287760670123973e-02 -2.9506344913195221e-02 7.7511255235140145e-03 -3.2599245475018135e-02 -7.6938117205824885e-02 -1.3758275323926358e-02 6.1279086797629848e-02 8.0911919127827723e-03 -2.1095559687272003e-02 -1.6292262190178420e-02 -7.9067019487369411e-02 2.8737469230361426e-02 1.5429405284497072e-03 -3.5560737148173571e-03 -7.8714405079464977e-04 1.0100018117681049e-02 8.0966869848143764e-03 1.0283168568914248e-02 3.5355382476321990e-03 1.2956598987580691e-03 -7.7281006141817141e-03 3.7039553187279729e-03 2.0058974902455229e-02 7.2267296973618028e-02 -2.0386222814875232e-02 -1.8912926155378092e-04 -8.5399901806166995e-03 1.8950274180132454e-02 1.0884448249022825e-02 1.0674174072156650e-02 2.1135676952880923e-02 -2.4898183932992191e-03 -1.1205176720035848e-02 -1.3938182653255891e-02 5.9539061164652907e-03 -4.5317902326623083e-02 -4.3060973706656167e-02 5.1133442594825107e-03 1.4691229026079014e-02 5.0122706115281745e-02 3.9740017332422453e-02 9.3496279999141473e-03 -4.4937376252163277e-02 9.9371703872415933e-03 3.2080855765015084e-02 5.6714247047464491e-03 1.5075715063752108e-02 -6.3549496893608115e-02 7.5627356258004264e-03 -6.5730879151957577e-03 7.4962158220908785e-03 9.6503043918037650e-03 -3.8989419181929656e-04 -1.8409329669270363e-02 -1.6631453123998115e-02 9.8976889784220135e-03 -1.0427897679850976e-02 2.1093309956751877e-03 1.4356598059846893e-03 -1.0155178690938801e-01 -1.2574734915666419e-01 
      </Row>
      <Row Index="22">
        1.3655343325994756e-03 5.0602047120862186e-05 -3.6017507780200866e-05 -2.3351194520394272e-04 -7.6059648299787314e-04 1.0466743098812807e-04 5.5200115063403924e-03 1.3090067541248044e-03 -1.8693744518700503e-03 4.7831274306987951e-03 -2.7408537134069027e-03 4.7135032198847342e-04 -1.0327004804254605e-02 5.4076886881174245e-04 6.4560122349568885e-04 -1.1212324526365253e-03 4.3533545145538928e-03 8.2906588689523448e-04 -2.4766639328995255e-03 5.2119973400829769e-05 4.3124523502211366e-04 2.7420313957769952e-03 2.2571478159129216e-03 -9.0350501198110185e-04 -3.1107542098653962e-03 -8.8878328516299909e-05 9.7873046759483257e-04 -8.5775631931195957e-04 -7.3432285254184217e-05 -1.9371602152603294e-05 1.4991296176432279e-03 2.0782041867633359e-03 -6.9402799184306542e-04 4.0720990934707546e-03 -1.1737468680462510e-03 -1.0162464158052777e-04 -3.9647442324048483e-04 -3.3852360379301549e-05 9.2382184335191057e-05 -3.8632340575668107e-04 1.0101586726557242e-04 3.3974396161336988e-05 3.5594894546911444e-03 2.6945937266009525e-03 -1.5359024111235779e-03 6.5659544123404419e-03 3.7891741053895975e-05 1.1097924054984587e-03 -2.5487879197623811e-04 2.6914914134804936e-03 -1.7426358887661594e-03 3.6475593769472467e-03 1.6957239125014569e-03 2.8191944146912272e-03 5.5368868837167278e-03 2.4521469317762890e-03 3.5562713310056402e-03 9.9009219861687196e-03 -8.8667103100326990e-03 3.6419604224201606e-03 5.6131974055655719e-03 -2.2274308594640549e-03 -1.5208165341913348e-03 1.0693801114220912e-03 -2.7720682427977549e-03 1.8432648141206032e-02 -6.8448674472071369e-04 2.2225257681960064e-04 -1.9568492124637342e-03 4.6157301435719323e-03 -5.6930754296136555e-04 -2.2687325114955957e-03 -6.6236300957053340e-04 -3.3581821426412264e-03 -9.1860776336068553e-04 -1.6011890329963451e-03 1.2388734708679335e-03 1.9011777050130574e-02 3.3301357271124377e-03 -6.3327499226371398e-04 -3.3398854246919907e-03 -5.6289775477053718e-03 -5.4344478567589644e-04 1.9040488682757956e-03 2.6420909401696935e-03 -8.5951532838451482e-04 5.3839548186014065e-04 -2.5188318232529927e-03 3.4817422203271362e-03 3.3895633593657770e-02 5.2546573232854499e-03 7.2931394245365883e-05 1.0286807912579486e-03 1.3936808091948503e-02 -5.2254341293415611e-03 -1.2014424790089417e-02 1.3977229468890872e-03 1.8113865773005421e-03 4.0262268972719745e-03 -6.0076276729803839e-04 -1.7107660122227314e-03 1.9365941402655365e-02 3.7817301145356037e-03 -4.7264192550224449e-03 -1.2474893392383358e-03 -3.0597424444183566e-03 5.1445554316258257e-03 2.6117930985123019e-03 5.5686033156127860e-04 9.6665955065840335e-04 -3.0678733391024861e-04 -6.2624797433933985e-03 6.5078623457945264e-04 9.2818022341815964e-04 -1.3324919236827881e-03 3.5569762714788428e-04 -8.2980202900810596e-05 7.9648223115680161e-03 1.8630169099563294e-03 3.3338044827719848e-03 3.8278951633047113e-03 -1.0642441096733947e-03 -2.0584672256756531e-03 -5.5314604946068357e-03 -3.3658254710511315e-04 -3.4651224236121880e-03 -4.5121070069508006e-03 -5.3027213187799857e-05 5.3776159025044692e-04 -8.3908431684919377e-03 5.3594720610811025e-03 4.8879358705976568e-03 -2.9383249961058172e-03 2.1939016699567843e-03 2.9651420856479684e-04 3.4934166650667994e-03 -1.3678720433135255e-03 -1.3251770104032057e-02 3.3831453867353900e-03 3.9694820711429213e-05 -1.7244510370047368e-03 1.1631098897064195e-02 -1.9521654823655957e-03 -5.2303479920395076e-03 -3.3958698845235266e-03 3.3031637830891153e-03 -8.1115118627864136e-06 -6.7880130193651717e-04 1.7008525566015880e-03 4.1813779697586609e-02 3.5783306749059170e-02 
      </Row>
      <Row Index="23">
